{"learner":{"attributes":{"scikit_learn":"{\"_estimator_type\": \"regressor\"}"},"feature_names":["pH","Tur","Cond"],"feature_types":["float","float","float"],"gradient_booster":{"model":{"gbtree_model_param":{"num_parallel_tree":"1","num_trees":"100"},"iteration_indptr":[0,1,2,3,4,5,6,7,8,9,10,11,12,13,14,15,16,17,18,19,20,21,22,23,24,25,26,27,28,29,30,31,32,33,34,35,36,37,38,39,40,41,42,43,44,45,46,47,48,49,50,51,52,53,54,55,56,57,58,59,60,61,62,63,64,65,66,67,68,69,70,71,72,73,74,75,76,77,78,79,80,81,82,83,84,85,86,87,88,89,90,91,92,93,94,95,96,97,98,99,100],"tree_info":[0,0,0,0,0,0,0,0,0,0,0,0,0,0,0,0,0,0,0,0,0,0,0,0,0,0,0,0,0,0,0,0,0,0,0,0,0,0,0,0,0,0,0,0,0,0,0,0,0,0,0,0,0,0,0,0,0,0,0,0,0,0,0,0,0,0,0,0,0,0,0,0,0,0,0,0,0,0,0,0,0,0,0,0,0,0,0,0,0,0,0,0,0,0,0,0,0,0,0,0],"trees":[{"base_weights":[2.1291333E-7,-2.104542E-1,1.030503E-1,-8.122633E-2,-3.5680065E-1,1.0436713E-2,2.3407894E-1,-6.303473E-2,-6.858052E-2,-1.0962156E-1,-1.2218142E-2,1.8324475E-1,-1.1764997E-1,8.160876E-2,3.5635427E-1,1.4821673E-2,-7.32303E-2,1.23741105E-1,-6.684069E-2,-3.472019E-2,-2.060439E-1,1.07505046E-1,5.8671497E-3,7.308286E-2,1.2523738E-1,-7.791751E-2,1.3623334E-2,1.4444903E-1,-9.2789926E-2,-2.1808147E-3,-6.4311065E-2,-2.7585363E-1,1.215247E-1,-2.497394E-2,-1.5981946E-2,2.1960318E-2,5.3875424E-2,-5.2709058E-2,-1.6770137E-2,-9.43174E-2,-3.590188E-2,5.626755E-2,-4.1992415E-2],"categories":[],"categories_nodes":[],"categories_segments":[],"categories_sizes":[],"default_left":[0,0,0,0,0,0,0,0,0,0,0,0,0,0,0,0,0,0,0,0,0,0,0,0,0,0,0,0,0,0,0,0,0,0,0,0,0,0,0,0,0,0,0],"id":0,"left_children":[1,3,5,7,9,11,13,-1,15,-1,-1,17,19,21,23,-1,25,-1,-1,27,29,-1,31,-1,-1,33,-1,35,37,-1,-1,39,41,-1,-1,-1,-1,-1,-1,-1,-1,-1,-1],"loss_changes":[4.684467E0,1.3137729E0,1.7571367E0,4.9156636E-2,7.4867725E-2,1.9251179E0,1.089519E0,0E0,2.3916468E-2,0E0,0E0,3.535725E0,3.5937065E-1,5.8480084E-1,1.2564373E-1,0E0,2.3557857E-2,0E0,0E0,2.9431975E-1,3.8163066E-2,0E0,7.829351E-1,0E0,0E0,1.616925E-4,0E0,4.3776333E-3,5.440472E-2,0E0,0E0,4.50778E-3,3.19806E-1,0E0,0E0,0E0,0E0,0E0,0E0,0E0,0E0,0E0,0E0],"parents":[2147483647,0,0,1,1,2,2,3,3,4,4,5,5,6,6,8,8,11,11,12,12,13,13,14,14,16,16,19,19,20,20,22,22,25,25,27,27,28,28,31,31,32,32],"right_children":[2,4,6,8,10,12,14,-1,16,-1,-1,18,20,22,24,-1,26,-1,-1,28,30,-1,32,-1,-1,34,-1,36,38,-1,-1,40,42,-1,-1,-1,-1,-1,-1,-1,-1,-1,-1],"split_conditions":[7.8747544E0,7.801614E0,3.5674755E-2,7.488205E-1,4.1749396E0,8.00352E0,8.155445E0,-6.303473E-2,7.4421554E0,-1.0962156E-1,-1.2218142E-2,1.6177429E0,3.3423148E-2,7.8754573E0,1.4231422E0,1.4821673E-2,7.750675E0,1.23741105E-1,-6.684069E-2,1.5089473E0,8.4125395E0,1.07505046E-1,3.9478962E0,7.308286E-2,1.2523738E-1,6.396303E-2,1.3623334E-2,8.3839035E0,8.047085E0,-2.1808147E-3,-6.4311065E-2,7.927101E0,7.9794836E0,-2.497394E-2,-1.5981946E-2,2.1960318E-2,5.3875424E-2,-5.2709058E-2,-1.6770137E-2,-9.43174E-2,-3.590188E-2,5.626755E-2,-4.1992415E-2],"split_indices":[0,0,2,1,1,0,0,0,0,0,0,1,2,0,1,0,0,0,0,1,0,0,1,0,0,2,0,0,0,0,0,0,0,0,0,0,0,0,0,0,0,0,0],"split_type":[0,0,0,0,0,0,0,0,0,0,0,0,0,0,0,0,0,0,0,0,0,0,0,0,0,0,0,0,0,0,0,0,0,0,0,0,0,0,0,0,0,0,0],"sum_hessian":[2.14E2,7E1,1.44E2,3.8E1,3.2E1,8.5E1,5.9E1,2E0,3.6E1,3.1E1,1E0,3.6E1,4.9E1,2.7E1,3.2E1,1E0,3.5E1,2.3E1,1.3E1,2.6E1,2.3E1,5E0,2.2E1,1.3E1,1.9E1,3.4E1,1E0,6E0,2E1,1E0,2.2E1,6E0,1.6E1,2.6E1,8E0,3E0,3E0,5E0,1.5E1,4E0,2E0,1.3E1,3E0],"tree_param":{"num_deleted":"0","num_feature":"3","num_nodes":"43","size_leaf_vector":"1"}},{"base_weights":[-4.98439E-5,-1.5009809E-1,7.34224E-2,-5.8795612E-2,-2.534526E-1,7.2680907E-3,1.6701987E-1,-5.042782E-2,-4.8344612E-2,-2.5920936E-1,-1.0385371E-2,1.2980914E-1,-8.355764E-2,5.6824666E-2,2.554576E-1,1.2598372E-2,-5.202055E-2,-5.9481908E-2,-8.8676736E-2,8.816553E-2,-4.8220795E-2,-2.4068603E-2,-1.4700125E-1,8.062883E-2,-9.3416544E-4,4.9180392E-2,8.8130265E-2,-5.5712536E-2,1.1579848E-2,1.11948214E-1,-6.826142E-2,-1.8536568E-3,-4.5856595E-2,-6.3510075E-2,8.590681E-2,-1.4598212E-2,-2.4505878E-2,6.0595468E-2,1.8983388E-2,-1.2900656E-2,-4.214716E-2,5.178712E-2,-9.968305E-3],"categories":[],"categories_nodes":[],"categories_segments":[],"categories_sizes":[],"default_left":[0,0,0,0,0,0,0,0,0,0,0,0,0,0,0,0,0,0,0,0,0,0,0,0,0,0,0,0,0,0,0,0,0,0,0,0,0,0,0,0,0,0,0],"id":1,"left_children":[1,3,5,7,9,11,13,-1,15,17,-1,19,21,23,25,-1,27,-1,-1,-1,-1,29,31,-1,33,-1,-1,35,-1,37,39,-1,-1,-1,41,-1,-1,-1,-1,-1,-1,-1,-1],"loss_changes":[2.3812625E0,6.5509117E-1,8.966082E-1,3.642191E-2,3.259945E-2,9.6801627E-1,5.7020855E-1,0E0,1.44715905E-2,1.2331963E-2,0E0,1.811082E0,1.8517181E-1,3.4300733E-1,6.754708E-2,0E0,1.4194921E-2,0E0,0E0,0E0,0E0,1.6993785E-1,1.884073E-2,0E0,4.3915856E-1,0E0,0E0,2.435781E-3,0E0,1.789356E-2,3.2272086E-2,0E0,0E0,0E0,1.8136248E-1,0E0,0E0,0E0,0E0,0E0,0E0,0E0,0E0],"parents":[2147483647,0,0,1,1,2,2,3,3,4,4,5,5,6,6,8,8,9,9,11,11,12,12,13,13,14,14,16,16,21,21,22,22,24,24,27,27,29,29,30,30,34,34],"right_children":[2,4,6,8,10,12,14,-1,16,18,-1,20,22,24,26,-1,28,-1,-1,-1,-1,30,32,-1,34,-1,-1,36,-1,38,40,-1,-1,-1,42,-1,-1,-1,-1,-1,-1,-1,-1],"split_conditions":[7.8747544E0,7.801614E0,3.5674755E-2,7.488205E-1,4.1749396E0,8.00352E0,8.155445E0,-5.042782E-2,7.4421554E0,8.614834E-1,-1.0385371E-2,1.6177429E0,3.3423148E-2,7.8754573E0,9.224533E-1,1.2598372E-2,7.750675E0,-5.9481908E-2,-8.8676736E-2,8.816553E-2,-4.8220795E-2,1.5089473E0,8.4125395E0,8.062883E-2,3.9478962E0,4.9180392E-2,8.8130265E-2,6.808466E-2,1.1579848E-2,8.160435E0,3.2953851E0,-1.8536568E-3,-4.5856595E-2,-6.3510075E-2,7.948044E0,-1.4598212E-2,-2.4505878E-2,6.0595468E-2,1.8983388E-2,-1.2900656E-2,-4.214716E-2,5.178712E-2,-9.968305E-3],"split_indices":[0,0,2,1,1,0,0,0,0,1,0,1,2,0,1,0,0,0,0,0,0,1,0,0,1,0,0,2,0,0,1,0,0,0,0,0,0,0,0,0,0,0,0],"split_type":[0,0,0,0,0,0,0,0,0,0,0,0,0,0,0,0,0,0,0,0,0,0,0,0,0,0,0,0,0,0,0,0,0,0,0,0,0,0,0,0,0,0,0],"sum_hessian":[2.14E2,7E1,1.44E2,3.8E1,3.2E1,8.5E1,5.9E1,2E0,3.6E1,3.1E1,1E0,3.6E1,4.9E1,2.7E1,3.2E1,1E0,3.5E1,1.4E1,1.7E1,2.3E1,1.3E1,2.6E1,2.3E1,5E0,2.2E1,1.1E1,2.1E1,3.4E1,1E0,6E0,2E1,1E0,2.2E1,6E0,1.6E1,2.9E1,5E0,1E0,5E0,1.6E1,4E0,9E0,7E0],"tree_param":{"num_deleted":"0","num_feature":"3","num_nodes":"43","size_leaf_vector":"1"}},{"base_weights":[-8.550245E-5,-1.082222E-1,5.2864783E-2,-4.283291E-2,-1.82221E-1,5.2825464E-3,1.20184906E-1,-4.0342234E-2,-3.42449E-2,-1.8607633E-1,-8.827544E-3,9.194607E-2,-5.8954116E-2,4.1882258E-2,1.8298155E-1,1.0708666E-2,-3.717923E-2,-4.282692E-2,-6.355161E-2,6.2818006E-2,-3.4787904E-2,-1.5939713E-2,-1.0488889E-1,6.047173E-2,-1.5970105E-3,2.354436E-2,5.965183E-2,-4.0116336E-2,9.842921E-3,8.973183E-2,-5.0404526E-2,-1.5755654E-3,-3.2697782E-2,-1.5726314E-1,6.259475E-2,-1.3542096E-2,-6.176106E-3,5.150614E-2,1.4237429E-2,-3.0457426E-2,-8.425248E-3,-5.643883E-2,-1.6019488E-2,3.145986E-2,-3.0301202E-2],"categories":[],"categories_nodes":[],"categories_segments":[],"categories_sizes":[],"default_left":[0,0,0,0,0,0,0,0,0,0,0,0,0,0,0,0,0,0,0,0,0,0,0,0,0,0,0,0,0,0,0,0,0,0,0,0,0,0,0,0,0,0,0,0,0],"id":2,"left_children":[1,3,5,7,9,11,13,-1,15,17,-1,19,21,23,25,-1,27,-1,-1,-1,-1,29,31,-1,33,-1,-1,35,-1,37,39,-1,-1,41,43,-1,-1,-1,-1,-1,-1,-1,-1,-1,-1],"loss_changes":[1.236783E0,3.3574462E-1,4.6383524E-1,2.6088566E-2,1.3964295E-2,4.841805E-1,2.8736478E-1,0E0,8.920591E-3,5.4713488E-3,0E0,9.277457E-1,9.712094E-2,1.9473185E-1,3.9081097E-2,0E0,8.716546E-3,0E0,0E0,0E0,0E0,1.0285554E-1,9.240717E-3,0E0,2.3967098E-1,0E0,0E0,2.5047213E-3,0E0,1.6103953E-2,2.1110225E-2,0E0,0E0,1.239565E-2,1.2815636E-1,0E0,0E0,0E0,0E0,0E0,0E0,0E0,0E0,0E0,0E0],"parents":[2147483647,0,0,1,1,2,2,3,3,4,4,5,5,6,6,8,8,9,9,11,11,12,12,13,13,14,14,16,16,21,21,22,22,24,24,27,27,29,29,30,30,33,33,34,34],"right_children":[2,4,6,8,10,12,14,-1,16,18,-1,20,22,24,26,-1,28,-1,-1,-1,-1,30,32,-1,34,-1,-1,36,-1,38,40,-1,-1,42,44,-1,-1,-1,-1,-1,-1,-1,-1,-1,-1],"split_conditions":[7.8747544E0,7.801614E0,3.5674755E-2,7.488205E-1,4.1749396E0,8.00352E0,8.155445E0,-4.0342234E-2,7.4421554E0,8.614834E-1,-8.827544E-3,1.6177429E0,3.3423148E-2,7.8754573E0,6.092001E-1,1.0708666E-2,7.750675E0,-4.282692E-2,-6.355161E-2,6.2818006E-2,-3.4787904E-2,1.5089473E0,8.4125395E0,6.047173E-2,3.9478962E0,2.354436E-2,5.965183E-2,6.396303E-2,9.842921E-3,8.160435E0,8.047085E0,-1.5755654E-3,-3.2697782E-2,7.927101E0,7.9794836E0,-1.3542096E-2,-6.176106E-3,5.150614E-2,1.4237429E-2,-3.0457426E-2,-8.425248E-3,-5.643883E-2,-1.6019488E-2,3.145986E-2,-3.0301202E-2],"split_indices":[0,0,2,1,1,0,0,0,0,1,0,1,2,0,1,0,0,0,0,0,0,1,0,0,1,0,0,2,0,0,0,0,0,0,0,0,0,0,0,0,0,0,0,0,0],"split_type":[0,0,0,0,0,0,0,0,0,0,0,0,0,0,0,0,0,0,0,0,0,0,0,0,0,0,0,0,0,0,0,0,0,0,0,0,0,0,0,0,0,0,0,0,0],"sum_hessian":[2.14E2,7E1,1.44E2,3.8E1,3.2E1,8.5E1,5.9E1,2E0,3.6E1,3.1E1,1E0,3.6E1,4.9E1,2.7E1,3.2E1,1E0,3.5E1,1.4E1,1.7E1,2.3E1,1.3E1,2.6E1,2.3E1,5E0,2.2E1,5E0,2.7E1,3.4E1,1E0,6E0,2E1,1E0,2.2E1,6E0,1.6E1,2.6E1,8E0,1E0,5E0,5E0,1.5E1,4E0,2E0,1.3E1,3E0],"tree_param":{"num_deleted":"0","num_feature":"3","num_nodes":"45","size_leaf_vector":"1"}},{"base_weights":[-3.4681143E-4,-7.7934615E-2,3.764685E-2,-3.0996054E-2,-1.310458E-1,3.9377324E-3,8.5335806E-2,-8.518878E-2,-2.0520981E-2,-1.3357776E-1,-7.503462E-3,6.512017E-2,-4.1416027E-2,2.893092E-2,1.3060856E-1,-3.227377E-2,-1.41296275E-2,1.7216587E-2,-2.7183726E-2,-3.0835325E-2,-4.5545373E-2,4.475795E-2,-2.5096925E-2,8.5027695E-2,-5.1296E-2,4.5353845E-2,-4.2178733E-3,8.202015E-2,4.742701E-2,-1.2462111E-2,-4.112646E-2,-1.3392449E-3,3.490391E-2,3.9687317E-2,-6.307229E-2,-1.0467635E-1,5.6338407E-2,2.6611902E-2,8.380604E-3,-5.4465486E-3,6.047154E-3,-1.7780747E-2,-7.2941785E-3,-1.392467E-2,4.237862E-2,-2.3314968E-2,-1.2923327E-2,-5.206187E-2,7.436264E-3,6.021042E-2,-1.0773969E-2],"categories":[],"categories_nodes":[],"categories_segments":[],"categories_sizes":[],"default_left":[0,0,0,0,0,0,0,0,0,0,0,0,0,0,0,0,0,0,0,0,0,0,0,0,0,0,0,0,0,0,0,0,0,0,0,0,0,0,0,0,0,0,0,0,0,0,0,0,0,0,0],"id":3,"left_children":[1,3,5,7,9,11,13,15,17,19,-1,21,23,25,27,-1,-1,-1,29,-1,-1,-1,-1,31,33,-1,35,37,-1,39,41,-1,-1,43,45,47,49,-1,-1,-1,-1,-1,-1,-1,-1,-1,-1,-1,-1,-1,-1],"loss_changes":[6.3672054E-1,1.7293847E-1,2.3275912E-1,2.039108E-2,5.518675E-3,2.4133442E-1,1.4943767E-1,5.0269067E-5,1.9209158E-2,2.3690462E-3,0E0,4.752804E-1,6.6824615E-2,1.1410463E-1,3.109765E-2,0E0,0E0,0E0,6.0557835E-3,0E0,0E0,0E0,0E0,1.1730447E-2,5.2861102E-2,0E0,1.458153E-1,2.5846586E-3,0E0,3.522912E-3,3.4393296E-3,0E0,0E0,5.9032027E-2,8.949965E-3,8.4539324E-2,2.0697366E-1,0E0,0E0,0E0,0E0,0E0,0E0,0E0,0E0,0E0,0E0,0E0,0E0,0E0,0E0],"parents":[2147483647,0,0,1,1,2,2,3,3,4,4,5,5,6,6,7,7,8,8,9,9,11,11,12,12,13,13,14,14,18,18,23,23,24,24,26,26,27,27,29,29,30,30,33,33,34,34,35,35,36,36],"right_children":[2,4,6,8,10,12,14,16,18,20,-1,22,24,26,28,-1,-1,-1,30,-1,-1,-1,-1,32,34,-1,36,38,-1,40,42,-1,-1,44,46,48,50,-1,-1,-1,-1,-1,-1,-1,-1,-1,-1,-1,-1,-1,-1],"split_conditions":[7.8747544E0,7.801614E0,3.5674755E-2,8.0414194E-1,4.1749396E0,8.00352E0,8.155445E0,7.741556E0,8.135367E-1,8.614834E-1,-7.503462E-3,1.6177429E0,6.550423E-1,7.8754573E0,1.4231422E0,-3.227377E-2,-1.41296275E-2,1.7216587E-2,5.4675832E-2,-3.0835325E-2,-4.5545373E-2,4.475795E-2,-2.5096925E-2,8.4125395E0,2.7495444E-2,4.5353845E-2,7.94268E0,8.593412E0,4.742701E-2,7.716116E0,7.735665E0,-1.3392449E-3,3.490391E-2,8.047085E0,8.12283E-1,4.1396646E0,7.948044E0,2.6611902E-2,8.380604E-3,-5.4465486E-3,6.047154E-3,-1.7780747E-2,-7.2941785E-3,-1.392467E-2,4.237862E-2,-2.3314968E-2,-1.2923327E-2,-5.206187E-2,7.436264E-3,6.021042E-2,-1.0773969E-2],"split_indices":[0,0,2,1,1,0,0,0,1,1,0,1,1,0,1,0,0,0,2,0,0,0,0,0,2,0,0,0,0,0,0,0,0,0,1,1,0,0,0,0,0,0,0,0,0,0,0,0,0,0,0],"split_type":[0,0,0,0,0,0,0,0,0,0,0,0,0,0,0,0,0,0,0,0,0,0,0,0,0,0,0,0,0,0,0,0,0,0,0,0,0,0,0,0,0,0,0,0,0,0,0,0,0,0,0],"sum_hessian":[2.14E2,7E1,1.44E2,3.8E1,3.2E1,8.5E1,5.9E1,5E0,3.3E1,3.1E1,1E0,3.6E1,4.9E1,2.7E1,3.2E1,2E0,3E0,2E0,3.1E1,1.4E1,1.7E1,2.3E1,1.3E1,3E0,4.6E1,5E0,2.2E1,1.3E1,1.9E1,1.6E1,1.5E1,1E0,2E0,5E0,4.1E1,8E0,1.4E1,1.1E1,2E0,1.4E1,2E0,6E0,9E0,3E0,2E0,2.2E1,1.9E1,5E0,3E0,5E0,9E0],"tree_param":{"num_deleted":"0","num_feature":"3","num_nodes":"51","size_leaf_vector":"1"}},{"base_weights":[-5.4494725E-5,-5.6491442E-2,2.7580524E-2,-2.307311E-2,-9.427397E-2,1.1484188E-2,8.640305E-2,-6.736604E-2,-1.457809E-2,-5.6411147E-2,-1.0229815E-1,3.720304E-2,-7.371811E-2,1.9757482E-3,1.1568316E-1,-2.5819017E-2,-1.0950458E-2,1.3773251E-2,-1.9793361E-2,-1.0792104E-1,6.5412365E-2,-2.2306375E-2,-3.735664E-2,1.0996538E-1,3.7425796E-3,-8.449327E-2,3.0965425E-2,4.3917537E-2,-5.0033785E-2,5.5733707E-2,8.0015264E-2,-2.2036029E-2,7.4594026E-3,-1.0722208E-2,-4.0522814E-2,3.58135E-2,-6.377936E-3,1.1495081E-1,-3.6962272E-3,-2.9288126E-2,7.457147E-2,-5.509715E-2,-6.857723E-2,-1.0998059E-2,7.688681E-2,-1.8583525E-2,1.1485999E-1,-4.0265084E-3,-1.3537359E-2,1.472683E-2,3.547685E-2,2.0373203E-2,-1.1482741E-2,2.5695952E-2,1.2526499E-2,3.524437E-2,-2.4532383E-2,3.5674527E-2,1.3409443E-2,1.4031888E-2,3.6693025E-2],"categories":[],"categories_nodes":[],"categories_segments":[],"categories_sizes":[],"default_left":[0,0,0,0,0,0,0,0,0,0,0,0,0,0,0,0,0,0,0,0,0,0,0,0,0,0,0,0,0,0,0,0,0,0,0,0,0,0,0,0,0,0,0,0,0,0,0,0,0,0,0,0,0,0,0,0,0,0,0,0,0],"id":4,"left_children":[1,3,5,7,9,11,13,15,17,19,21,23,25,27,29,-1,-1,-1,31,33,35,-1,-1,37,39,41,-1,43,-1,-1,45,47,-1,-1,-1,-1,-1,49,-1,51,53,-1,55,-1,57,-1,59,-1,-1,-1,-1,-1,-1,-1,-1,-1,-1,-1,-1,-1,-1],"loss_changes":[3.3687985E-1,8.7471485E-2,1.3629767E-1,1.3692439E-2,4.255235E-3,2.547426E-1,7.640469E-2,3.2106228E-4,1.1634581E-2,5.7260305E-2,6.8876743E-3,2.1627331E-1,6.019719E-2,7.102553E-2,4.263881E-2,0E0,0E0,0E0,3.7528193E-3,6.932631E-3,1.6569998E-2,0E0,0E0,1.848647E-2,1.4723481E-1,2.8441012E-2,0E0,2.40714E-2,0E0,0E0,9.120668E-2,5.560005E-3,0E0,0E0,0E0,0E0,0E0,7.262826E-5,0E0,4.0163755E-2,3.6967918E-3,0E0,6.8538606E-2,0E0,2.8017238E-3,0E0,1.3807714E-3,0E0,0E0,0E0,0E0,0E0,0E0,0E0,0E0,0E0,0E0,0E0,0E0,0E0,0E0],"parents":[2147483647,0,0,1,1,2,2,3,3,4,4,5,5,6,6,7,7,8,8,9,9,10,10,11,11,12,12,13,13,14,14,18,18,19,19,20,20,23,23,24,24,25,25,27,27,30,30,31,31,37,37,39,39,40,40,42,42,44,44,46,46],"right_children":[2,4,6,8,10,12,14,16,18,20,22,24,26,28,30,-1,-1,-1,32,34,36,-1,-1,38,40,42,-1,44,-1,-1,46,48,-1,-1,-1,-1,-1,50,-1,52,54,-1,56,-1,58,-1,60,-1,-1,-1,-1,-1,-1,-1,-1,-1,-1,-1,-1,-1,-1],"split_conditions":[7.8747544E0,7.801614E0,4.4018265E-2,8.0414194E-1,7.824187E0,2.0990818E0,7.939652E0,7.741556E0,8.135367E-1,7.8228974E0,8.614834E-1,8.160435E0,4.1396646E0,7.937167E0,7.9794836E0,-2.5819017E-2,-1.0950458E-2,1.3773251E-2,7.7497478E0,2.0236013E0,7.8238387E0,-2.2306375E-2,-3.735664E-2,1.6177429E0,3.5674755E-2,7.94268E0,3.0965425E-2,8.7181365E-1,-5.0033785E-2,5.5733707E-2,8.155445E0,7.7422247E0,7.4594026E-3,-1.0722208E-2,-4.0522814E-2,3.58135E-2,-6.377936E-3,1.450133E0,-3.6962272E-3,6.550423E-1,8.496311E0,-5.509715E-2,7.9438543E0,-1.0998059E-2,7.8749404E0,-1.8583525E-2,2.0160828E0,-4.0265084E-3,-1.3537359E-2,1.472683E-2,3.547685E-2,2.0373203E-2,-1.1482741E-2,2.5695952E-2,1.2526499E-2,3.524437E-2,-2.4532383E-2,3.5674527E-2,1.3409443E-2,1.4031888E-2,3.6693025E-2],"split_indices":[0,0,2,1,0,1,0,0,1,0,1,0,1,0,0,0,0,0,0,1,0,0,0,1,2,0,0,1,0,0,0,0,0,0,0,0,0,1,0,1,0,0,0,0,0,0,1,0,0,0,0,0,0,0,0,0,0,0,0,0,0],"split_type":[0,0,0,0,0,0,0,0,0,0,0,0,0,0,0,0,0,0,0,0,0,0,0,0,0,0,0,0,0,0,0,0,0,0,0,0,0,0,0,0,0,0,0,0,0,0,0,0,0,0,0,0,0,0,0,0,0,0,0,0,0],"sum_hessian":[2.14E2,7E1,1.44E2,3.8E1,3.2E1,1.14E2,3E1,5E0,3.3E1,7E0,2.5E1,8.8E1,2.6E1,8E0,2.2E1,2E0,3E0,2E0,3.1E1,5E0,2E0,1.3E1,1.2E1,2.7E1,6.1E1,2.5E1,1E0,7E0,1E0,6E0,1.6E1,3E1,1E0,2E0,3E0,1E0,1E0,2.6E1,1E0,4.2E1,1.9E1,2E0,2.3E1,2E0,5E0,3E0,1.3E1,2.3E1,7E0,2E0,2.4E1,3E0,3.9E1,1.3E1,6E0,1E0,2.2E1,1E0,4E0,2E0,1.1E1],"tree_param":{"num_deleted":"0","num_feature":"3","num_nodes":"61","size_leaf_vector":"1"}},{"base_weights":[1.5518499E-4,-4.1157674E-2,2.038317E-2,-1.6999954E-2,-6.846051E-2,8.7363785E-3,6.293149E-2,-5.3284485E-2,-1.0096802E-2,-5.810564E-2,-8.9617305E-2,2.7094118E-2,-5.209974E-2,1.2958139E-1,3.8092714E-2,-2.0655252E-2,-8.486581E-3,1.1018658E-2,-1.4171183E-2,-6.924245E-2,-2.5784612E-2,-1.0770345E-1,-1.202513E-2,7.86369E-2,3.3797296E-3,-6.0852434E-2,2.6320554E-2,-6.2967543E-3,4.622698E-2,-1.1952957E-1,5.7855174E-2,-9.029695E-3,-1.2038785E-2,-5.3321905E-2,-2.9991448E-2,-5.846003E-2,3.04415E-2,-5.4212096E-3,-3.660476E-2,8.232512E-2,-3.141761E-3,-2.0294921E-2,5.4111242E-2,-2.948173E-2,-9.499478E-2,-4.252875E-2,-1.1259556E-2,-8.798408E-3,6.8039894E-2,-4.781416E-3,2.6624395E-2,-1.6524334E-2,-4.567838E-3,-5.247116E-3,-2.5444401E-2,2.5489151E-2,9.868241E-3,2.6581981E-3,-1.3123686E-2,1.770145E-2,2.0137788E-3,-1.4463437E-2,-2.120036E-3,-3.3614088E-2,-1.9467832E-3,1.2737418E-2,2.5533201E-2],"categories":[],"categories_nodes":[],"categories_segments":[],"categories_sizes":[],"default_left":[0,0,0,0,0,0,0,0,0,0,0,0,0,0,0,0,0,0,0,0,0,0,0,0,0,0,0,0,0,0,0,0,0,0,0,0,0,0,0,0,0,0,0,0,0,0,0,0,0,0,0,0,0,0,0,0,0,0,0,0,0,0,0,0,0,0,0],"id":5,"left_children":[1,3,5,7,9,11,13,15,17,19,21,23,25,27,29,-1,-1,-1,31,33,35,37,-1,39,41,43,-1,-1,-1,45,47,49,-1,51,-1,53,-1,-1,-1,55,-1,57,59,61,63,-1,-1,-1,65,-1,-1,-1,-1,-1,-1,-1,-1,-1,-1,-1,-1,-1,-1,-1,-1,-1,-1],"loss_changes":[1.8050927E-1,4.5665935E-2,7.1305156E-2,9.230625E-3,2.0222366E-3,1.2984517E-1,4.6384454E-2,3.8687512E-4,7.0072003E-3,7.213436E-3,3.745675E-3,1.0851941E-1,3.838508E-2,3.275633E-2,8.16755E-2,0E0,0E0,0E0,3.9084693E-3,3.4753457E-3,3.9197255E-2,5.492255E-3,0E0,1.0064498E-2,7.5563334E-2,2.5047198E-2,0E0,0E0,0E0,1.4854223E-4,2.1530077E-2,2.0327998E-2,0E0,9.957701E-5,0E0,6.0747396E-3,0E0,0E0,0E0,7.2692335E-4,0E0,2.9787516E-2,4.2429157E-3,5.9566842E-3,1.7383426E-2,0E0,0E0,0E0,5.120404E-3,0E0,0E0,0E0,0E0,0E0,0E0,0E0,0E0,0E0,0E0,0E0,0E0,0E0,0E0,0E0,0E0,0E0,0E0],"parents":[2147483647,0,0,1,1,2,2,3,3,4,4,5,5,6,6,7,7,8,8,9,9,10,10,11,11,12,12,13,13,14,14,18,18,19,19,20,20,21,21,23,23,24,24,25,25,29,29,30,30,31,31,33,33,35,35,39,39,41,41,42,42,43,43,44,44,48,48],"right_children":[2,4,6,8,10,12,14,16,18,20,22,24,26,28,30,-1,-1,-1,32,34,36,38,-1,40,42,44,-1,-1,-1,46,48,50,-1,52,-1,54,-1,-1,-1,56,-1,58,60,62,64,-1,-1,-1,66,-1,-1,-1,-1,-1,-1,-1,-1,-1,-1,-1,-1,-1,-1,-1,-1,-1,-1],"split_conditions":[7.8747544E0,7.801614E0,4.4018265E-2,8.0414194E-1,4.3074757E-2,2.0990818E0,4.414566E-2,7.741556E0,8.135367E-1,4.0997136E-2,7.8313565E0,8.160435E0,4.1396646E0,3.9478962E0,4.494634E-2,-2.0655252E-2,-8.486581E-3,1.1018658E-2,6.4668424E-2,4.0336706E-2,2.0299408E0,7.824187E0,-1.202513E-2,1.6177429E0,3.5674755E-2,2.7473474E-2,2.6320554E-2,-6.2967543E-3,4.622698E-2,7.939652E0,8.7181365E-1,6.396303E-2,-1.2038785E-2,4.0293086E-2,-2.9991448E-2,2.023712E0,3.04415E-2,-5.4212096E-3,-3.660476E-2,1.5395964E0,-3.141761E-3,3.3423148E-2,4.2848233E-2,2.6679562E-2,4.030918E0,-4.252875E-2,-1.1259556E-2,-8.798408E-3,6.403134E-2,-4.781416E-3,2.6624395E-2,-1.6524334E-2,-4.567838E-3,-5.247116E-3,-2.5444401E-2,2.5489151E-2,9.868241E-3,2.6581981E-3,-1.3123686E-2,1.770145E-2,2.0137788E-3,-1.4463437E-2,-2.120036E-3,-3.3614088E-2,-1.9467832E-3,1.2737418E-2,2.5533201E-2],"split_indices":[0,0,2,1,2,1,2,0,1,2,0,0,1,1,2,0,0,0,2,2,1,0,0,1,2,2,0,0,0,0,1,2,0,2,0,1,0,0,0,1,0,2,2,2,1,0,0,0,2,0,0,0,0,0,0,0,0,0,0,0,0,0,0,0,0,0,0],"split_type":[0,0,0,0,0,0,0,0,0,0,0,0,0,0,0,0,0,0,0,0,0,0,0,0,0,0,0,0,0,0,0,0,0,0,0,0,0,0,0,0,0,0,0,0,0,0,0,0,0,0,0,0,0,0,0,0,0,0,0,0,0,0,0,0,0,0,0],"sum_hessian":[2.14E2,7E1,1.44E2,3.8E1,3.2E1,1.14E2,3E1,5E0,3.3E1,2.4E1,8E0,8.8E1,2.6E1,7E0,2.3E1,2E0,3E0,2E0,3.1E1,1.7E1,7E0,5E0,3E0,2.7E1,6.1E1,2.5E1,1E0,1E0,6E0,2E0,2.1E1,2.7E1,4E0,1.3E1,4E0,6E0,1E0,1E0,4E0,2.6E1,1E0,4.2E1,1.9E1,1.4E1,1.1E1,1E0,1E0,2E0,1.9E1,2.6E1,1E0,1.2E1,1E0,3E0,3E0,2.4E1,2E0,1.9E1,2.3E1,1.7E1,2E0,7E0,7E0,9E0,2E0,9E0,1E1],"tree_param":{"num_deleted":"0","num_feature":"3","num_nodes":"67","size_leaf_vector":"1"}},{"base_weights":[-2.7485116E-4,-3.0411854E-2,1.4483784E-2,-1.2113376E-2,-5.111576E-2,6.2515303E-3,4.455557E-2,-4.215606E-2,-6.4554494E-3,-4.272726E-2,-6.873761E-2,1.9431854E-2,-3.742626E-2,-6.904867E-3,6.275506E-2,-1.652422E-2,-6.577063E-3,8.814908E-3,-9.613574E-3,-3.1496927E-2,-6.71057E-2,-8.239659E-2,-9.319425E-3,5.6196604E-2,2.5150008E-3,-2.3439845E-2,-1.1198819E-1,2.235651E-2,-3.6149383E-2,1.0795239E-1,4.0452927E-2,-5.540814E-3,-9.149495E-3,-4.2830203E-2,2.5875308E-2,-9.32268E-3,-2.5907816E-2,-4.607964E-3,-2.7819587E-2,5.8937356E-2,-2.6705505E-3,-1.4449929E-2,3.886385E-2,-4.1516867E-2,3.5081483E-2,-4.1252755E-2,-5.3137783E-3,6.275821E-2,-1.443615E-2,7.878399E-3,3.5157207E-2,-1.4040864E-2,6.2493663E-2,-3.4001563E-3,2.2630692E-2,-1.016037E-2,-1.9719386E-2,6.6837315E-3,1.8293656E-2,1.637478E-2,-6.29758E-3,7.5780125E-3,1.8155849E-2,-3.8342286E-2,-7.949224E-3,2.649336E-2,7.4410443E-3,-1.6238166E-2,2.164922E-2,9.39743E-3,2.1548625E-2],"categories":[],"categories_nodes":[],"categories_segments":[],"categories_sizes":[],"default_left":[0,0,0,0,0,0,0,0,0,0,0,0,0,0,0,0,0,0,0,0,0,0,0,0,0,0,0,0,0,0,0,0,0,0,0,0,0,0,0,0,0,0,0,0,0,0,0,0,0,0,0,0,0,0,0,0,0,0,0,0,0,0,0,0,0,0,0,0,0,0,0],"id":6,"left_children":[1,3,5,7,9,11,13,15,17,19,21,23,25,27,29,-1,-1,-1,31,33,35,37,-1,39,41,43,45,47,-1,49,51,53,-1,55,-1,-1,-1,-1,-1,57,-1,59,61,63,-1,-1,-1,65,67,-1,-1,-1,69,-1,-1,-1,-1,-1,-1,-1,-1,-1,-1,-1,-1,-1,-1,-1,-1,-1,-1],"loss_changes":[9.60684E-2,2.6279159E-2,3.5617456E-2,6.3570556E-3,1.9411221E-3,6.6931315E-2,2.9466487E-2,3.6142673E-4,4.1306755E-3,4.730828E-3,2.071526E-3,5.521167E-2,2.5532074E-2,3.2608923E-2,1.881694E-2,0E0,0E0,0E0,2.5528874E-3,2.904908E-2,2.1723174E-3,2.7327426E-3,0E0,5.5203736E-3,3.879423E-2,6.575775E-2,7.188391E-3,1.27978735E-2,0E0,2.2052154E-3,3.5618983E-2,1.3989773E-2,0E0,1.4682524E-3,0E0,0E0,0E0,0E0,0E0,6.620586E-4,0E0,2.056507E-2,4.363261E-3,2.5126312E-2,0E0,0E0,0E0,1.6890019E-3,2.1092312E-2,0E0,0E0,0E0,1.8234849E-3,0E0,0E0,0E0,0E0,0E0,0E0,0E0,0E0,0E0,0E0,0E0,0E0,0E0,0E0,0E0,0E0,0E0,0E0],"parents":[2147483647,0,0,1,1,2,2,3,3,4,4,5,5,6,6,7,7,8,8,9,9,10,10,11,11,12,12,13,13,14,14,18,18,19,19,20,20,21,21,23,23,24,24,25,25,26,26,27,27,29,29,30,30,31,31,33,33,39,39,41,41,42,42,43,43,47,47,48,48,52,52],"right_children":[2,4,6,8,10,12,14,16,18,20,22,24,26,28,30,-1,-1,-1,32,34,36,38,-1,40,42,44,46,48,-1,50,52,54,-1,56,-1,-1,-1,-1,-1,58,-1,60,62,64,-1,-1,-1,66,68,-1,-1,-1,70,-1,-1,-1,-1,-1,-1,-1,-1,-1,-1,-1,-1,-1,-1,-1,-1,-1,-1],"split_conditions":[7.8747544E0,7.801614E0,4.4018265E-2,8.0414194E-1,4.3074757E-2,2.0990818E0,7.939652E0,7.741556E0,8.135367E-1,2.738536E0,7.8313565E0,8.160435E0,4.394828E-2,7.937167E0,7.9794836E0,-1.652422E-2,-6.577063E-3,8.814908E-3,6.4668424E-2,2.0299408E0,4.0336706E-2,7.824187E0,-9.319425E-3,1.6177429E0,3.5674755E-2,4.005898E0,7.963776E0,7.8751745E0,-3.6149383E-2,4.411342E-2,8.155445E0,6.396303E-2,-9.149495E-3,2.023712E0,2.5875308E-2,-9.32268E-3,-2.5907816E-2,-4.607964E-3,-2.7819587E-2,1.450133E0,-2.6705505E-3,6.550423E-1,1.4231422E0,7.966781E0,3.5081483E-2,-4.1252755E-2,-5.3137783E-3,7.8749404E0,7.927101E0,7.878399E-3,3.5157207E-2,-1.4040864E-2,2.0918171E0,-3.4001563E-3,2.2630692E-2,-1.016037E-2,-1.9719386E-2,6.6837315E-3,1.8293656E-2,1.637478E-2,-6.29758E-3,7.5780125E-3,1.8155849E-2,-3.8342286E-2,-7.949224E-3,2.649336E-2,7.4410443E-3,-1.6238166E-2,2.164922E-2,9.39743E-3,2.1548625E-2],"split_indices":[0,0,2,1,2,1,0,0,1,1,0,0,2,0,0,0,0,0,2,1,2,0,0,1,2,1,0,0,0,2,0,2,0,1,0,0,0,0,0,1,0,1,1,0,0,0,0,0,0,0,0,0,1,0,0,0,0,0,0,0,0,0,0,0,0,0,0,0,0,0,0],"split_type":[0,0,0,0,0,0,0,0,0,0,0,0,0,0,0,0,0,0,0,0,0,0,0,0,0,0,0,0,0,0,0,0,0,0,0,0,0,0,0,0,0,0,0,0,0,0,0,0,0,0,0,0,0,0,0,0,0,0,0,0,0,0,0,0,0,0,0,0,0,0,0],"sum_hessian":[2.14E2,7E1,1.44E2,3.8E1,3.2E1,1.14E2,3E1,5E0,3.3E1,2.4E1,8E0,8.8E1,2.6E1,8E0,2.2E1,2E0,3E0,2E0,3.1E1,1.8E1,6E0,5E0,3E0,2.7E1,6.1E1,2.3E1,3E0,7E0,1E0,6E0,1.6E1,2.7E1,4E0,1.7E1,1E0,3E0,3E0,1E0,4E0,2.6E1,1E0,4.2E1,1.9E1,2.1E1,2E0,2E0,1E0,3E0,4E0,1E0,5E0,3E0,1.3E1,2.6E1,1E0,1.4E1,3E0,2E0,2.4E1,3E0,3.9E1,1.3E1,6E0,2E0,1.9E1,1E0,2E0,3E0,1E0,4E0,9E0],"tree_param":{"num_deleted":"0","num_feature":"3","num_nodes":"71","size_leaf_vector":"1"}},{"base_weights":[-2.932859E-4,-2.248803E-2,1.0576508E-2,-8.587091E-3,-3.8234957E-2,4.3791193E-3,3.3225644E-2,-3.335945E-2,-3.9629377E-3,-3.1478386E-2,-5.275488E-2,1.4255379E-2,-2.833815E-2,4.08525E-2,-5.157582E-2,-1.32193575E-2,-5.0972346E-3,9.099055E-3,-5.9212195E-3,-5.5918295E-2,-2.2572493E-2,-6.036486E-2,-5.2239895E-3,-3.8228035E-3,3.1237654E-2,-1.6874889E-2,-9.003317E-2,7.7884674E-2,2.552932E-2,-3.072703E-2,7.51791E-3,2.1259645E-3,-1.3620096E-2,-4.368544E-3,-7.2956085E-2,2.1994043E-2,-3.1477727E-2,-3.9167404E-3,-1.9822123E-2,3.681625E-2,-1.6858296E-2,4.5350946E-2,1.6410848E-2,-3.1165838E-2,2.806511E-2,-3.3002142E-2,-4.516697E-3,-3.2461167E-3,9.2102595E-2,4.219413E-3,4.6455644E-2,-5.0331117E-4,6.130696E-3,-6.9203987E-3,9.5169886E-4,-2.4893904E-2,-6.432796E-3,-1.0869294E-2,-1.378584E-3,1.5568053E-3,2.21192E-2,-8.366731E-3,9.3180215E-4,1.1557525E-2,2.3404503E-2,1.3193369E-3,1.3487149E-2,-3.067379E-2,-5.683658E-3,1.3585211E-2,3.4768656E-2,-5.0476873E-3,1.5154768E-2,1.801878E-2,9.029961E-3],"categories":[],"categories_nodes":[],"categories_segments":[],"categories_sizes":[],"default_left":[0,0,0,0,0,0,0,0,0,0,0,0,0,0,0,0,0,0,0,0,0,0,0,0,0,0,0,0,0,0,0,0,0,0,0,0,0,0,0,0,0,0,0,0,0,0,0,0,0,0,0,0,0,0,0,0,0,0,0,0,0,0,0,0,0,0,0,0,0,0,0,0,0,0,0],"id":7,"left_children":[1,3,5,7,9,11,13,15,17,19,21,23,25,27,29,-1,-1,-1,31,33,35,37,-1,39,41,43,45,47,49,-1,-1,51,53,-1,55,-1,57,-1,-1,59,61,63,65,67,-1,-1,-1,-1,69,71,73,-1,-1,-1,-1,-1,-1,-1,-1,-1,-1,-1,-1,-1,-1,-1,-1,-1,-1,-1,-1,-1,-1,-1,-1],"loss_changes":[5.210709E-2,1.5213367E-2,2.02075E-2,4.3352954E-3,1.5768223E-3,3.7563257E-2,2.215682E-2,3.026761E-4,2.4628819E-3,4.1792654E-3,1.3693888E-3,2.7443187E-2,1.7575804E-2,1.4467731E-2,1.42569E-2,0E0,0E0,0E0,2.073447E-3,3.1653661E-3,1.9385481E-2,1.0279249E-3,0E0,2.3929663E-2,8.8814795E-3,4.0789537E-2,4.334159E-3,1.1086196E-2,9.614621E-3,0E0,0E0,1.2182326E-3,2.7702823E-3,0E0,2.8609484E-4,0E0,2.2613127E-3,0E0,0E0,1.2459757E-2,7.574182E-3,2.1225587E-3,8.032573E-3,1.7172564E-2,0E0,0E0,0E0,0E0,2.549436E-3,1.2541693E-2,6.401967E-4,0E0,0E0,0E0,0E0,0E0,0E0,0E0,0E0,0E0,0E0,0E0,0E0,0E0,0E0,0E0,0E0,0E0,0E0,0E0,0E0,0E0,0E0,0E0,0E0],"parents":[2147483647,0,0,1,1,2,2,3,3,4,4,5,5,6,6,7,7,8,8,9,9,10,10,11,11,12,12,13,13,14,14,18,18,19,19,20,20,21,21,23,23,24,24,25,25,26,26,27,27,28,28,31,31,32,32,34,34,36,36,39,39,40,40,41,41,42,42,43,43,48,48,49,49,50,50],"right_children":[2,4,6,8,10,12,14,16,18,20,22,24,26,28,30,-1,-1,-1,32,34,36,38,-1,40,42,44,46,48,50,-1,-1,52,54,-1,56,-1,58,-1,-1,60,62,64,66,68,-1,-1,-1,-1,70,72,74,-1,-1,-1,-1,-1,-1,-1,-1,-1,-1,-1,-1,-1,-1,-1,-1,-1,-1,-1,-1,-1,-1,-1,-1],"split_conditions":[7.8747544E0,7.801614E0,4.4018265E-2,8.0414194E-1,4.3074757E-2,2.0990818E0,4.9015737E0,7.741556E0,8.121886E-1,7.8228974E0,7.8489184E0,1.5015044E0,4.394828E-2,4.414566E-2,7.939652E0,-1.32193575E-2,-5.0972346E-3,9.099055E-3,5.4675832E-2,2.0236013E0,7.8238387E0,7.824187E0,-5.2239895E-3,6.550423E-1,1.5395964E0,4.005898E0,7.963776E0,3.9478962E0,6.403134E-2,-3.072703E-2,7.51791E-3,7.716116E0,6.396303E-2,-4.368544E-3,3.6043005E0,2.1994043E-2,4.1688707E-2,-3.9167404E-3,-1.9822123E-2,6.0962546E-1,7.0480967E-1,7.995463E0,1.9516742E0,7.966781E0,2.806511E-2,-3.3002142E-2,-4.516697E-3,-3.2461167E-3,7.948044E0,8.496184E0,8.497573E0,-5.0331117E-4,6.130696E-3,-6.9203987E-3,9.5169886E-4,-2.4893904E-2,-6.432796E-3,-1.0869294E-2,-1.378584E-3,1.5568053E-3,2.21192E-2,-8.366731E-3,9.3180215E-4,1.1557525E-2,2.3404503E-2,1.3193369E-3,1.3487149E-2,-3.067379E-2,-5.683658E-3,1.3585211E-2,3.4768656E-2,-5.0476873E-3,1.5154768E-2,1.801878E-2,9.029961E-3],"split_indices":[0,0,2,1,2,1,1,0,1,0,0,1,2,2,0,0,0,0,2,1,0,0,0,1,1,1,0,1,2,0,0,0,2,0,1,0,2,0,0,1,1,0,1,0,0,0,0,0,0,0,0,0,0,0,0,0,0,0,0,0,0,0,0,0,0,0,0,0,0,0,0,0,0,0,0],"split_type":[0,0,0,0,0,0,0,0,0,0,0,0,0,0,0,0,0,0,0,0,0,0,0,0,0,0,0,0,0,0,0,0,0,0,0,0,0,0,0,0,0,0,0,0,0,0,0,0,0,0,0,0,0,0,0,0,0,0,0,0,0,0,0,0,0,0,0,0,0,0,0,0,0,0,0],"sum_hessian":[2.14E2,7E1,1.44E2,3.8E1,3.2E1,1.14E2,3E1,5E0,3.3E1,2.4E1,8E0,8.8E1,2.6E1,2.8E1,2E0,2E0,3E0,1E0,3.2E1,5E0,1.9E1,6E0,2E0,4.3E1,4.5E1,2.3E1,3E0,7E0,2.1E1,1E0,1E0,1.6E1,1.6E1,2E0,3E0,1E0,1.8E1,1E0,5E0,1E1,3.3E1,2.2E1,2.3E1,2.1E1,2E0,2E0,1E0,1E0,6E0,1.1E1,1E1,1.4E1,2E0,1E1,6E0,2E0,1E0,1.5E1,3E0,6E0,4E0,2.1E1,1.2E1,2E1,2E0,1.7E1,6E0,2E0,1.9E1,3E0,3E0,8E0,3E0,4E0,6E0],"tree_param":{"num_deleted":"0","num_feature":"3","num_nodes":"75","size_leaf_vector":"1"}},{"base_weights":[-1.3653954E-4,-1.6649581E-2,7.950099E-3,-6.256018E-3,-2.8428352E-2,5.1535197E-2,5.6979707E-3,-2.64043E-2,-2.516438E-3,-4.5091946E-2,-2.3842284E-2,-2.0946981E-3,6.245184E-2,-3.768878E-2,8.991582E-3,-8.888341E-3,-1.5430213E-3,-7.935233E-3,8.07929E-3,-3.4947875E-3,-5.8900952E-2,1.8694926E-2,-2.9341362E-2,2.2199478E-2,7.0796016E-4,-7.4729323E-3,-3.1710435E-2,3.2393227E-3,3.5611257E-2,-2.4783988E-3,-8.125248E-3,5.2152157E-2,-5.9504984E-3,-1.9915152E-2,-5.467844E-3,-1.7949654E-2,-3.7258085E-2,-4.248007E-2,1.95097E-2,9.227243E-3,-2.0587422E-2,6.75463E-2,2.0366753E-2,-2.7257171E-3,3.8101122E-4,4.375148E-3,1.9093323E-2,-5.378172E-3,4.948926E-3,-1.4996529E-3,-5.9549725E-3,-4.9522878E-3,-1.232102E-2,-8.313418E-4,-2.4379589E-2,9.39239E-3,9.557634E-5,2.077775E-2,-8.449167E-3,1.1060429E-2,2.8848363E-2,-9.881008E-3,1.0242462E-2],"categories":[],"categories_nodes":[],"categories_segments":[],"categories_sizes":[],"default_left":[0,0,0,0,0,0,0,0,0,0,0,0,0,0,0,0,0,0,0,0,0,0,0,0,0,0,0,0,0,0,0,0,0,0,0,0,0,0,0,0,0,0,0,0,0,0,0,0,0,0,0,0,0,0,0,0,0,0,0,0,0,0,0],"id":8,"left_children":[1,3,5,7,9,11,13,15,17,19,21,-1,23,25,27,-1,-1,29,31,-1,33,-1,35,-1,-1,37,-1,39,41,43,-1,45,47,-1,-1,49,51,53,-1,55,57,59,61,-1,-1,-1,-1,-1,-1,-1,-1,-1,-1,-1,-1,-1,-1,-1,-1,-1,-1,-1,-1],"loss_changes":[2.884239E-2,8.514214E-3,1.3939441E-2,2.872054E-3,1.4467761E-3,4.9077645E-3,2.0201858E-2,2.588192E-4,2.016258E-3,2.084704E-3,1.5094664E-2,0E0,3.988458E-3,1.9760704E-2,1.9790672E-2,0E0,0E0,2.3362027E-3,7.7303275E-3,0E0,7.538125E-6,0E0,1.7662253E-3,0E0,0E0,2.3068191E-2,0E0,1.5598612E-2,9.82148E-3,4.821148E-4,0E0,3.6705472E-4,2.984144E-3,0E0,0E0,2.207011E-4,5.0853565E-4,9.01552E-3,0E0,1.7103754E-2,1.6926438E-2,2.5996976E-3,1.3606651E-2,0E0,0E0,0E0,0E0,0E0,0E0,0E0,0E0,0E0,0E0,0E0,0E0,0E0,0E0,0E0,0E0,0E0,0E0,0E0,0E0],"parents":[2147483647,0,0,1,1,2,2,3,3,4,4,5,5,6,6,7,7,8,8,9,9,10,10,12,12,13,13,14,14,17,17,18,18,20,20,22,22,25,25,27,27,28,28,29,29,31,31,32,32,35,35,36,36,37,37,39,39,40,40,41,41,42,42],"right_children":[2,4,6,8,10,12,14,16,18,20,22,-1,24,26,28,-1,-1,30,32,-1,34,-1,36,-1,-1,38,-1,40,42,44,-1,46,48,-1,-1,50,52,54,-1,56,58,60,62,-1,-1,-1,-1,-1,-1,-1,-1,-1,-1,-1,-1,-1,-1,-1,-1,-1,-1,-1,-1],"split_conditions":[7.8747544E0,7.801614E0,7.8751745E0,8.0414194E-1,7.8228974E0,3.2386433E-2,7.94268E0,6.860834E-2,7.735665E0,2.0236013E0,7.8238387E0,-2.0946981E-3,1.6118231E0,7.9383755E0,4.4018265E-2,-8.888341E-3,-1.5430213E-3,7.721789E0,7.7422247E0,-3.4947875E-3,3.6043005E0,1.8694926E-2,4.050039E-2,2.2199478E-2,7.0796016E-4,7.927101E0,-3.1710435E-2,3.2953851E0,7.9794836E0,2.8991103E0,-8.125248E-3,7.741579E0,7.749693E0,-1.9915152E-2,-5.467844E-3,7.8338113E0,7.084724E-1,1.5396309E0,1.95097E-2,2.8674612E-2,7.9438543E0,7.948044E0,8.155445E0,-2.7257171E-3,3.8101122E-4,4.375148E-3,1.9093323E-2,-5.378172E-3,4.948926E-3,-1.4996529E-3,-5.9549725E-3,-4.9522878E-3,-1.232102E-2,-8.313418E-4,-2.4379589E-2,9.39239E-3,9.557634E-5,2.077775E-2,-8.449167E-3,1.1060429E-2,2.8848363E-2,-9.881008E-3,1.0242462E-2],"split_indices":[0,0,0,1,0,2,0,2,0,1,0,0,1,0,2,0,0,0,0,0,1,0,2,0,0,0,0,1,0,1,0,0,0,0,0,0,1,1,0,2,0,0,0,0,0,0,0,0,0,0,0,0,0,0,0,0,0,0,0,0,0,0,0],"split_type":[0,0,0,0,0,0,0,0,0,0,0,0,0,0,0,0,0,0,0,0,0,0,0,0,0,0,0,0,0,0,0,0,0,0,0,0,0,0,0,0,0,0,0,0,0,0,0,0,0,0,0,0,0,0,0,0,0,0,0,0,0,0,0],"sum_hessian":[2.14E2,7E1,1.44E2,3.8E1,3.2E1,6E0,1.38E2,5E0,3.3E1,5E0,2.7E1,1E0,5E0,9E0,1.29E2,4E0,1E0,2.2E1,1.1E1,2E0,3E0,1E0,2.6E1,4E0,1E0,7E0,2E0,1.07E2,2.2E1,1.8E1,4E0,2E0,9E0,2E0,1E0,1.2E1,1.4E1,5E0,2E0,8.6E1,2.1E1,6E0,1.6E1,6E0,1.2E1,1E0,1E0,6E0,3E0,2E0,1E1,3E0,1.1E1,3E0,2E0,2.4E1,6.2E1,1E0,2E1,4E0,2E0,3E0,1.3E1],"tree_param":{"num_deleted":"0","num_feature":"3","num_nodes":"63","size_leaf_vector":"1"}},{"base_weights":[-3.643923E-5,-1.2116332E-2,5.878794E-3,-4.3243994E-3,-2.0957816E-2,-7.7129254E-4,1.5048934E-2,-8.7978365E-3,-2.1803572E-3,-3.637735E-2,-1.6905138E-2,6.7924997E-3,-2.1455972E-2,-1.5297617E-3,2.3173414E-2,2.605468E-4,-1.4835119E-2,-9.319465E-3,-1.4272929E-2,1.5890695E-2,-2.1454882E-2,2.0063555E-2,1.585338E-3,-1.2710889E-2,-2.8413057E-2,1.0444164E-2,-2.3056412E-2,2.3078632E-2,1.8444195E-2,-4.5017176E-3,2.6877116E-2,-1.3115645E-3,-4.816017E-3,-3.5759213E-3,-6.1783794E-4,-1.5496103E-2,-3.1650648E-2,-5.033052E-2,5.265304E-3,-2.1211836E-2,9.593964E-3,-8.902528E-3,-2.179599E-3,4.8366547E-2,-2.8929075E-3,2.305721E-2,-2.7683973E-2,5.220778E-4,-3.8908126E-3,-2.0422458E-3,1.5480804E-2,-1.4562608E-4,-6.7160316E-3,-1.1684132E-2,-3.8379908E-3,-1.7805577E-3,-1.8945169E-2,5.96444E-3,-1.2217305E-3,-1.8317701E-3,-6.7010527E-3,6.5296176E-3,-4.038048E-3,1.7836548E-2,6.018162E-4,-9.036956E-3,1.2891913E-2,7.4287937E-3,-1.1870385E-3,-2.5718452E-3,-9.359026E-3],"categories":[],"categories_nodes":[],"categories_segments":[],"categories_sizes":[],"default_left":[0,0,0,0,0,0,0,0,0,0,0,0,0,0,0,0,0,0,0,0,0,0,0,0,0,0,0,0,0,0,0,0,0,0,0,0,0,0,0,0,0,0,0,0,0,0,0,0,0,0,0,0,0,0,0,0,0,0,0,0,0,0,0,0,0,0,0,0,0,0,0],"id":9,"left_children":[1,3,5,7,9,11,13,-1,15,17,19,21,23,25,27,29,31,33,-1,-1,35,-1,37,39,41,43,-1,-1,45,47,49,-1,-1,-1,-1,51,53,55,57,59,61,-1,-1,63,65,67,69,-1,-1,-1,-1,-1,-1,-1,-1,-1,-1,-1,-1,-1,-1,-1,-1,-1,-1,-1,-1,-1,-1,-1,-1],"loss_changes":[1.5434134E-2,4.80072E-3,8.85403E-3,2.0266436E-3,1.4472213E-3,1.3444382E-2,8.251741E-3,0E0,1.1467604E-3,1.3747532E-3,1.0037906E-2,1.9605262E-2,1.0381714E-3,1.9743323E-2,9.0041645E-3,4.1771578E-3,6.298884E-6,3.208575E-5,0E0,0E0,1.1499049E-3,0E0,1.1536873E-2,2.4788543E-3,1.0467041E-4,9.749617E-3,0E0,0E0,8.93712E-3,1.5025076E-3,4.5156386E-3,0E0,0E0,0E0,0E0,1.954372E-3,7.400643E-4,1.9017896E-3,7.7239517E-3,1.656171E-5,1.4153719E-3,0E0,0E0,2.4510967E-3,2.0028625E-2,1.7565228E-3,1.0889489E-6,0E0,0E0,0E0,0E0,0E0,0E0,0E0,0E0,0E0,0E0,0E0,0E0,0E0,0E0,0E0,0E0,0E0,0E0,0E0,0E0,0E0,0E0,0E0,0E0],"parents":[2147483647,0,0,1,1,2,2,3,3,4,4,5,5,6,6,8,8,9,9,10,10,11,11,12,12,13,13,14,14,15,15,16,16,17,17,20,20,22,22,23,23,24,24,25,25,28,28,29,29,30,30,35,35,36,36,37,37,38,38,39,39,40,40,43,43,44,44,45,45,46,46],"right_children":[2,4,6,8,10,12,14,-1,16,18,20,22,24,26,28,30,32,34,-1,-1,36,-1,38,40,42,44,-1,-1,46,48,50,-1,-1,-1,-1,52,54,56,58,60,62,-1,-1,64,66,68,70,-1,-1,-1,-1,-1,-1,-1,-1,-1,-1,-1,-1,-1,-1,-1,-1,-1,-1,-1,-1,-1,-1,-1,-1],"split_conditions":[7.8747544E0,7.801614E0,3.547722E-2,7.488205E-1,7.8228974E0,3.3423148E-2,7.966781E0,-8.7978365E-3,6.808466E-2,2.0236013E0,7.8238387E0,1.408354E0,3.5062894E-2,7.948044E0,7.9794836E0,6.396303E-2,8.0181414E-1,7.814073E0,-1.4272929E-2,1.5890695E-2,4.2548183E-2,2.0063555E-2,1.5015044E0,3.49097E-2,3.5453577E-2,7.8751745E0,-2.3056412E-2,2.3078632E-2,3.9526436E0,5.4675832E-2,7.5092287E0,-1.3115645E-3,-4.816017E-3,-3.5759213E-3,-6.1783794E-4,7.839355E0,7.8313565E0,7.8751745E0,1.5392379E0,8.5180235E0,8.52419E0,-8.902528E-3,-2.179599E-3,1.6118231E0,7.94268E0,8.593412E0,8.142957E0,5.220778E-4,-3.8908126E-3,-2.0422458E-3,1.5480804E-2,-1.4562608E-4,-6.7160316E-3,-1.1684132E-2,-3.8379908E-3,-1.7805577E-3,-1.8945169E-2,5.96444E-3,-1.2217305E-3,-1.8317701E-3,-6.7010527E-3,6.5296176E-3,-4.038048E-3,1.7836548E-2,6.018162E-4,-9.036956E-3,1.2891913E-2,7.4287937E-3,-1.1870385E-3,-2.5718452E-3,-9.359026E-3],"split_indices":[0,0,2,1,0,2,0,0,2,1,0,1,2,0,0,2,1,0,0,0,2,0,1,2,2,0,0,0,1,2,0,0,0,0,0,0,0,0,1,0,0,0,0,1,0,0,0,0,0,0,0,0,0,0,0,0,0,0,0,0,0,0,0,0,0,0,0,0,0,0,0],"split_type":[0,0,0,0,0,0,0,0,0,0,0,0,0,0,0,0,0,0,0,0,0,0,0,0,0,0,0,0,0,0,0,0,0,0,0,0,0,0,0,0,0,0,0,0,0,0,0,0,0,0,0,0,0,0,0,0,0,0,0,0,0,0,0,0,0,0,0,0,0,0,0],"sum_hessian":[2.14E2,7E1,1.44E2,3.8E1,3.2E1,8.4E1,6E1,2E0,3.6E1,5E0,2.7E1,6.2E1,2.2E1,2E1,4E1,3.1E1,5E0,2E0,3E0,1E0,2.6E1,4E0,5.8E1,1.1E1,1.1E1,1.8E1,2E0,2E0,3.8E1,2.7E1,4E0,1E0,4E0,1E0,1E0,1.8E1,8E0,3E0,5.5E1,8E0,3E0,1E1,1E0,4E0,1.4E1,3.5E1,3E0,1.6E1,1.1E1,2E0,2E0,6E0,1.2E1,5E0,3E0,1E0,2E0,2.1E1,3.4E1,1E0,7E0,2E0,1E0,3E0,1E0,9E0,5E0,3.3E1,2E0,1E0,2E0],"tree_param":{"num_deleted":"0","num_feature":"3","num_nodes":"71","size_leaf_vector":"1"}},{"base_weights":[-1.4754006E-4,-8.901328E-3,4.1398145E-3,-3.1515514E-3,-1.542678E-2,4.999971E-3,-3.824091E-2,-7.6421355E-3,4.5428593E-3,-2.8541803E-2,-1.2065462E-2,3.273425E-3,4.3877203E-2,-2.0005776E-2,2.7973652E-3,-1.8507807E-3,-6.680939E-3,1.2139798E-2,-4.096545E-3,-3.3549976E-2,-5.251408E-4,1.35071045E-2,-1.5847418E-2,5.047593E-3,-2.2717157E-2,1.7978787E-2,1.9134808E-2,-5.833966E-3,4.3637937E-4,-7.6754093E-3,5.827475E-3,-3.697491E-3,-1.3077498E-2,-7.949646E-3,-2.1635659E-2,-6.933493E-4,1.5546125E-2,-1.844511E-2,-2.8576169E-3,1.7415239E-2,-1.5335584E-2,2.0512105E-3,-2.7256252E-3,1.6952814E-3,-1.9767284E-3,-7.2115264E-4,-5.285275E-3,-5.7962537E-3,-7.818604E-4,-5.9914595E-4,-7.3510027E-3,1.445859E-3,-4.72911E-3,3.8415964E-3,1.5168763E-2,5.89453E-3,-7.394779E-3],"categories":[],"categories_nodes":[],"categories_segments":[],"categories_sizes":[],"default_left":[0,0,0,0,0,0,0,0,0,0,0,0,0,0,0,0,0,0,0,0,0,0,0,0,0,0,0,0,0,0,0,0,0,0,0,0,0,0,0,0,0,0,0,0,0,0,0,0,0,0,0,0,0,0,0,0,0],"id":10,"left_children":[1,3,5,7,9,11,13,15,17,19,21,23,25,-1,-1,27,-1,-1,29,31,-1,-1,33,35,37,39,-1,41,43,45,-1,-1,-1,47,49,51,53,-1,55,-1,-1,-1,-1,-1,-1,-1,-1,-1,-1,-1,-1,-1,-1,-1,-1,-1,-1],"loss_changes":[8.105927E-3,2.615294E-3,5.4770405E-3,1.3822607E-3,1.1103945E-3,9.455008E-3,4.6808156E-3,2.0766326E-3,4.8210872E-3,7.463256E-4,6.7589507E-3,6.478075E-3,1.9463887E-3,0E0,0E0,1.7563932E-4,0E0,0E0,1.2434358E-3,5.284082E-4,0E0,0E0,1.062288E-3,7.8460695E-3,6.753275E-3,1.40429605E-2,0E0,3.5052182E-4,5.134862E-4,5.865801E-4,0E0,0E0,0E0,7.395439E-4,7.9581747E-4,7.137859E-3,3.7672939E-3,0E0,3.9174263E-3,0E0,0E0,0E0,0E0,0E0,0E0,0E0,0E0,0E0,0E0,0E0,0E0,0E0,0E0,0E0,0E0,0E0,0E0],"parents":[2147483647,0,0,1,1,2,2,3,3,4,4,5,5,6,6,7,7,8,8,9,9,10,10,11,11,12,12,15,15,18,18,19,19,22,22,23,23,24,24,25,25,27,27,28,28,29,29,33,33,34,34,35,35,36,36,38,38],"right_children":[2,4,6,8,10,12,14,16,18,20,22,24,26,-1,-1,28,-1,-1,30,32,-1,-1,34,36,38,40,-1,42,44,46,-1,-1,-1,48,50,52,54,-1,56,-1,-1,-1,-1,-1,-1,-1,-1,-1,-1,-1,-1,-1,-1,-1,-1,-1,-1],"split_conditions":[7.8747544E0,7.801614E0,4.9015737E0,7.741556E0,7.8228974E0,4.030918E0,7.939652E0,7.721789E0,7.7422247E0,4.2309504E-2,7.8238387E0,3.9595015E0,7.94268E0,-2.0005776E-2,2.7973652E-3,2.8991103E0,-6.680939E-3,1.2139798E-2,7.750675E0,4.0063027E-2,-5.251408E-4,1.35071045E-2,4.050039E-2,3.547722E-2,4.3957435E-2,7.9383755E0,1.9134808E-2,7.4421554E0,7.67532E0,8.2042277E-1,5.827475E-3,-3.697491E-3,-1.3077498E-2,3.3080157E-2,7.8268695E0,3.3423148E-2,3.9478962E0,-1.844511E-2,4.4130262E-2,1.7415239E-2,-1.5335584E-2,2.0512105E-3,-2.7256252E-3,1.6952814E-3,-1.9767284E-3,-7.2115264E-4,-5.285275E-3,-5.7962537E-3,-7.818604E-4,-5.9914595E-4,-7.3510027E-3,1.445859E-3,-4.72911E-3,3.8415964E-3,1.5168763E-2,5.89453E-3,-7.394779E-3],"split_indices":[0,0,1,0,0,1,0,0,0,2,0,1,0,0,0,1,0,0,0,2,0,0,2,2,2,0,0,0,0,1,0,0,0,2,0,2,1,0,2,0,0,0,0,0,0,0,0,0,0,0,0,0,0,0,0,0,0],"split_type":[0,0,0,0,0,0,0,0,0,0,0,0,0,0,0,0,0,0,0,0,0,0,0,0,0,0,0,0,0,0,0,0,0,0,0,0,0,0,0,0,0,0,0,0,0,0,0,0,0,0,0,0,0,0,0,0,0],"sum_hessian":[2.14E2,7E1,1.44E2,3.8E1,3.2E1,1.42E2,2E0,2.4E1,1.4E1,5E0,2.7E1,1.37E2,5E0,1E0,1E0,1.8E1,6E0,2E0,1.2E1,4E0,1E0,1E0,2.6E1,1.29E2,8E0,3E0,2E0,6E0,1.2E1,1.1E1,1E0,2E0,2E0,1.2E1,1.4E1,8.4E1,4.5E1,2E0,6E0,2E0,1E0,1E0,5E0,7E0,5E0,8E0,3E0,3E0,9E0,2E0,1.2E1,6.2E1,2.2E1,4.3E1,2E0,3E0,3E0],"tree_param":{"num_deleted":"0","num_feature":"3","num_nodes":"57","size_leaf_vector":"1"}},{"base_weights":[-1.6928163E-4,-3.0744774E-3,9.735555E-3,7.339246E-3,-5.7918145E-3,4.698474E-2,3.445326E-3,1.0037422E-3,2.2375014E-2,-4.6568274E-2,-4.492602E-3,2.0058203E-2,1.536262E-2,-5.852098E-3,1.3464156E-2,-1.6262213E-2,1.0375911E-2,-1.01137164E-4,-1.8559886E-2,1.7573118E-2,-5.8912453E-3,8.387662E-3,1.8442472E-3,-1.3955048E-2,-2.171348E-3,2.9088702E-2,5.2750907E-3,-3.895416E-2,-4.696846E-5,7.33009E-3,1.5855517E-2,-3.5492422E-3,2.3463795E-2,-4.600272E-3,-2.6627336E-2,-8.9972024E-4,1.7296314E-3,-8.475781E-4,-4.601741E-3,6.6294074E-3,-8.994818E-3,6.0117245E-3,1.3468051E-2,-6.990814E-3,1.14641925E-2,-2.9463293E-3,-1.6530754E-2,-8.572054E-3,2.4330548E-3,2.6202272E-3,-4.995823E-4,8.355618E-4,5.2709104E-3,8.130141E-3,2.8744221E-3,-1.6782937E-3,7.46398E-3,-1.1115968E-2,-2.8633834E-3,-5.708763E-4,9.953356E-3,2.5413036E-3,-3.5630069E-3,-1.1068345E-3,5.2672867E-3,1.1701584E-4,4.902808E-3],"categories":[],"categories_nodes":[],"categories_segments":[],"categories_sizes":[],"default_left":[0,0,0,0,0,0,0,0,0,0,0,0,0,0,0,0,0,0,0,0,0,0,0,0,0,0,0,0,0,0,0,0,0,0,0,0,0,0,0,0,0,0,0,0,0,0,0,0,0,0,0,0,0,0,0,0,0,0,0,0,0,0,0,0,0,0,0],"id":11,"left_children":[1,3,5,7,9,11,13,15,-1,17,19,-1,21,23,25,27,29,-1,-1,31,33,-1,35,37,39,41,43,45,47,49,51,-1,53,55,57,-1,-1,-1,-1,59,61,63,-1,-1,65,-1,-1,-1,-1,-1,-1,-1,-1,-1,-1,-1,-1,-1,-1,-1,-1,-1,-1,-1,-1,-1,-1],"loss_changes":[6.216662E-3,4.7682063E-3,1.1319112E-2,1.4836027E-2,6.836768E-3,3.3724792E-3,4.084214E-3,5.5087777E-3,0E0,2.808121E-3,4.1155973E-3,0E0,6.2956003E-4,6.556722E-4,2.5335131E-3,4.4136364E-3,2.5095535E-4,0E0,0E0,1.6632674E-3,3.1701848E-3,0E0,7.426562E-5,6.4495136E-5,1.080509E-3,2.283202E-3,2.9202108E-3,1.8110871E-3,2.093299E-3,2.1661649E-4,1.0789931E-4,0E0,9.373925E-5,3.5678123E-3,8.930601E-4,0E0,0E0,0E0,0E0,1.8752952E-3,6.0395035E-4,5.128128E-4,0E0,0E0,6.959529E-4,0E0,0E0,0E0,0E0,0E0,0E0,0E0,0E0,0E0,0E0,0E0,0E0,0E0,0E0,0E0,0E0,0E0,0E0,0E0,0E0,0E0,0E0],"parents":[2147483647,0,0,1,1,2,2,3,3,4,4,5,5,6,6,7,7,9,9,10,10,12,12,13,13,14,14,15,15,16,16,19,19,20,20,22,22,23,23,24,24,25,25,26,26,27,27,28,28,29,29,30,30,32,32,33,33,34,34,39,39,40,40,41,41,44,44],"right_children":[2,4,6,8,10,12,14,16,-1,18,20,-1,22,24,26,28,30,-1,-1,32,34,-1,36,38,40,42,44,46,48,50,52,-1,54,56,58,-1,-1,-1,-1,60,62,64,-1,-1,66,-1,-1,-1,-1,-1,-1,-1,-1,-1,-1,-1,-1,-1,-1,-1,-1,-1,-1,-1,-1,-1,-1],"split_conditions":[8.42596E0,2.7982224E-2,8.448414E0,8.047085E0,2.8125497E-2,1.408354E0,3.8715642E-2,2.678937E-2,2.2375014E-2,7.600818E0,2.9196816E-2,2.0058203E-2,8.432093E0,3.48713E-2,4.2848233E-2,7.9808784E0,3.424131E0,-1.01137164E-4,-1.8559886E-2,1.5102967E0,8.4158325E0,8.387662E-3,8.434294E0,8.5180235E0,8.52419E0,9.224533E-1,4.3641333E-2,7.9802594E0,1.5094134E0,1.5362461E0,7.9802294E0,-3.5492422E-3,7.9911227E0,8.4125395E0,8.416743E0,-8.9972024E-4,1.7296314E-3,-8.475781E-4,-4.601741E-3,8.5241785E0,5.6930596E-1,8.496973E0,1.3468051E-2,-6.990814E-3,2.0918171E0,-2.9463293E-3,-1.6530754E-2,-8.572054E-3,2.4330548E-3,2.6202272E-3,-4.995823E-4,8.355618E-4,5.2709104E-3,8.130141E-3,2.8744221E-3,-1.6782937E-3,7.46398E-3,-1.1115968E-2,-2.8633834E-3,-5.708763E-4,9.953356E-3,2.5413036E-3,-3.5630069E-3,-1.1068345E-3,5.2672867E-3,1.1701584E-4,4.902808E-3],"split_indices":[0,2,0,0,2,1,2,2,0,0,2,0,0,2,2,0,1,0,0,1,0,0,0,0,0,1,2,0,1,1,0,0,0,0,0,0,0,0,0,0,1,0,0,0,1,0,0,0,0,0,0,0,0,0,0,0,0,0,0,0,0,0,0,0,0,0,0],"split_type":[0,0,0,0,0,0,0,0,0,0,0,0,0,0,0,0,0,0,0,0,0,0,0,0,0,0,0,0,0,0,0,0,0,0,0,0,0,0,0,0,0,0,0,0,0,0,0,0,0,0,0,0,0,0,0,0,0,0,0,0,0,0,0,0,0,0,0],"sum_hessian":[2.14E2,1.66E2,4.8E1,3.4E1,1.32E2,6E0,4.2E1,3.2E1,2E0,3E0,1.29E2,3E0,3E0,2.2E1,2E1,1.1E1,2.1E1,1E0,2E0,7E0,1.22E2,1E0,2E0,6E0,1.6E1,6E0,1.4E1,4E0,7E0,1.5E1,6E0,1E0,6E0,1.16E2,6E0,1E0,1E0,1E0,5E0,7E0,9E0,3E0,3E0,2E0,1.2E1,2E0,2E0,1E0,6E0,1.3E1,2E0,1E0,5E0,4E0,2E0,1.13E2,3E0,3E0,3E0,6E0,1E0,1E0,8E0,2E0,1E0,4E0,8E0],"tree_param":{"num_deleted":"0","num_feature":"3","num_nodes":"67","size_leaf_vector":"1"}},{"base_weights":[3.705801E-5,-2.2383535E-3,7.791276E-3,-8.367811E-4,-1.7495768E-2,3.7071366E-2,2.8435574E-3,4.594644E-3,-6.327877E-3,-1.5109683E-2,-7.820328E-3,-7.6475146E-4,4.4099648E-2,-6.49441E-3,8.617701E-3,1.6147329E-2,3.2562776E-3,-2.1652274E-2,-1.6250928E-3,8.434852E-3,-2.063615E-2,1.55450115E-2,1.9110361E-2,-4.043818E-3,-2.4607182E-3,5.4666065E-3,6.4167595E-3,-2.9032377E-3,1.3551449E-2,-1.141937E-2,-4.0214855E-2,-5.9430446E-3,1.2986966E-2,-2.6517392E-3,5.784488E-3,-1.2059213E-2,-1.0676384E-2,7.129526E-3,1.4701367E-3,-7.057667E-3,8.497596E-3,8.034468E-3,-7.653952E-3,-3.0891676E-3,-6.806529E-5,1.0175277E-2,2.3685815E-3,2.457301E-4,-9.3494225E-3,-8.285523E-4,-1.4145928E-2,-7.220929E-4,-1.3006211E-2,6.899369E-3,-9.4157215E-3,-2.695799E-4,-3.7356664E-3,8.497239E-4,-3.0864105E-3,8.460332E-3,-2.2411824E-3,4.4630372E-4,3.5007682E-3],"categories":[],"categories_nodes":[],"categories_segments":[],"categories_sizes":[],"default_left":[0,0,0,0,0,0,0,0,0,0,0,0,0,0,0,0,0,0,0,0,0,0,0,0,0,0,0,0,0,0,0,0,0,0,0,0,0,0,0,0,0,0,0,0,0,0,0,0,0,0,0,0,0,0,0,0,0,0,0,0,0,0,0],"id":12,"left_children":[1,3,5,7,9,11,13,15,17,-1,19,-1,21,23,25,-1,27,29,31,33,35,-1,37,-1,39,41,-1,43,45,47,49,51,53,-1,-1,-1,55,-1,-1,57,59,61,-1,-1,-1,-1,-1,-1,-1,-1,-1,-1,-1,-1,-1,-1,-1,-1,-1,-1,-1,-1,-1],"loss_changes":[3.8109077E-3,3.5565502E-3,6.993197E-3,4.622043E-3,4.0585464E-3,2.0616688E-3,2.374474E-3,4.963956E-3,5.513997E-3,0E0,2.6739447E-3,0E0,1.6682595E-4,4.4581038E-4,9.69667E-4,0E0,4.9221646E-3,2.9598568E-3,3.8628322E-3,1.2946348E-3,9.3461364E-4,0E0,8.196989E-5,0E0,6.644709E-4,2.0346756E-3,0E0,9.6732104E-4,3.0728518E-3,3.1670178E-3,1.428918E-3,6.1131753E-3,6.9407737E-3,0E0,0E0,0E0,9.299291E-5,0E0,0E0,3.1667732E-4,1.4691978E-3,5.0615193E-4,0E0,0E0,0E0,0E0,0E0,0E0,0E0,0E0,0E0,0E0,0E0,0E0,0E0,0E0,0E0,0E0,0E0,0E0,0E0,0E0,0E0],"parents":[2147483647,0,0,1,1,2,2,3,3,4,4,5,5,6,6,7,7,8,8,10,10,12,12,13,13,14,14,16,16,17,17,18,18,19,19,20,20,22,22,24,24,25,25,27,27,28,28,29,29,30,30,31,31,32,32,36,36,39,39,40,40,41,41],"right_children":[2,4,6,8,10,12,14,16,18,-1,20,-1,22,24,26,-1,28,30,32,34,36,-1,38,-1,40,42,-1,44,46,48,50,52,54,-1,-1,-1,56,-1,-1,58,60,62,-1,-1,-1,-1,-1,-1,-1,-1,-1,-1,-1,-1,-1,-1,-1,-1,-1,-1,-1,-1,-1],"split_conditions":[8.42596E0,8.37263E0,8.448414E0,1.6994385E0,8.3839035E0,3.0673997E-2,3.547722E-2,2.5946466E-2,2.1799908E0,-1.5109683E-2,8.4158325E0,-7.6475146E-4,1.408354E0,6.5899414E-1,2.0984733E0,1.6147329E-2,1.5102967E0,4.3074757E-2,4.4018265E-2,8.4125395E0,8.415855E0,1.55450115E-2,8.432093E0,-4.043818E-3,8.5241785E0,2.0982985E0,6.4167595E-3,3.3080157E-2,7.8754573E0,2.023712E0,7.8268695E0,4.394828E-2,4.9015737E0,-2.6517392E-3,5.784488E-3,-1.2059213E-2,3.5062894E-2,7.129526E-3,1.4701367E-3,6.8333095E-1,8.52419E0,8.496184E0,-7.653952E-3,-3.0891676E-3,-6.806529E-5,1.0175277E-2,2.3685815E-3,2.457301E-4,-9.3494225E-3,-8.285523E-4,-1.4145928E-2,-7.220929E-4,-1.3006211E-2,6.899369E-3,-9.4157215E-3,-2.695799E-4,-3.7356664E-3,8.497239E-4,-3.0864105E-3,8.460332E-3,-2.2411824E-3,4.4630372E-4,3.5007682E-3],"split_indices":[0,0,0,1,0,2,2,2,1,0,0,0,1,1,1,0,1,2,2,0,0,0,0,0,0,1,0,2,0,1,0,2,1,0,0,0,2,0,0,1,0,0,0,0,0,0,0,0,0,0,0,0,0,0,0,0,0,0,0,0,0,0,0],"split_type":[0,0,0,0,0,0,0,0,0,0,0,0,0,0,0,0,0,0,0,0,0,0,0,0,0,0,0,0,0,0,0,0,0,0,0,0,0,0,0,0,0,0,0,0,0,0,0,0,0,0,0,0,0,0,0,0,0,0,0,0,0,0,0],"sum_hessian":[2.14E2,1.66E2,4.8E1,1.53E2,1.3E1,6E0,4.2E1,7.7E1,7.6E1,2E0,1.1E1,1E0,5E0,1.6E1,2.6E1,1E0,7.6E1,1.7E1,5.9E1,5E0,6E0,3E0,2E0,5E0,1.1E1,2.2E1,4E0,4.8E1,2.8E1,1.2E1,5E0,4.6E1,1.3E1,2E0,3E0,1E0,5E0,1E0,1E0,8E0,3E0,2.1E1,1E0,1.2E1,3.6E1,5E0,2.3E1,8E0,4E0,1E0,4E0,4.3E1,3E0,1.1E1,2E0,1E0,4E0,2E0,6E0,1E0,2E0,8E0,1.3E1],"tree_param":{"num_deleted":"0","num_feature":"3","num_nodes":"63","size_leaf_vector":"1"}},{"base_weights":[-5.227244E-5,-1.8234082E-3,5.9851143E-3,-4.692777E-4,-1.3006528E-2,2.0861307E-2,-5.6140084E-4,4.294219E-3,-4.9214056E-3,-3.1796813E-2,-7.128684E-3,1.1831761E-2,1.4969385E-2,-5.717254E-3,1.7681569E-3,7.866484E-4,2.0422496E-2,-3.0201382E-3,-3.2075882E-2,-1.20876795E-2,-9.465695E-4,1.139111E-3,-1.6740322E-2,5.1488876E-3,2.0463586E-2,-3.8964874E-3,9.329592E-3,-7.2526134E-4,1.3725186E-2,2.7836418E-2,-3.2179356E-3,-6.3218614E-3,1.4565587E-2,-4.217148E-4,-1.1817599E-2,-2.4761201E-3,4.48308E-3,-1.025033E-2,-8.14112E-3,1.6572157E-2,-1.411736E-3,1.2495518E-3,6.659072E-3,-7.1835993E-3,-2.1972656E-4,1.73378E-2,-1.1554445E-3,-3.3362675E-3,3.981955E-4,9.576417E-3,-1.3392449E-3,-1.281023E-3,-4.331589E-4,-1.3178891E-3,-8.345547E-3,7.503391E-3,-7.532597E-3,-2.2916794E-4,-2.8391362E-3,6.1254506E-3,1.3320209E-3,1.6349317E-3,-2.7578513E-3,-2.314091E-3,2.645073E-3,9.2353823E-4,6.473351E-3,-6.505823E-3,1.7642023E-3],"categories":[],"categories_nodes":[],"categories_segments":[],"categories_sizes":[],"default_left":[0,0,0,0,0,0,0,0,0,0,0,0,0,0,0,0,0,0,0,0,0,0,0,0,0,0,0,0,0,0,0,0,0,0,0,0,0,0,0,0,0,0,0,0,0,0,0,0,0,0,0,0,0,0,0,0,0,0,0,0,0,0,0,0,0,0,0,0,0],"id":13,"left_children":[1,3,5,7,9,11,13,15,17,19,21,-1,23,-1,25,27,29,31,33,-1,-1,35,37,39,41,43,45,47,-1,49,51,53,55,-1,-1,-1,-1,-1,57,59,-1,-1,-1,61,63,65,67,-1,-1,-1,-1,-1,-1,-1,-1,-1,-1,-1,-1,-1,-1,-1,-1,-1,-1,-1,-1,-1,-1],"loss_changes":[2.309915E-3,2.5228448E-3,4.783686E-3,3.2022882E-3,1.7613652E-3,1.0515116E-3,1.5417682E-3,4.113623E-3,3.9301044E-3,8.4616104E-4,1.2110749E-3,0E0,5.960602E-4,0E0,1.4070035E-3,4.1800505E-3,2.3680646E-3,4.3887584E-3,1.0665581E-3,0E0,0E0,1.2903112E-3,7.708708E-4,7.5342064E-4,1.335491E-4,2.2805412E-4,1.1955616E-3,1.2950326E-3,0E0,1.4619692E-3,1.3008939E-6,2.4900772E-3,5.6011095E-3,0E0,0E0,0E0,0E0,0E0,5.131634E-5,4.932232E-5,0E0,0E0,0E0,3.039334E-4,7.4520777E-4,4.172544E-4,1.1387204E-3,0E0,0E0,0E0,0E0,0E0,0E0,0E0,0E0,0E0,0E0,0E0,0E0,0E0,0E0,0E0,0E0,0E0,0E0,0E0,0E0,0E0,0E0],"parents":[2147483647,0,0,1,1,2,2,3,3,4,4,5,5,6,6,7,7,8,8,9,9,10,10,12,12,14,14,15,15,16,16,17,17,18,18,21,21,22,22,23,23,24,24,25,25,26,26,27,27,29,29,30,30,31,31,32,32,38,38,39,39,43,43,44,44,45,45,46,46],"right_children":[2,4,6,8,10,12,14,16,18,20,22,-1,24,-1,26,28,30,32,34,-1,-1,36,38,40,42,44,46,48,-1,50,52,54,56,-1,-1,-1,-1,-1,58,60,-1,-1,-1,62,64,66,68,-1,-1,-1,-1,-1,-1,-1,-1,-1,-1,-1,-1,-1,-1,-1,-1,-1,-1,-1,-1,-1,-1],"split_conditions":[8.42596E0,8.305868E0,8.487554E0,1.6986808E0,3.005182E-2,8.432093E0,8.496184E0,1.5169697E0,4.875241E-2,8.3839035E0,8.4158325E0,1.1831761E-2,3.5674755E-2,-5.717254E-3,3.8715642E-2,7.995463E0,8.260828E0,4.4018265E-2,7.824187E0,-1.20876795E-2,-9.465695E-4,8.4125395E0,8.415855E0,6.5899414E-1,8.43727E0,6.5899414E-1,6.462334E-2,7.741556E0,1.3725186E-2,6.977237E-2,8.301268E0,4.394828E-2,4.9015737E0,-4.217148E-4,-1.1817599E-2,-2.4761201E-3,4.48308E-3,-1.025033E-2,3.5062894E-2,8.448414E0,-1.411736E-3,1.2495518E-3,6.659072E-3,5.6930596E-1,3.48713E-2,6.092001E-1,8.505531E0,-3.3362675E-3,3.981955E-4,9.576417E-3,-1.3392449E-3,-1.281023E-3,-4.331589E-4,-1.3178891E-3,-8.345547E-3,7.503391E-3,-7.532597E-3,-2.2916794E-4,-2.8391362E-3,6.1254506E-3,1.3320209E-3,1.6349317E-3,-2.7578513E-3,-2.314091E-3,2.645073E-3,9.2353823E-4,6.473351E-3,-6.505823E-3,1.7642023E-3],"split_indices":[0,0,0,1,2,0,0,1,2,0,0,0,2,0,2,0,0,2,0,0,0,0,0,1,0,1,2,0,0,2,0,2,1,0,0,0,0,0,2,0,0,0,0,1,2,1,0,0,0,0,0,0,0,0,0,0,0,0,0,0,0,0,0,0,0,0,0,0,0],"split_type":[0,0,0,0,0,0,0,0,0,0,0,0,0,0,0,0,0,0,0,0,0,0,0,0,0,0,0,0,0,0,0,0,0,0,0,0,0,0,0,0,0,0,0,0,0,0,0,0,0,0,0,0,0,0,0,0,0,0,0,0,0,0,0,0,0,0,0,0,0],"sum_hessian":[2.14E2,1.66E2,4.8E1,1.49E2,1.7E1,1.4E1,3.4E1,7.2E1,7.7E1,3E0,1.4E1,2E0,1.2E1,3E0,3.1E1,6E1,1.2E1,7.3E1,4E0,2E0,1E0,8E0,6E0,5E0,7E0,1.8E1,1.3E1,5.9E1,1E0,9E0,3E0,6.2E1,1.1E1,1E0,3E0,5E0,3E0,1E0,5E0,2E0,3E0,1E0,6E0,9E0,9E0,7E0,6E0,9E0,5E1,8E0,1E0,1E0,2E0,5.8E1,4E0,9E0,2E0,1E0,4E0,1E0,1E0,1E0,8E0,5E0,4E0,2E0,5E0,1E0,5E0],"tree_param":{"num_deleted":"0","num_feature":"3","num_nodes":"69","size_leaf_vector":"1"}},{"base_weights":[-6.9356516E-5,-8.1209146E-4,1.0652201E-2,7.701053E-4,-1.3159192E-2,-2.674623E-3,1.33913765E-2,2.4471886E-4,1.3719695E-2,-1.4439917E-2,-7.5362977E-3,1.4354441E-2,-1.5861083E-2,9.590737E-4,-1.4698029E-2,1.0162354E-3,4.4631483E-3,-2.2970399E-2,1.1738253E-2,-1.6083036E-4,1.3031579E-2,2.9830933E-2,4.2831825E-4,-3.6847353E-2,5.961037E-3,-1.19050346E-4,-3.9275784E-2,1.3033283E-2,-8.056368E-3,1.2560845E-3,-2.7373314E-3,1.7575264E-3,1.1666394E-2,-9.611931E-5,3.2818404E-3,-2.8835535E-3,-1.28165735E-2,4.3039084E-3,8.3434585E-5,4.1296724E-3,-1.694727E-3,-1.4061785E-2,-4.05674E-3,3.1743052E-3,-7.4038985E-3,-3.6302806E-4,-1.3269425E-3],"categories":[],"categories_nodes":[],"categories_segments":[],"categories_sizes":[],"default_left":[0,0,0,0,0,0,0,0,0,0,0,0,0,0,0,0,0,0,0,0,0,0,0,0,0,0,0,0,0,0,0,0,0,0,0,0,0,0,0,0,0,0,0,0,0,0,0],"id":14,"left_children":[1,3,5,7,9,11,-1,13,15,-1,17,19,-1,21,23,-1,-1,25,27,29,-1,31,33,35,37,39,41,-1,43,-1,45,-1,-1,-1,-1,-1,-1,-1,-1,-1,-1,-1,-1,-1,-1,-1,-1],"loss_changes":[1.7207549E-3,3.9563132E-3,6.4602923E-3,1.2212794E-3,4.1603046E-3,1.0161557E-2,0E0,1.8714464E-3,3.331888E-5,0E0,6.5168245E-3,3.806466E-3,0E0,2.5463137E-3,3.8803234E-3,0E0,0E0,4.466524E-3,6.62609E-3,8.987546E-5,0E0,4.2353827E-4,1.3020327E-3,2.2934936E-4,2.3427578E-4,5.3845806E-4,7.356722E-4,0E0,2.4298388E-3,0E0,7.52075E-6,0E0,0E0,0E0,0E0,0E0,0E0,0E0,0E0,0E0,0E0,0E0,0E0,0E0,0E0,0E0,0E0],"parents":[2147483647,0,0,1,1,2,2,3,3,4,4,5,5,7,7,8,8,10,10,11,11,13,13,14,14,17,17,18,18,19,19,21,21,22,22,23,23,24,24,25,25,26,26,28,28,30,30],"right_children":[2,4,6,8,10,12,-1,14,16,-1,18,20,-1,22,24,-1,-1,26,28,30,-1,32,34,36,38,40,42,-1,44,-1,46,-1,-1,-1,-1,-1,-1,-1,-1,-1,-1,-1,-1,-1,-1,-1,-1],"split_conditions":[4.0902457E0,3.462017E0,7.94268E0,3.441234E0,3.4894853E0,7.9383755E0,1.33913765E-2,3.2953851E0,7.9802294E0,-1.4439917E-2,7.966781E0,7.8417377E0,-1.5861083E-2,2.5946466E-2,7.9808784E0,1.0162354E-3,4.4631483E-3,7.8216987E0,7.9808145E0,7.721789E0,1.3031579E-2,8.016763E0,2.1799908E0,7.9802594E0,2.4204362E-2,7.623663E0,4.3957435E-2,1.3033283E-2,4.4035412E-2,1.2560845E-3,7.8338113E0,1.7575264E-3,1.1666394E-2,-9.611931E-5,3.2818404E-3,-2.8835535E-3,-1.28165735E-2,4.3039084E-3,8.3434585E-5,4.1296724E-3,-1.694727E-3,-1.4061785E-2,-4.05674E-3,3.1743052E-3,-7.4038985E-3,-3.6302806E-4,-1.3269425E-3],"split_indices":[1,1,0,1,1,0,0,1,0,0,0,0,0,2,0,0,0,0,0,0,0,0,1,0,2,0,2,0,2,0,0,0,0,0,0,0,0,0,0,0,0,0,0,0,0,0,0],"split_type":[0,0,0,0,0,0,0,0,0,0,0,0,0,0,0,0,0,0,0,0,0,0,0,0,0,0,0,0,0,0,0,0,0,0,0,0,0,0,0,0,0,0,0,0,0,0,0],"sum_hessian":[2.14E2,2.01E2,1.3E1,1.79E2,2.2E1,1E1,3E0,1.73E2,6E0,2E0,2E1,8E0,2E0,1.66E2,7E0,1E0,5E0,1.1E1,9E0,6E0,2E0,2E0,1.64E2,3E0,4E0,5E0,6E0,3E0,6E0,2E0,4E0,1E0,1E0,1.54E2,1E1,1E0,2E0,1E0,3E0,1E0,4E0,4E0,2E0,3E0,3E0,3E0,1E0],"tree_param":{"num_deleted":"0","num_feature":"3","num_nodes":"47","size_leaf_vector":"1"}},{"base_weights":[-5.0354003E-5,-1.4531141E-3,4.7315094E-3,-3.738594E-4,-1.0366175E-2,2.4188654E-2,1.4540318E-3,-1.3417074E-3,1.1978193E-2,-2.544403E-2,-5.654335E-3,-4.2378905E-4,2.8690973E-2,-6.361497E-5,1.300087E-2,-4.403093E-4,-1.8405369E-2,1.256113E-2,6.832017E-4,-9.650851E-3,-7.9014304E-4,1.1059443E-3,-1.3538361E-2,1.0222793E-2,1.1947314E-2,9.0233906E-4,-5.5154804E-3,4.452968E-3,8.447171E-4,-1.0586421E-2,5.53135E-4,4.166365E-4,-2.193586E-2,3.3076287E-3,-1.9877553E-3,-1.8330099E-3,1.1653423E-2,-8.698368E-3,-6.1299005E-3,4.2996886E-3,1.076603E-3,-1.9015715E-3,6.4407494E-3,-5.9801103E-3,1.9459535E-3,-6.379926E-4,2.4720626E-3,-7.860174E-3,-9.183884E-5,-7.5745585E-5,-6.598745E-4,4.046917E-3,9.2167855E-4,-2.4398805E-3,-4.2476653E-4,3.4881593E-3,-1.0540307E-3,7.953549E-3,1.143889E-4],"categories":[],"categories_nodes":[],"categories_segments":[],"categories_sizes":[],"default_left":[0,0,0,0,0,0,0,0,0,0,0,0,0,0,0,0,0,0,0,0,0,0,0,0,0,0,0,0,0,0,0,0,0,0,0,0,0,0,0,0,0,0,0,0,0,0,0,0,0,0,0,0,0,0,0,0,0,0,0],"id":15,"left_children":[1,3,5,7,9,11,13,15,17,19,21,-1,23,25,27,29,31,-1,33,-1,-1,35,37,-1,39,41,-1,-1,-1,43,45,-1,47,-1,49,-1,51,-1,53,-1,-1,55,57,-1,-1,-1,-1,-1,-1,-1,-1,-1,-1,-1,-1,-1,-1,-1,-1],"loss_changes":[1.449054E-3,1.6025747E-3,3.0895765E-3,1.8093077E-3,1.134931E-3,8.4738573E-4,7.5436E-4,2.1452573E-3,3.6853529E-3,5.2890927E-4,8.144459E-4,0E0,1.3387157E-4,7.067939E-4,5.20288E-5,1.3565216E-3,5.1964587E-4,0E0,2.7052866E-4,0E0,0E0,7.5619604E-4,6.2381267E-4,0E0,8.3716E-6,6.0235744E-4,0E0,0E0,0E0,2.0443257E-3,2.5512797E-3,0E0,5.454477E-4,0E0,2.3852444E-6,0E0,2.158637E-5,0E0,4.513863E-5,0E0,0E0,6.0782133E-4,1.5709479E-3,0E0,0E0,0E0,0E0,0E0,0E0,0E0,0E0,0E0,0E0,0E0,0E0,0E0,0E0,0E0,0E0],"parents":[2147483647,0,0,1,1,2,2,3,3,4,4,5,5,6,6,7,7,8,8,9,9,10,10,12,12,13,13,14,14,15,15,16,16,18,18,21,21,22,22,24,24,25,25,29,29,30,30,32,32,34,34,36,36,38,38,41,41,42,42],"right_children":[2,4,6,8,10,12,14,16,18,20,22,-1,24,26,28,30,32,-1,34,-1,-1,36,38,-1,40,42,-1,-1,-1,44,46,-1,48,-1,50,-1,52,-1,54,-1,-1,56,58,-1,-1,-1,-1,-1,-1,-1,-1,-1,-1,-1,-1,-1,-1,-1,-1],"split_conditions":[8.42596E0,8.305868E0,8.448414E0,8.155445E0,3.005182E-2,3.0673997E-2,2.0984733E0,8.018169E0,2.7495444E-2,8.3839035E0,8.4158325E0,-4.2378905E-4,1.408354E0,2.0982985E0,2.106388E0,2.678937E-2,2.726846E-2,1.256113E-2,8.240211E0,-9.650851E-3,-7.9014304E-4,8.4125395E0,8.415855E0,1.0222793E-2,8.432093E0,9.5771027E-1,-5.5154804E-3,4.452968E-3,8.447171E-4,7.9859686E0,7.966781E0,4.166365E-4,4.0199866E0,3.3076287E-3,8.246226E0,-1.8330099E-3,8.415096E0,-8.698368E-3,6.8333095E-1,4.2996886E-3,1.076603E-3,5.6930596E-1,4.2848233E-2,-5.9801103E-3,1.9459535E-3,-6.379926E-4,2.4720626E-3,-7.860174E-3,-9.183884E-5,-7.5745585E-5,-6.598745E-4,4.046917E-3,9.2167855E-4,-2.4398805E-3,-4.2476653E-4,3.4881593E-3,-1.0540307E-3,7.953549E-3,1.143889E-4],"split_indices":[0,0,0,0,2,2,1,0,2,0,0,0,1,1,1,2,2,0,0,0,0,0,0,0,0,1,0,0,0,0,0,0,1,0,0,0,0,0,1,0,0,1,2,0,0,0,0,0,0,0,0,0,0,0,0,0,0,0,0],"split_type":[0,0,0,0,0,0,0,0,0,0,0,0,0,0,0,0,0,0,0,0,0,0,0,0,0,0,0,0,0,0,0,0,0,0,0,0,0,0,0,0,0,0,0,0,0,0,0,0,0,0,0,0,0,0,0,0,0,0,0],"sum_hessian":[2.14E2,1.66E2,4.8E1,1.49E2,1.7E1,6E0,4.2E1,1.39E2,1E1,3E0,1.4E1,1E0,5E0,3.8E1,4E0,1.33E2,6E0,2E0,8E0,2E0,1E0,8E0,6E0,3E0,2E0,3.7E1,1E0,3E0,1E0,1.1E1,1.22E2,1E0,5E0,1E0,7E0,5E0,3E0,1E0,5E0,1E0,1E0,2.5E1,1.2E1,7E0,4E0,9.1E1,3.1E1,4E0,1E0,1E0,6E0,2E0,1E0,3E0,2E0,2E0,2.3E1,2E0,1E1],"tree_param":{"num_deleted":"0","num_feature":"3","num_nodes":"59","size_leaf_vector":"1"}},{"base_weights":[2.0535048E-5,-5.8612495E-4,8.772305E-3,5.679607E-4,-9.592616E-3,-1.5889948E-3,3.5072803E-2,-2.1042526E-4,6.471475E-3,-1.1013079E-2,-5.261875E-3,1.2014866E-2,-1.2561274E-2,1.1856557E-2,3.2588483E-3,2.0890866E-4,-1.0032678E-2,3.404649E-2,1.7769211E-3,-1.6801357E-2,9.11169E-3,3.722736E-4,1.0552788E-2,1.3720329E-3,-4.83826E-3,1.2398386E-2,2.922535E-3,6.35877E-3,-6.986073E-3,8.540948E-4,-2.9534409E-2,9.544659E-3,-5.1636016E-3,1.1324883E-3,-1.7437935E-3,-1.4223042E-4,2.1121905E-3,-6.588614E-3,-6.366624E-4,-2.1360398E-3,3.9421557E-3,-4.5499997E-3,2.693081E-3,3.6058903E-3,-1.134882E-3,-1.05338E-2,-3.117752E-3,2.033508E-3,-4.744399E-3,-1.3782979E-4,-1.0321856E-3],"categories":[],"categories_nodes":[],"categories_segments":[],"categories_sizes":[],"default_left":[0,0,0,0,0,0,0,0,0,0,0,0,0,0,0,0,0,0,0,0,0,0,0,0,0,0,0,0,0,0,0,0,0,0,0,0,0,0,0,0,0,0,0,0,0,0,0,0,0,0,0],"id":16,"left_children":[1,3,5,7,9,11,13,15,17,-1,19,21,-1,-1,-1,23,-1,25,27,29,31,33,-1,35,37,-1,-1,39,41,43,45,-1,47,-1,49,-1,-1,-1,-1,-1,-1,-1,-1,-1,-1,-1,-1,-1,-1,-1,-1],"loss_changes":[1.1466516E-3,2.1050891E-3,3.8708334E-3,8.285001E-4,2.5079434E-3,6.530959E-3,1.5264377E-6,2.236624E-3,2.6580023E-3,0E0,3.6362223E-3,2.4138014E-3,0E0,0E0,0E0,9.400452E-4,0E0,1.2831367E-4,8.072865E-4,2.7229188E-3,3.4053219E-3,5.6984954E-5,0E0,1.363788E-3,1.3486648E-3,0E0,0E0,1.2818993E-3,1.050258E-3,3.561195E-4,3.8254028E-4,0E0,9.975593E-4,0E0,9.315946E-6,0E0,0E0,0E0,0E0,0E0,0E0,0E0,0E0,0E0,0E0,0E0,0E0,0E0,0E0,0E0,0E0],"parents":[2147483647,0,0,1,1,2,2,3,3,4,4,5,5,6,6,7,7,8,8,10,10,11,11,15,15,17,17,18,18,19,19,20,20,21,21,23,23,24,24,27,27,28,28,29,29,30,30,32,32,34,34],"right_children":[2,4,6,8,10,12,14,16,18,-1,20,22,-1,-1,-1,24,-1,26,28,30,32,34,-1,36,38,-1,-1,40,42,44,46,-1,48,-1,50,-1,-1,-1,-1,-1,-1,-1,-1,-1,-1,-1,-1,-1,-1,-1,-1],"split_conditions":[4.0902457E0,3.462017E0,7.94268E0,6.403134E-2,3.4894853E0,7.9383755E0,4.1388354E0,6.396303E-2,6.4668424E-2,-1.1013079E-2,7.966781E0,7.8417377E0,-1.2561274E-2,1.1856557E-2,3.2588483E-3,4.3074757E-2,-1.0032678E-2,7.7422247E0,7.1224295E-2,7.8216987E0,7.9808145E0,7.721789E0,1.0552788E-2,3.639703E-2,4.3641333E-2,1.2398386E-2,2.922535E-3,6.782718E-2,2.0918171E0,7.623663E0,4.3957435E-2,9.544659E-3,4.4035412E-2,1.1324883E-3,7.8338113E0,-1.4223042E-4,2.1121905E-3,-6.588614E-3,-6.366624E-4,-2.1360398E-3,3.9421557E-3,-4.5499997E-3,2.693081E-3,3.6058903E-3,-1.134882E-3,-1.05338E-2,-3.117752E-3,2.033508E-3,-4.744399E-3,-1.3782979E-4,-1.0321856E-3],"split_indices":[1,1,0,2,1,0,1,2,2,0,0,0,0,0,0,2,0,0,2,0,0,0,0,2,2,0,0,2,1,0,2,0,2,0,0,0,0,0,0,0,0,0,0,0,0,0,0,0,0,0,0],"split_type":[0,0,0,0,0,0,0,0,0,0,0,0,0,0,0,0,0,0,0,0,0,0,0,0,0,0,0,0,0,0,0,0,0,0,0,0,0,0,0,0,0,0,0,0,0,0,0,0,0,0,0],"sum_hessian":[2.14E2,2.01E2,1.3E1,1.79E2,2.2E1,1E1,3E0,1.59E2,2E1,2E0,2E1,8E0,2E0,2E0,1E0,1.58E2,1E0,2E0,1.8E1,1.1E1,9E0,6E0,2E0,1.29E2,2.9E1,1E0,1E0,1.2E1,6E0,5E0,6E0,3E0,6E0,2E0,4E0,9.8E1,3.1E1,3E0,2.6E1,4E0,8E0,4E0,2E0,1E0,4E0,4E0,2E0,3E0,3E0,3E0,1E0],"tree_param":{"num_deleted":"0","num_feature":"3","num_nodes":"51","size_leaf_vector":"1"}},{"base_weights":[3.5529913E-6,-1.0460009E-3,3.5805313E-3,-2.4210013E-4,-9.814194E-3,1.2767061E-2,-4.5885358E-4,2.1753984E-3,-3.1741755E-3,-7.692194E-3,-5.0397315E-3,7.835293E-3,8.704076E-3,-3.3988238E-3,9.1430545E-4,-5.6330175E-3,4.0676836E-3,-2.0300519E-2,1.8556913E-5,3.1375885E-3,-1.1328901E-2,4.4764043E-3,1.7097235E-2,-4.367868E-3,3.889152E-3,-4.857349E-3,1.1547407E-4,8.053637E-3,3.3379302E-3,-4.794325E-3,-3.7949085E-2,1.1325359E-2,-1.2608302E-3,-1.4691354E-3,8.379221E-3,-7.7104573E-3,-4.6498775E-3,4.241109E-3,-1.6834395E-3,5.949116E-3,1.3346672E-3,7.893245E-3,-7.609415E-3,4.4775726E-3,1.2206236E-3,-7.801438E-4,5.395532E-4,1.2736525E-3,-2.0243884E-3,-4.580727E-3,4.278517E-3,-1.3786698E-2,-8.8841916E-4,-1.1310495E-3,2.1222557E-3,3.0406E-3,4.6663286E-4,-1.8589139E-3,-3.113747E-4,-9.294391E-4,4.563332E-5,2.9879094E-3,5.640507E-4,-2.4156729E-3,-5.4359436E-4,-8.207615E-4,2.876878E-3],"categories":[],"categories_nodes":[],"categories_segments":[],"categories_sizes":[],"default_left":[0,0,0,0,0,0,0,0,0,0,0,0,0,0,0,0,0,0,0,0,0,0,0,0,0,0,0,0,0,0,0,0,0,0,0,0,0,0,0,0,0,0,0,0,0,0,0,0,0,0,0,0,0,0,0,0,0,0,0,0,0,0,0,0,0,0,0],"id":17,"left_children":[1,3,5,7,9,11,13,15,17,-1,19,-1,21,-1,23,25,27,29,31,33,35,37,39,41,43,-1,45,-1,47,49,51,-1,53,-1,55,-1,57,-1,59,-1,-1,61,63,-1,65,-1,-1,-1,-1,-1,-1,-1,-1,-1,-1,-1,-1,-1,-1,-1,-1,-1,-1,-1,-1,-1,-1],"loss_changes":[8.1090495E-4,1.1747663E-3,1.8241467E-3,1.0985014E-3,9.2865725E-4,5.863183E-4,5.3280377E-4,1.278852E-3,3.8279647E-3,0E0,6.526881E-4,0E0,3.847516E-4,0E0,5.198243E-4,1.0336577E-3,1.0573205E-3,2.8283424E-3,2.9440771E-3,2.937239E-4,5.524567E-4,6.188783E-4,5.0056144E-5,5.3700263E-4,6.002344E-4,0E0,5.9529568E-5,0E0,6.511024E-4,1.6150167E-3,1.2645647E-3,0E0,1.2606762E-3,0E0,3.216832E-5,0E0,2.7084112E-5,0E0,1.8648412E-5,0E0,0E0,1.855132E-5,1.1082157E-5,0E0,6.2224804E-4,0E0,0E0,0E0,0E0,0E0,0E0,0E0,0E0,0E0,0E0,0E0,0E0,0E0,0E0,0E0,0E0,0E0,0E0,0E0,0E0,0E0,0E0],"parents":[2147483647,0,0,1,1,2,2,3,3,4,4,5,5,6,6,7,7,8,8,10,10,12,12,14,14,15,15,16,16,17,17,18,18,19,19,20,20,21,21,22,22,23,23,24,24,26,26,28,28,29,29,30,30,32,32,34,34,36,36,38,38,41,41,42,42,44,44],"right_children":[2,4,6,8,10,12,14,16,18,-1,20,-1,22,-1,24,26,28,30,32,34,36,38,40,42,44,-1,46,-1,48,50,52,-1,54,-1,56,-1,58,-1,60,-1,-1,62,64,-1,66,-1,-1,-1,-1,-1,-1,-1,-1,-1,-1,-1,-1,-1,-1,-1,-1,-1,-1,-1,-1,-1,-1],"split_conditions":[8.42596E0,8.37263E0,8.487554E0,1.8246821E0,8.3839035E0,8.432093E0,8.496184E0,7.488205E-1,2.1799908E0,-7.692194E-3,8.4158325E0,7.835293E-3,1.5734257E0,-3.3988238E-3,6.5899414E-1,7.8484254E0,2.5946466E-2,7.8325706E0,2.738536E0,8.4125395E0,8.415855E0,6.5899414E-1,4.0363256E-2,5.6930596E-1,8.503282E0,-4.857349E-3,5.727016E-1,8.053637E-3,6.977237E-2,7.828454E0,7.927101E0,1.1325359E-2,4.0902457E0,-1.4691354E-3,8.415096E0,-7.7104573E-3,6.8333095E-1,4.241109E-3,9.224533E-1,5.949116E-3,1.3346672E-3,8.592097E0,8.596164E0,4.4775726E-3,8.5241785E0,-7.801438E-4,5.395532E-4,1.2736525E-3,-2.0243884E-3,-4.580727E-3,4.278517E-3,-1.3786698E-2,-8.8841916E-4,-1.1310495E-3,2.1222557E-3,3.0406E-3,4.6663286E-4,-1.8589139E-3,-3.113747E-4,-9.294391E-4,4.563332E-5,2.9879094E-3,5.640507E-4,-2.4156729E-3,-5.4359436E-4,-8.207615E-4,2.876878E-3],"split_indices":[0,0,0,1,0,0,0,1,1,0,0,0,1,0,1,0,2,0,1,0,0,1,2,1,0,0,1,0,2,0,0,0,1,0,0,0,1,0,1,0,0,0,0,0,0,0,0,0,0,0,0,0,0,0,0,0,0,0,0,0,0,0,0,0,0,0,0],"split_type":[0,0,0,0,0,0,0,0,0,0,0,0,0,0,0,0,0,0,0,0,0,0,0,0,0,0,0,0,0,0,0,0,0,0,0,0,0,0,0,0,0,0,0,0,0,0,0,0,0,0,0,0,0,0,0,0,0,0,0,0,0,0,0,0,0,0,0],"sum_hessian":[2.14E2,1.66E2,4.8E1,1.53E2,1.3E1,1.4E1,3.4E1,8.4E1,6.9E1,2E0,1.1E1,2E0,1.2E1,3E0,3.1E1,1.6E1,6.8E1,1E1,5.9E1,5E0,6E0,9E0,3E0,1.1E1,2E1,5E0,1.1E1,1E0,6.7E1,6E0,4E0,1E0,5.8E1,2E0,3E0,1E0,5E0,3E0,6E0,2E0,1E0,2E0,9E0,3E0,1.7E1,4E0,7E0,6.2E1,5E0,4E0,2E0,3E0,1E0,4.5E1,1.3E1,2E0,1E0,3E0,2E0,3E0,3E0,1E0,1E0,8E0,1E0,1.2E1,5E0],"tree_param":{"num_deleted":"0","num_feature":"3","num_nodes":"67","size_leaf_vector":"1"}},{"base_weights":[3.1327094E-5,-8.2803774E-4,2.9595434E-3,-1.526752E-3,6.916966E-3,1.4792169E-2,9.644752E-4,-7.730511E-4,-9.008544E-3,1.0347462E-2,2.1426494E-3,6.561828E-3,4.0135384E-3,-9.771494E-5,2.716999E-3,2.9823603E-4,-6.9088936E-3,-1.6084777E-3,-1.860722E-2,-3.412897E-3,2.1798769E-2,-3.4575464E-4,1.8359185E-3,6.443827E-4,-4.244614E-3,-5.72489E-4,1.2668788E-2,-1.6100883E-2,-4.4824015E-3,2.3631097E-3,-5.4439134E-3,-2.3603441E-4,-6.604186E-3,5.0834417E-3,-7.234454E-3,9.851504E-3,-4.205704E-5,-4.31742E-4,2.9698135E-3,1.9893383E-5,-3.1039442E-3,9.144592E-3,4.9521925E-4,-6.153727E-3,-4.2994024E-4,-7.431597E-4,-4.104805E-3,-2.5266889E-3,1.8639566E-3,4.094124E-3,-3.0911209E-3,-9.5224386E-5,-2.8461695E-3,1.830129E-4,-5.377865E-3],"categories":[],"categories_nodes":[],"categories_segments":[],"categories_sizes":[],"default_left":[0,0,0,0,0,0,0,0,0,0,0,0,0,0,0,0,0,0,0,0,0,0,0,0,0,0,0,0,0,0,0,0,0,0,0,0,0,0,0,0,0,0,0,0,0,0,0,0,0,0,0,0,0,0,0],"id":18,"left_children":[1,3,5,7,9,11,13,15,17,-1,19,-1,21,23,-1,25,27,29,31,33,35,-1,-1,37,-1,39,41,43,45,-1,47,-1,-1,49,51,-1,-1,53,-1,-1,-1,-1,-1,-1,-1,-1,-1,-1,-1,-1,-1,-1,-1,-1,-1],"loss_changes":[5.434779E-4,9.1428857E-4,1.1424712E-3,8.614471E-4,1.769193E-3,4.4644624E-4,3.70489E-4,9.288886E-4,9.645022E-4,0E0,1.4940033E-3,0E0,5.0575836E-5,4.1577843E-4,0E0,1.310586E-3,3.9621943E-4,3.7031146E-4,3.469363E-4,3.9393763E-4,7.3119404E-4,0E0,0E0,3.8273606E-4,0E0,7.124598E-4,1.519816E-3,2.2943236E-4,2.9817704E-4,0E0,2.9536436E-4,0E0,0E0,6.6769676E-4,1.21649035E-4,0E0,0E0,6.488276E-4,0E0,0E0,0E0,0E0,0E0,0E0,0E0,0E0,0E0,0E0,0E0,0E0,0E0,0E0,0E0,0E0,0E0],"parents":[2147483647,0,0,1,1,2,2,3,3,4,4,5,5,6,6,7,7,8,8,10,10,12,12,13,13,15,15,16,16,17,17,18,18,19,19,20,20,23,23,25,25,26,26,27,27,28,28,30,30,33,33,34,34,37,37],"right_children":[2,4,6,8,10,12,14,16,18,-1,20,-1,22,24,-1,26,28,30,32,34,36,-1,-1,38,-1,40,42,44,46,-1,48,-1,-1,50,52,-1,-1,54,-1,-1,-1,-1,-1,-1,-1,-1,-1,-1,-1,-1,-1,-1,-1,-1,-1],"split_conditions":[8.42596E0,6.403134E-2,8.448414E0,5.4675832E-2,6.4668424E-2,1.408354E0,2.0984733E0,8.260828E0,7.748582E0,1.0347462E-2,7.8313565E0,6.561828E-3,3.0673997E-2,2.0982985E0,2.716999E-3,8.155445E0,3.005182E-2,8.1821847E-1,8.015253E-1,6.808466E-2,7.8749404E0,-3.4575464E-4,1.8359185E-3,2.0959518E0,-4.244614E-3,8.018169E0,1.6986808E0,8.3839035E0,3.8525533E-2,2.3631097E-3,7.744508E0,-2.3603441E-4,-6.604186E-3,8.135367E-1,7.7323456E0,9.851504E-3,-4.205704E-5,7.1224295E-2,2.9698135E-3,1.9893383E-5,-3.1039442E-3,9.144592E-3,4.9521925E-4,-6.153727E-3,-4.2994024E-4,-7.431597E-4,-4.104805E-3,-2.5266889E-3,1.8639566E-3,4.094124E-3,-3.0911209E-3,-9.5224386E-5,-2.8461695E-3,1.830129E-4,-5.377865E-3],"split_indices":[0,2,0,2,2,1,1,0,0,0,0,0,2,1,0,0,2,1,1,2,0,0,0,1,0,0,1,0,2,0,0,0,0,1,0,0,0,2,0,0,0,0,0,0,0,0,0,0,0,0,0,0,0,0,0],"split_type":[0,0,0,0,0,0,0,0,0,0,0,0,0,0,0,0,0,0,0,0,0,0,0,0,0,0,0,0,0,0,0,0,0,0,0,0,0,0,0,0,0,0,0,0,0,0,0,0,0,0,0,0,0,0,0],"sum_hessian":[2.14E2,1.66E2,4.8E1,1.53E2,1.3E1,6E0,4.2E1,1.4E2,1.3E1,1E0,1.2E1,3E0,3E0,3.8E1,4E0,1.2E2,2E1,8E0,5E0,1E1,2E0,1E0,2E0,3.7E1,1E0,1.13E2,7E0,3E0,1.7E1,2E0,6E0,1E0,4E0,3E0,7E0,1E0,1E0,3.4E1,3E0,1.07E2,6E0,2E0,5E0,2E0,1E0,1.5E1,2E0,5E0,1E0,2E0,1E0,2E0,5E0,3.3E1,1E0],"tree_param":{"num_deleted":"0","num_feature":"3","num_nodes":"55","size_leaf_vector":"1"}},{"base_weights":[7.999997E-5,3.0294075E-4,-9.344101E-3,-7.760125E-5,8.013916E-3,-1.0173226E-2,5.2752495E-3,1.420072E-4,-1.1368036E-2,-1.2731552E-4,2.194977E-3,-1.6305737E-4,9.402037E-3,-2.8395653E-3,-5.5430178E-3,4.24899E-4,-4.227253E-3,-7.910729E-5,-1.1986971E-3,-1.7960867E-5,2.6015856E-3,-2.8526904E-3,3.440176E-3],"categories":[],"categories_nodes":[],"categories_segments":[],"categories_sizes":[],"default_left":[0,0,0,0,0,0,0,0,0,0,0,0,0,0,0,0,0,0,0,0,0,0,0],"id":19,"left_children":[1,3,5,7,-1,-1,9,11,13,-1,-1,15,-1,17,-1,19,21,-1,-1,-1,-1,-1,-1],"loss_changes":[4.5454924E-4,2.1226562E-3,1.97463E-3,5.198247E-4,0E0,0E0,4.9644616E-5,1.965703E-3,1.900391E-4,0E0,0E0,4.9165793E-4,0E0,7.880222E-6,0E0,7.2014326E-4,2.264283E-3,0E0,0E0,0E0,0E0,0E0,0E0],"parents":[2147483647,0,0,1,1,2,2,3,3,6,6,7,7,8,8,11,11,13,13,15,15,16,16],"right_children":[2,4,6,8,-1,-1,10,12,14,-1,-1,16,-1,18,-1,20,22,-1,-1,-1,-1,-1,-1],"split_conditions":[4.9015737E0,4.4015145E0,5.156079E0,4.1388354E0,8.013916E-3,-1.0173226E-2,7.67532E0,4.1261535E0,7.8417377E0,-1.2731552E-4,2.194977E-3,3.462017E0,9.402037E-3,7.824187E0,-5.5430178E-3,3.3368402E0,4.4117205E-2,-7.910729E-5,-1.1986971E-3,-1.7960867E-5,2.6015856E-3,-2.8526904E-3,3.440176E-3],"split_indices":[1,1,1,1,0,0,0,1,0,0,0,1,0,0,0,1,2,0,0,0,0,0,0],"split_type":[0,0,0,0,0,0,0,0,0,0,0,0,0,0,0,0,0,0,0,0,0,0,0],"sum_hessian":[2.14E2,2.1E2,4E0,2.08E2,2E0,1E0,3E0,2.05E2,3E0,1E0,2E0,2.04E2,1E0,2E0,1E0,1.79E2,2.5E1,1E0,1E0,1.7E2,9E0,1.9E1,6E0],"tree_param":{"num_deleted":"0","num_feature":"3","num_nodes":"23","size_leaf_vector":"1"}},{"base_weights":[8.247065E-5,-2.4184685E-3,7.965338E-4,-1.2144804E-2,-1.0050618E-3,2.5321569E-3,-9.69234E-4,-6.6245077E-3,-5.961943E-3,3.2901764E-6,-1.08373165E-2,-3.016716E-4,5.307098E-3,-6.7702294E-3,-1.672361E-4,-3.1021E-3,1.235819E-3,2.2798062E-3,-5.964856E-4,-3.7794115E-4,-5.9354785E-3,3.6865044E-3,-5.533394E-3,1.2274742E-3,1.367007E-2,-3.1775406E-3,2.9205694E-3,1.1393002E-3,-4.9606236E-3,8.247832E-4,7.31926E-3,-1.21946335E-2,-2.944088E-3,3.5783378E-3,-4.6554673E-3,-5.5657625E-3,1.9422185E-2,-1.6786528E-3,-9.694791E-3,9.626269E-3,1.3892055E-3,-1.2940832E-4,6.5320735E-3,4.547596E-4,-1.7279577E-3,-1.3264776E-3,1.0189265E-3,-1.1780262E-3,-4.9192905E-3,-4.2438507E-5,-1.0093139E-3,2.8670856E-4,8.798075E-3,6.388307E-4,-2.5208474E-3,5.619049E-4,-2.6009083E-3,8.38749E-3,3.165109E-3,1.8431783E-3,-1.0409664E-3,-4.7425274E-3,8.1310654E-4],"categories":[],"categories_nodes":[],"categories_segments":[],"categories_sizes":[],"default_left":[0,0,0,0,0,0,0,0,0,0,0,0,0,0,0,0,0,0,0,0,0,0,0,0,0,0,0,0,0,0,0,0,0,0,0,0,0,0,0,0,0,0,0,0,0,0,0,0,0,0,0,0,0,0,0,0,0,0,0,0,0,0,0],"id":20,"left_children":[1,3,5,7,9,11,13,15,-1,17,19,21,23,-1,25,-1,-1,-1,27,-1,-1,29,31,33,35,37,39,41,43,45,-1,47,49,51,53,55,57,59,-1,-1,61,-1,-1,-1,-1,-1,-1,-1,-1,-1,-1,-1,-1,-1,-1,-1,-1,-1,-1,-1,-1,-1,-1],"loss_changes":[3.8587948E-4,6.476625E-4,5.1732507E-4,1.243265E-4,4.2635374E-4,6.70016E-4,1.4512494E-3,2.4220828E-4,0E0,1.8677032E-4,3.178583E-4,9.175952E-4,1.4502848E-3,0E0,7.7148946E-4,0E0,0E0,0E0,2.935096E-4,0E0,0E0,1.4616069E-3,2.918098E-4,4.315586E-4,1.6571535E-3,1.7801126E-3,1.7867006E-3,9.168571E-4,6.566977E-5,3.253285E-4,0E0,1.0936009E-4,1.7192884E-5,1.4576175E-3,2.4672237E-4,1.08596316E-4,5.380693E-4,5.95814E-4,0E0,0E0,9.51672E-4,0E0,0E0,0E0,0E0,0E0,0E0,0E0,0E0,0E0,0E0,0E0,0E0,0E0,0E0,0E0,0E0,0E0,0E0,0E0,0E0,0E0,0E0],"parents":[2147483647,0,0,1,1,2,2,3,3,4,4,5,5,6,6,7,7,9,9,10,10,11,11,12,12,14,14,18,18,21,21,22,22,23,23,24,24,25,25,26,26,27,27,28,28,29,29,31,31,32,32,33,33,34,34,35,35,36,36,37,37,40,40],"right_children":[2,4,6,8,10,12,14,16,-1,18,20,22,24,-1,26,-1,-1,-1,28,-1,-1,30,32,34,36,38,40,42,44,46,-1,48,50,52,54,56,58,60,-1,-1,62,-1,-1,-1,-1,-1,-1,-1,-1,-1,-1,-1,-1,-1,-1,-1,-1,-1,-1,-1,-1,-1,-1],"split_conditions":[7.488205E-1,7.8484254E0,1.9655348E0,7.831252E0,6.9437003E-1,3.3080157E-2,1.9837815E0,7.814073E0,-5.961943E-3,5.566046E-1,7.8747544E0,2.8674612E-2,9.5771027E-1,-6.7702294E-3,4.1285403E-2,-3.1021E-3,1.235819E-3,2.2798062E-3,8.52419E0,-3.7794115E-4,-5.9354785E-3,8.00352E0,1.5015044E0,8.356677E-1,7.8313565E0,4.0997136E-2,4.1431088E-2,8.5241785E0,5.6930596E-1,1.5102967E0,7.31926E-3,7.8751745E0,1.6230357E0,8.349965E-1,7.7323456E0,7.8268695E0,3.9052777E-2,2.9587252E0,-9.694791E-3,9.626269E-3,4.2309504E-2,-1.2940832E-4,6.5320735E-3,4.547596E-4,-1.7279577E-3,-1.3264776E-3,1.0189265E-3,-1.1780262E-3,-4.9192905E-3,-4.2438507E-5,-1.0093139E-3,2.8670856E-4,8.798075E-3,6.388307E-4,-2.5208474E-3,5.619049E-4,-2.6009083E-3,8.38749E-3,3.165109E-3,1.8431783E-3,-1.0409664E-3,-4.7425274E-3,8.1310654E-4],"split_indices":[1,0,1,0,1,2,1,0,0,1,0,2,1,0,2,0,0,0,0,0,0,0,1,1,0,2,2,0,1,1,0,0,1,1,0,0,2,1,0,0,2,0,0,0,0,0,0,0,0,0,0,0,0,0,0,0,0,0,0,0,0,0,0],"split_type":[0,0,0,0,0,0,0,0,0,0,0,0,0,0,0,0,0,0,0,0,0,0,0,0,0,0,0,0,0,0,0,0,0,0,0,0,0,0,0,0,0,0,0,0,0,0,0,0,0,0,0,0,0,0,0,0,0,0,0,0,0,0,0],"sum_hessian":[2.14E2,4.7E1,1.67E2,5E0,4.2E1,8.4E1,8.3E1,4E0,1E0,3.9E1,3E0,4.2E1,4.2E1,2E0,8.1E1,3E0,1E0,2E0,3.7E1,2E0,1E0,2.4E1,1.8E1,2.9E1,1.3E1,4.1E1,4E1,2.7E1,1E1,2.2E1,2E0,4E0,1.4E1,2.1E1,8E0,3E0,1E1,4E1,1E0,1E0,3.9E1,2.6E1,1E0,1E0,9E0,7E0,1.5E1,2E0,2E0,2E0,1.2E1,2E1,1E0,3E0,5E0,1E0,2E0,4E0,6E0,7E0,3.3E1,2E0,3.7E1],"tree_param":{"num_deleted":"0","num_feature":"3","num_nodes":"63","size_leaf_vector":"1"}},{"base_weights":[5.7165013E-5,3.246069E-3,-9.469583E-5,-8.3225425E-3,3.5161455E-4,-1.4944494E-2,7.001996E-3,5.147392E-3,-2.3002677E-4,-4.587936E-3,-2.4154067E-2,-3.9434433E-4,4.3786527E-3,2.2051884E-3,8.457517E-3,-1.5860368E-2,2.1032001E-4,4.1689873E-3,-5.942345E-3,-1.6001702E-3,-8.594847E-3,4.306555E-4,-6.0811045E-4,5.7176864E-3,-1.6223362E-3,-1.0046959E-3,1.0948658E-2,-1.443545E-3,-7.49712E-3,4.470787E-4,-8.070946E-3,-4.4097903E-4,3.162861E-3,2.095771E-3,9.0601447E-4,-1.0666847E-3,1.4966012E-3,-8.99005E-4,4.468918E-4,4.6017054E-3,1.5739918E-3,1.7023087E-4,-8.1982615E-4,2.669817E-5,6.2484746E-3,-8.769179E-3,1.3579846E-3],"categories":[],"categories_nodes":[],"categories_segments":[],"categories_sizes":[],"default_left":[0,0,0,0,0,0,0,0,0,0,0,0,0,0,0,0,0,0,0,0,0,0,0,0,0,0,0,0,0,0,0,0,0,0,0,0,0,0,0,0,0,0,0,0,0,0,0],"id":21,"left_children":[1,-1,3,5,7,9,11,13,15,17,19,21,-1,23,25,27,29,31,-1,-1,-1,-1,-1,33,35,37,39,41,-1,43,45,-1,-1,-1,-1,-1,-1,-1,-1,-1,-1,-1,-1,-1,-1,-1,-1],"loss_changes":[3.5243956E-4,0E0,7.850993E-4,1.220903E-3,5.674368E-4,6.5221835E-4,2.304125E-4,1.95609E-4,1.2559999E-3,7.4897514E-4,1.856049E-4,1.1872642E-5,0E0,1.8405024E-4,2.4671707E-4,6.220556E-4,3.526061E-4,1.5926445E-4,0E0,0E0,0E0,0E0,0E0,2.8505601E-6,1.0720426E-4,1.9370029E-5,1.1979294E-4,9.328387E-6,0E0,1.2680308E-3,1.4651153E-3,0E0,0E0,0E0,0E0,0E0,0E0,0E0,0E0,0E0,0E0,0E0,0E0,0E0,0E0,0E0,0E0],"parents":[2147483647,0,0,2,2,3,3,4,4,5,5,6,6,7,7,8,8,9,9,10,10,11,11,13,13,14,14,15,15,16,16,17,17,23,23,24,24,25,25,26,26,27,27,29,29,30,30],"right_children":[2,-1,4,6,8,10,12,14,16,18,20,22,-1,24,26,28,30,32,-1,-1,-1,-1,-1,34,36,38,40,42,-1,44,46,-1,-1,-1,-1,-1,-1,-1,-1,-1,-1,-1,-1,-1,-1,-1,-1],"split_conditions":[2.4220437E-2,3.246069E-3,2.678937E-2,7.9859686E0,2.7496975E-2,1.7864003E0,8.011254E0,1.5362461E0,2.8125497E-2,7.9859624E0,7.9802594E0,7.9922757E0,4.3786527E-3,1.510767E0,7.9802294E0,7.99114E0,4.9015737E0,7.985508E0,-5.942345E-3,-1.6001702E-3,-8.594847E-3,4.306555E-4,-6.0811045E-4,7.9915295E0,2.721023E-2,7.554536E0,3.4412553E0,7.600818E0,-7.49712E-3,4.4015145E0,5.156079E0,-4.4097903E-4,3.162861E-3,2.095771E-3,9.0601447E-4,-1.0666847E-3,1.4966012E-3,-8.99005E-4,4.468918E-4,4.6017054E-3,1.5739918E-3,1.7023087E-4,-8.1982615E-4,2.669817E-5,6.2484746E-3,-8.769179E-3,1.3579846E-3],"split_indices":[2,0,2,0,2,1,0,1,2,0,0,0,0,1,0,0,1,0,0,0,0,0,0,0,2,0,1,0,0,1,1,0,0,0,0,0,0,0,0,0,0,0,0,0,0,0,0],"split_type":[0,0,0,0,0,0,0,0,0,0,0,0,0,0,0,0,0,0,0,0,0,0,0,0,0,0,0,0,0,0,0,0,0,0,0,0,0,0,0,0,0,0,0,0,0,0,0],"sum_hessian":[2.14E2,2E0,2.12E2,1E1,2.02E2,7E0,3E0,2.1E1,1.81E2,4E0,3E0,2E0,1E0,1.2E1,9E0,4E0,1.77E2,3E0,1E0,1E0,2E0,1E0,1E0,6E0,6E0,2E0,7E0,2E0,2E0,1.73E2,4E0,2E0,1E0,3E0,3E0,5E0,1E0,1E0,1E0,3E0,4E0,1E0,1E0,1.71E2,2E0,1E0,3E0],"tree_param":{"num_deleted":"0","num_feature":"3","num_nodes":"47","size_leaf_vector":"1"}},{"base_weights":[1.1668094E-5,1.8089304E-4,-7.131958E-3,-5.6551973E-5,4.9987794E-3,-7.4538235E-3,3.508091E-3,1.3347968E-4,-9.829044E-3,-1.557827E-4,1.5070916E-3,-1.2166326E-4,7.865667E-3,-7.06625E-4,-4.837489E-3,2.5968077E-3,-2.5078346E-4,-1.9990357E-3,3.4801455E-5],"categories":[],"categories_nodes":[],"categories_segments":[],"categories_sizes":[],"default_left":[0,0,0,0,0,0,0,0,0,0,0,0,0,0,0,0,0,0,0],"id":22,"left_children":[1,3,5,7,-1,-1,9,11,13,-1,-1,15,-1,-1,-1,-1,17,-1,-1],"loss_changes":[2.6119922E-4,8.2669046E-4,1.0295578E-3,3.894423E-4,0E0,0E0,2.7023314E-5,1.3742247E-3,1.5023243E-4,0E0,0E0,2.3451306E-4,0E0,0E0,0E0,0E0,4.782477E-4,0E0,0E0],"parents":[2147483647,0,0,1,1,2,2,3,3,6,6,7,7,8,8,11,11,16,16],"right_children":[2,4,6,8,-1,-1,10,12,14,-1,-1,16,-1,-1,-1,-1,18,-1,-1],"split_conditions":[4.9015737E0,4.4015145E0,5.156079E0,4.1388354E0,4.9987794E-3,-7.4538235E-3,7.67532E0,4.1261535E0,7.8417377E0,-1.557827E-4,1.5070916E-3,2.4220437E-2,7.865667E-3,-7.06625E-4,-4.837489E-3,2.5968077E-3,2.678937E-2,-1.9990357E-3,3.4801455E-5],"split_indices":[1,1,1,1,0,0,0,1,0,0,0,2,0,0,0,0,2,0,0],"split_type":[0,0,0,0,0,0,0,0,0,0,0,0,0,0,0,0,0,0,0],"sum_hessian":[2.14E2,2.1E2,4E0,2.08E2,2E0,1E0,3E0,2.05E2,3E0,1E0,2E0,2.04E2,1E0,2E0,1E0,2E0,2.02E2,1E1,1.92E2],"tree_param":{"num_deleted":"0","num_feature":"3","num_nodes":"19","size_leaf_vector":"1"}},{"base_weights":[1.6922175E-5,-1.8933117E-3,5.6260254E-4,-9.857257E-3,-7.3803304E-4,3.5248757E-3,3.57039E-4,-5.059528E-3,-5.076885E-3,1.2764931E-4,-9.210348E-3,1.5405058E-3,-8.1658934E-4,-2.417922E-3,1.0411978E-3,4.3742317E-3,-7.5040146E-4,-3.1461715E-4,-5.0542834E-3,9.440517E-3,1.021005E-3,-4.874969E-3,-4.4369404E-5,-2.2004445E-3,2.2332573E-3,2.1637918E-3,-1.2102704E-3,1.5656154E-4,4.6732905E-3,-4.751158E-3,1.4401766E-3,-2.1490143E-3,2.166617E-3,5.5353646E-4,-1.5437366E-3,1.8721042E-6,-1.0931579E-3,7.694006E-4,-6.9894793E-4,1.4044542E-4,1.7550844E-3,5.9327565E-5,-4.8787836E-3,8.173085E-3,2.4751885E-4],"categories":[],"categories_nodes":[],"categories_segments":[],"categories_sizes":[],"default_left":[0,0,0,0,0,0,0,0,0,0,0,0,0,0,0,0,0,0,0,0,0,0,0,0,0,0,0,0,0,0,0,0,0,0,0,0,0,0,0,0,0,0,0,0,0],"id":23,"left_children":[1,3,5,7,9,-1,11,13,-1,15,17,19,21,-1,-1,23,25,-1,-1,27,29,-1,31,33,-1,-1,35,37,-1,-1,39,41,43,-1,-1,-1,-1,-1,-1,-1,-1,-1,-1,-1,-1],"loss_changes":[2.2517628E-4,4.3435267E-4,3.8214383E-4,1.177736E-4,3.1655206E-4,0E0,2.3182365E-4,1.5593445E-4,0E0,1.52431E-4,2.3166134E-4,3.309984E-4,1.000383E-3,0E0,0E0,1.5766846E-4,1.3323575E-4,0E0,0E0,2.8244476E-4,5.810601E-4,0E0,3.815767E-4,4.524135E-5,0E0,0E0,9.771883E-5,2.3937697E-5,0E0,0E0,3.316263E-4,1.394315E-3,1.3232082E-3,0E0,0E0,0E0,0E0,0E0,0E0,0E0,0E0,0E0,0E0,0E0,0E0],"parents":[2147483647,0,0,1,1,2,2,3,3,4,4,6,6,7,7,9,9,10,10,11,11,12,12,15,15,16,16,19,19,20,20,22,22,23,23,26,26,27,27,30,30,31,31,32,32],"right_children":[2,4,6,8,10,-1,12,14,-1,16,18,20,22,-1,-1,24,26,-1,-1,28,30,-1,32,34,-1,-1,36,38,-1,-1,40,42,44,-1,-1,-1,-1,-1,-1,-1,-1,-1,-1,-1,-1],"split_conditions":[7.488205E-1,7.8484254E0,7.945302E-1,7.831252E0,6.9437003E-1,3.5248757E-3,1.9655348E0,7.814073E0,-5.076885E-3,3.376363E-2,7.8747544E0,2.6643308E-2,2.0160828E0,-2.417922E-3,1.0411978E-3,7.8551793E0,5.564326E-1,-3.1461715E-4,-5.0542834E-3,7.985508E0,2.678937E-2,-4.874969E-3,4.1285403E-2,7.853502E0,2.2332573E-3,2.1637918E-3,8.52419E0,7.561086E0,4.6732905E-3,-4.751158E-3,6.396303E-2,4.0363256E-2,4.1431088E-2,5.5353646E-4,-1.5437366E-3,1.8721042E-6,-1.0931579E-3,7.694006E-4,-6.9894793E-4,1.4044542E-4,1.7550844E-3,5.9327565E-5,-4.8787836E-3,8.173085E-3,2.4751885E-4],"split_indices":[1,0,1,0,1,0,1,0,0,2,0,2,1,0,0,0,1,0,0,0,2,0,2,0,0,0,0,0,0,0,2,2,2,0,0,0,0,0,0,0,0,0,0,0,0],"split_type":[0,0,0,0,0,0,0,0,0,0,0,0,0,0,0,0,0,0,0,0,0,0,0,0,0,0,0,0,0,0,0,0,0,0,0,0,0,0,0,0,0,0,0,0,0],"sum_hessian":[2.14E2,4.7E1,1.67E2,5E0,4.2E1,2E0,1.65E2,4E0,1E0,3.9E1,3E0,8.2E1,8.3E1,3E0,1E0,6E0,3.3E1,2E0,1E0,4E0,7.8E1,3E0,8E1,2E0,4E0,1E0,3.2E1,2E0,2E0,1E0,7.7E1,4.1E1,3.9E1,1E0,1E0,2.2E1,1E1,1E0,1E0,6.4E1,1.3E1,3.6E1,5E0,1E0,3.8E1],"tree_param":{"num_deleted":"0","num_feature":"3","num_nodes":"45","size_leaf_vector":"1"}},{"base_weights":[-1.31141305E-5,2.0907226E-4,-4.5888424E-3,-3.8016715E-5,7.629347E-3,-7.812202E-3,1.6609193E-3,-6.5840845E-4,2.1824518E-3,-9.591579E-3,6.965161E-4,-9.292575E-5,-4.423868E-3,4.8706057E-3,1.1512623E-3,-1.8788973E-3,-1.2300873E-2,-5.3945585E-4,7.398069E-3,2.3310184E-3,-5.6791836E-3,4.3232623E-3,-2.1606876E-4,-7.749081E-4,-7.059574E-5,-4.816914E-3,-1.3335228E-3,-3.9742517E-5,-2.3712977E-3,4.672528E-3,6.2296394E-4,-1.2087822E-3,1.7382622E-3,-1.298551E-3,-4.2961123E-3,5.5611134E-4,2.8249025E-3,-2.5395155E-3,2.9102224E-4],"categories":[],"categories_nodes":[],"categories_segments":[],"categories_sizes":[],"default_left":[0,0,0,0,0,0,0,0,0,0,0,0,0,0,0,0,0,0,0,0,0,0,0,0,0,0,0,0,0,0,0,0,0,0,0,0,0,0,0],"id":24,"left_children":[1,3,5,7,-1,9,-1,11,13,15,-1,17,19,-1,21,23,25,27,29,31,33,35,37,-1,-1,-1,-1,-1,-1,-1,-1,-1,-1,-1,-1,-1,-1,-1,-1],"loss_changes":[2.1954227E-4,1.2847792E-3,3.6962432E-4,2.8383682E-4,0E0,1.6652554E-4,0E0,3.424066E-4,6.33413E-4,1.2315938E-4,0E0,4.7562952E-4,1.9130803E-4,0E0,1.8743261E-4,2.8640388E-6,7.6140626E-5,4.0059918E-4,3.1577123E-4,1.1145403E-4,1.4810095E-4,1.4605437E-4,3.115304E-4,0E0,0E0,0E0,0E0,0E0,0E0,0E0,0E0,0E0,0E0,0E0,0E0,0E0,0E0,0E0,0E0],"parents":[2147483647,0,0,1,1,2,2,3,3,5,5,7,7,8,8,9,9,11,11,12,12,14,14,15,15,16,16,17,17,18,18,19,19,20,20,21,21,22,22],"right_children":[2,4,6,8,-1,10,-1,12,14,16,-1,18,20,-1,22,24,26,28,30,32,34,36,38,-1,-1,-1,-1,-1,-1,-1,-1,-1,-1,-1,-1,-1,-1,-1,-1],"split_conditions":[6.977237E-2,6.921727E-2,8.522819E0,8.42596E0,7.629347E-3,2.0918171E0,1.6609193E-3,8.260828E0,8.432093E0,7.7323456E0,6.965161E-4,8.155445E0,6.550423E-1,4.8706057E-3,8.487554E0,7.7321815E0,7.133123E-2,8.018169E0,1.6986808E0,8.4125395E0,3.8525533E-2,1.5734257E0,8.496184E0,-7.749081E-4,-7.059574E-5,-4.816914E-3,-1.3335228E-3,-3.9742517E-5,-2.3712977E-3,4.672528E-3,6.2296394E-4,-1.2087822E-3,1.7382622E-3,-1.298551E-3,-4.2961123E-3,5.5611134E-4,2.8249025E-3,-2.5395155E-3,2.9102224E-4],"split_indices":[2,2,0,0,0,1,0,0,0,0,0,0,1,0,0,0,2,0,1,0,2,1,0,0,0,0,0,0,0,0,0,0,0,0,0,0,0,0,0],"split_type":[0,0,0,0,0,0,0,0,0,0,0,0,0,0,0,0,0,0,0,0,0,0,0,0,0,0,0,0,0,0,0,0,0,0,0,0,0,0,0],"sum_hessian":[2.14E2,2.05E2,9E0,2.04E2,1E0,7E0,2E0,1.6E2,4.4E1,6E0,1E0,1.4E2,2E1,2E0,4.2E1,2E0,4E0,1.33E2,7E0,3E0,1.7E1,1.2E1,3E1,1E0,1E0,2E0,2E0,1.27E2,6E0,2E0,5E0,1E0,2E0,1.6E1,1E0,9E0,3E0,3E0,2.7E1],"tree_param":{"num_deleted":"0","num_feature":"3","num_nodes":"39","size_leaf_vector":"1"}},{"base_weights":[2.2526674E-5,-2.7210475E-4,3.7040114E-3,2.2148599E-5,-1.17524145E-2,-2.0409424E-3,1.67511E-2,-1.7763773E-4,5.8470727E-3,-1.2288094E-4,-4.345715E-3,4.557514E-3,-7.0066457E-3,1.9493103E-2,8.674622E-4,5.1579525E-5,-6.696868E-3,7.5018406E-4,3.957367E-3,6.7729E-3,1.5365124E-3,-2.1580896E-4,1.0202026E-2,8.397818E-4,-1.0391235E-3,4.0421488E-5,-1.7797254E-3,6.0667037E-3,-9.6569065E-4,-7.832051E-6,-7.636786E-4],"categories":[],"categories_nodes":[],"categories_segments":[],"categories_sizes":[],"default_left":[0,0,0,0,0,0,0,0,0,0,0,0,0,0,0,0,0,0,0,0,0,0,0,0,0,0,0,0,0,0,0],"id":25,"left_children":[1,3,5,7,9,11,13,15,-1,-1,-1,17,-1,19,-1,21,-1,23,-1,-1,-1,25,27,-1,29,-1,-1,-1,-1,-1,-1],"loss_changes":[2.3421433E-4,6.7588425E-4,1.2334667E-3,7.6579617E-4,1.4908327E-4,1.7941599E-3,1.336498E-4,9.909859E-4,0E0,0E0,0E0,3.1881794E-4,0E0,6.161176E-5,0E0,5.2873953E-4,0E0,3.2240387E-5,0E0,0E0,0E0,3.8154822E-4,7.3750835E-4,0E0,7.5639473E-6,0E0,0E0,0E0,0E0,0E0,0E0],"parents":[2147483647,0,0,1,1,2,2,3,3,4,4,5,5,6,6,7,7,11,11,13,13,15,15,17,17,21,21,22,22,24,24],"right_children":[2,4,6,8,10,12,14,16,-1,-1,-1,18,-1,20,-1,22,-1,24,-1,-1,-1,26,28,-1,30,-1,-1,-1,-1,-1,-1],"split_conditions":[4.0226893E0,4.007054E0,7.94268E0,4.005898E0,7.9474444E0,7.9383755E0,7.9467487E0,4.0058374E0,5.8470727E-3,-1.2288094E-4,-4.345715E-3,7.8417377E0,-7.0066457E-3,4.1388354E0,8.674622E-4,3.9478962E0,-6.696868E-3,4.1261535E0,3.957367E-3,6.7729E-3,1.5365124E-3,3.462017E0,3.9595015E0,8.397818E-4,7.824187E0,4.0421488E-5,-1.7797254E-3,6.0667037E-3,-9.6569065E-4,-7.832051E-6,-7.636786E-4],"split_indices":[1,1,0,1,0,0,0,1,0,0,0,0,0,1,0,1,0,1,0,0,0,1,1,0,0,0,0,0,0,0,0],"split_type":[0,0,0,0,0,0,0,0,0,0,0,0,0,0,0,0,0,0,0,0,0,0,0,0,0,0,0,0,0,0,0],"sum_hessian":[2.14E2,1.99E2,1.5E1,1.95E2,4E0,1.1E1,4E0,1.94E2,1E0,1E0,3E0,9E0,2E0,3E0,1E0,1.93E2,1E0,7E0,2E0,2E0,1E0,1.89E2,4E0,3E0,4E0,1.79E2,1E1,2E0,2E0,3E0,1E0],"tree_param":{"num_deleted":"0","num_feature":"3","num_nodes":"31","size_leaf_vector":"1"}},{"base_weights":[3.554544E-5,1.9363467E-4,-4.6896255E-3,7.671263E-6,7.7794073E-3,-8.3965305E-3,9.155274E-4,3.022343E-3,-2.462362E-4,6.47893E-3,-1.0739565E-3,-1.1385442E-3,-4.0203095E-3,-3.4005302E-3,7.2161197E-3,-7.5234175E-3,7.32375E-5,-1.7720462E-3,2.5059383E-3,1.8906593E-3,-5.895138E-3,4.8229695E-4,9.390081E-3,-2.647795E-3,2.3918152E-4,6.3195233E-3,-2.7509817E-4,-6.608963E-5,1.1937618E-3,1.6292096E-3,-7.7841285E-4,9.066582E-4,-2.6640058E-3,5.048275E-3,9.148693E-4,6.980722E-5,-1.4659008E-3],"categories":[],"categories_nodes":[],"categories_segments":[],"categories_sizes":[],"default_left":[0,0,0,0,0,0,0,0,0,0,0,0,0,0,0,0,0,0,0,0,0,0,0,0,0,0,0,0,0,0,0,0,0,0,0,0,0],"id":26,"left_children":[1,3,5,7,9,11,-1,13,15,-1,17,-1,-1,19,21,23,25,-1,27,29,31,-1,33,-1,-1,-1,35,-1,-1,-1,-1,-1,-1,-1,-1,-1,-1],"loss_changes":[1.6151278E-4,2.9477166E-4,2.2650017E-4,1.5766096E-4,6.3482934E-4,6.427927E-5,0E0,4.5551616E-4,4.422759E-4,0E0,8.40067E-5,0E0,0E0,1.0354177E-4,1.0682986E-4,9.374265E-5,1.3439286E-3,0E0,1.2926044E-5,6.172623E-5,1.5992303E-4,0E0,2.7878647E-4,0E0,0E0,0E0,4.249549E-4,0E0,0E0,0E0,0E0,0E0,0E0,0E0,0E0,0E0,0E0],"parents":[2147483647,0,0,1,1,2,2,3,3,4,4,5,5,7,7,8,8,10,10,13,13,14,14,15,15,16,16,18,18,19,19,20,20,22,22,26,26],"right_children":[2,4,6,8,10,12,-1,14,16,-1,18,-1,-1,20,22,24,26,-1,28,30,32,-1,34,-1,-1,-1,36,-1,-1,-1,-1,-1,-1,-1,-1,-1,-1],"split_conditions":[7.1224295E-2,6.921727E-2,2.0918171E0,7.696039E0,6.977237E-2,7.8750157E0,9.155274E-4,7.554536E0,7.741556E0,6.47893E-3,8.156641E-1,-1.1385442E-3,-4.0203095E-3,3.5242323E-2,2.9490644E-2,3.230892E0,7.7422247E0,-1.7720462E-3,7.7323456E0,7.518105E0,7.4421554E0,4.8229695E-4,7.644973E0,-2.647795E-3,2.3918152E-4,6.3195233E-3,5.703685E-2,-6.608963E-5,1.1937618E-3,1.6292096E-3,-7.7841285E-4,9.066582E-4,-2.6640058E-3,5.048275E-3,9.148693E-4,6.980722E-5,-1.4659008E-3],"split_indices":[2,2,1,0,2,0,0,0,0,0,1,0,0,2,2,1,0,0,0,0,0,0,0,0,0,0,2,0,0,0,0,0,0,0,0,0,0],"split_type":[0,0,0,0,0,0,0,0,0,0,0,0,0,0,0,0,0,0,0,0,0,0,0,0,0,0,0,0,0,0,0,0,0,0,0,0,0],"sum_hessian":[2.14E2,2.08E2,6E0,2.04E2,4E0,4E0,2E0,1.5E1,1.89E2,1E0,3E0,3E0,1E0,6E0,9E0,7E0,1.82E2,1E0,2E0,2E0,4E0,3E0,6E0,6E0,1E0,2E0,1.8E2,1E0,1E0,1E0,1E0,1E0,3E0,2E0,4E0,1.63E2,1.7E1],"tree_param":{"num_deleted":"0","num_feature":"3","num_nodes":"37","size_leaf_vector":"1"}},{"base_weights":[6.987328E-5,-3.3524954E-3,2.8869553E-4,-1.052326E-2,2.030182E-3,3.7456208E-3,-1.307608E-4,-2.3935318E-3,-1.8054605E-2,1.2695789E-3,6.1062467E-3,-1.17671015E-2,1.9683731E-4,3.7562847E-3,-4.04892E-3,-1.0797501E-3,-6.5020085E-3,4.2217798E-3,-2.3862522E-3,-6.810824E-4,7.690218E-3,-1.5006065E-3,-5.433369E-3,-5.002822E-4,2.4660882E-3,-5.1180523E-5,2.2768022E-3,1.4893913E-3,1.5764236E-3,-4.5108795E-3,1.2355328E-3,-6.616831E-4,3.55196E-4,8.95323E-3,6.5393455E-4,5.8150294E-5,-7.334233E-4,-1.3491337E-4,-7.5285677E-3,6.9365506E-3,1.3983424E-3,5.815029E-4,-6.045342E-4,6.8249705E-4,2.6893616E-5,-1.2674333E-4,-1.6282082E-3,7.263422E-4,2.8915168E-3,-1.0712624E-3,2.1290564E-4,-3.623255E-4,2.5847002E-3],"categories":[],"categories_nodes":[],"categories_segments":[],"categories_sizes":[],"default_left":[0,0,0,0,0,0,0,0,0,0,0,0,0,0,0,0,0,0,0,0,0,0,0,0,0,0,0,0,0,0,0,0,0,0,0,0,0,0,0,0,0,0,0,0,0,0,0,0,0,0,0,0,0],"id":27,"left_children":[1,3,5,7,-1,9,11,13,15,17,19,21,23,25,-1,-1,-1,27,29,31,33,35,-1,37,39,41,-1,-1,43,45,-1,-1,-1,47,-1,-1,-1,49,-1,-1,51,-1,-1,-1,-1,-1,-1,-1,-1,-1,-1,-1,-1],"loss_changes":[1.619793E-4,1.0145778E-3,2.9484573E-4,4.46608E-4,0E0,1.20837794E-4,6.961081E-4,3.920993E-4,1.3123674E-4,1.395872E-4,1.2349797E-4,2.9848196E-4,2.8281892E-4,5.8765327E-5,0E0,0E0,0E0,5.9295126E-6,1.0149811E-4,1.1141463E-5,4.312169E-5,5.2732307E-6,0E0,1.2277274E-3,8.939814E-4,1.5627857E-5,0E0,0E0,2.9118978E-6,1.6441772E-5,0E0,0E0,0E0,7.992727E-6,0E0,0E0,0E0,3.9720736E-4,0E0,0E0,7.815756E-4,0E0,0E0,0E0,0E0,0E0,0E0,0E0,0E0,0E0,0E0,0E0,0E0],"parents":[2147483647,0,0,1,1,2,2,3,3,5,5,6,6,7,7,8,8,9,9,10,10,11,11,12,12,13,13,17,17,18,18,19,19,20,20,21,21,23,23,24,24,25,25,28,28,29,29,33,33,37,37,40,40],"right_children":[2,4,6,8,-1,10,12,14,16,18,20,22,24,26,-1,-1,-1,28,30,32,34,36,-1,38,40,42,-1,-1,44,46,-1,-1,-1,48,-1,-1,-1,50,-1,-1,52,-1,-1,-1,-1,-1,-1,-1,-1,-1,-1,-1,-1],"split_conditions":[2.678937E-2,7.9859686E0,2.7496975E-2,1.7864003E0,2.030182E-3,1.5169697E0,2.8125497E-2,7.9859624E0,7.9802594E0,1.510767E0,7.9802294E0,7.99114E0,2.1799908E0,7.985508E0,-4.04892E-3,-1.0797501E-3,-6.5020085E-3,1.5099066E0,2.721023E-2,7.554536E0,3.459504E0,7.600818E0,-5.433369E-3,2.1725645E0,2.738536E0,7.561086E0,2.2768022E-3,1.4893913E-3,7.9860926E0,1.5132227E0,1.2355328E-3,-6.616831E-4,3.55196E-4,2.7142055E-2,6.5393455E-4,5.8150294E-5,-7.334233E-4,3.3080157E-2,-7.5285677E-3,6.9365506E-3,7.966781E0,5.815029E-4,-6.045342E-4,6.8249705E-4,2.6893616E-5,-1.2674333E-4,-1.6282082E-3,7.263422E-4,2.8915168E-3,-1.0712624E-3,2.1290564E-4,-3.623255E-4,2.5847002E-3],"split_indices":[2,0,2,1,0,1,2,0,0,1,0,0,1,0,0,0,0,1,2,0,1,0,0,1,1,0,0,0,0,1,0,0,0,2,0,0,0,2,0,0,0,0,0,0,0,0,0,0,0,0,0,0,0],"split_type":[0,0,0,0,0,0,0,0,0,0,0,0,0,0,0,0,0,0,0,0,0,0,0,0,0,0,0,0,0,0,0,0,0,0,0,0,0,0,0,0,0,0,0,0,0,0,0,0,0,0,0,0,0],"sum_hessian":[2.14E2,1.2E1,2.02E2,7E0,5E0,2.1E1,1.81E2,4E0,3E0,1.1E1,1E1,4E0,1.77E2,3E0,1E0,1E0,2E0,6E0,5E0,2E0,8E0,2E0,2E0,1.36E2,4.1E1,2E0,1E0,4E0,2E0,4E0,1E0,1E0,1E0,6E0,2E0,1E0,1E0,1.35E2,1E0,1E0,4E1,1E0,1E0,1E0,1E0,1E0,3E0,1E0,5E0,2.6E1,1.09E2,3E1,1E1],"tree_param":{"num_deleted":"0","num_feature":"3","num_nodes":"53","size_leaf_vector":"1"}},{"base_weights":[1.629674E-5,-1.6492108E-3,4.9205904E-4,-6.4000404E-3,-8.1813906E-4,2.8893473E-3,3.239304E-4,-2.4429322E-3,-1.0861874E-2,-1.6953395E-4,-6.937504E-3,4.949452E-4,-5.2817343E-3,-1.4336586E-3,1.0351181E-3,-4.1652205E-3,-7.226229E-4,4.833857E-3,-5.7063234E-4,-1.027743E-3,-3.7000182E-3,-4.626673E-5,3.9411243E-3,-3.708029E-3,1.0671616E-3,4.2800905E-4,1.7472268E-3,5.248918E-4,-3.2077702E-3,-2.9039384E-5,-4.33445E-4,1.542279E-3,-1.2420077E-3,3.8320543E-3,2.4192096E-3,-2.5575896E-4,5.450678E-3,-4.2864482E-4,-2.242613E-3,1.3211796E-4,3.4708502E-3,-5.138083E-3,-5.8316564E-5,-6.1642044E-5,1.519332E-3],"categories":[],"categories_nodes":[],"categories_segments":[],"categories_sizes":[],"default_left":[0,0,0,0,0,0,0,0,0,0,0,0,0,0,0,0,0,0,0,0,0,0,0,0,0,0,0,0,0,0,0,0,0,0,0,0,0,0,0,0,0,0,0,0,0],"id":28,"left_children":[1,3,5,7,9,-1,11,13,15,17,19,21,23,-1,-1,-1,-1,25,27,29,-1,31,33,-1,-1,-1,-1,35,37,-1,-1,39,41,-1,43,-1,-1,-1,-1,-1,-1,-1,-1,-1,-1],"loss_changes":[1.7117444E-4,1.8428137E-4,2.5501958E-4,9.705682E-5,1.6552402E-4,0E0,1.6175033E-4,8.5320935E-5,4.3197855E-5,8.102559E-5,1.1487809E-4,3.0233068E-4,3.5679346E-4,0E0,0E0,0E0,0E0,1.8124265E-6,1.08578504E-4,1.0249626E-6,0E0,2.6974347E-4,2.6482533E-4,0E0,0E0,0E0,0E0,6.7167793E-4,7.282971E-5,0E0,0E0,6.6888484E-4,1.344621E-3,0E0,1.398984E-4,0E0,0E0,0E0,0E0,0E0,0E0,0E0,0E0,0E0,0E0],"parents":[2147483647,0,0,1,1,2,2,3,3,4,4,6,6,7,7,8,8,9,9,10,10,11,11,12,12,17,17,18,18,19,19,21,21,22,22,27,27,28,28,31,31,32,32,34,34],"right_children":[2,4,6,8,10,-1,12,14,16,18,20,22,24,-1,-1,-1,-1,26,28,30,-1,32,34,-1,-1,-1,-1,36,38,-1,-1,40,42,-1,44,-1,-1,-1,-1,-1,-1,-1,-1,-1,-1],"split_conditions":[7.488205E-1,7.8489184E0,7.945302E-1,7.831252E0,6.9437003E-1,2.8893473E-3,8.5180235E0,7.814073E0,7.8484254E0,5.566046E-1,7.8747544E0,8.418925E0,8.523999E0,-1.4336586E-3,1.0351181E-3,-4.1652205E-3,-7.226229E-4,7.853502E0,8.52419E0,7.8549094E0,-3.7000182E-3,7.8751745E0,8.432093E0,-3.708029E-3,1.0671616E-3,4.2800905E-4,1.7472268E-3,8.5241785E0,6.5899414E-1,-2.9039384E-5,-4.33445E-4,7.874197E0,7.927101E0,3.8320543E-3,8.496184E0,-2.5575896E-4,5.450678E-3,-4.2864482E-4,-2.242613E-3,1.3211796E-4,3.4708502E-3,-5.138083E-3,-5.8316564E-5,-6.1642044E-5,1.519332E-3],"split_indices":[1,0,1,0,1,0,0,0,0,1,0,0,0,0,0,0,0,0,0,0,0,0,0,0,0,0,0,0,1,0,0,0,0,0,0,0,0,0,0,0,0,0,0,0,0],"split_type":[0,0,0,0,0,0,0,0,0,0,0,0,0,0,0,0,0,0,0,0,0,0,0,0,0,0,0,0,0,0,0,0,0,0,0,0,0,0,0,0,0,0,0,0,0],"sum_hessian":[2.14E2,4.7E1,1.67E2,6E0,4.1E1,2E0,1.65E2,4E0,2E0,3.8E1,3E0,1.61E2,4E0,3E0,1E0,1E0,1E0,2E0,3.6E1,2E0,1E0,1.4E2,2.1E1,2E0,2E0,1E0,1E0,2.6E1,1E1,1E0,1E0,6E1,8E1,2E0,1.9E1,2.5E1,1E0,8E0,2E0,5.5E1,5E0,4E0,7.6E1,1E1,9E0],"tree_param":{"num_deleted":"0","num_feature":"3","num_nodes":"45","size_leaf_vector":"1"}},{"base_weights":[7.607216E-6,-2.3351908E-4,3.0212104E-3,9.266947E-5,-8.073628E-3,-1.4935732E-3,1.3252449E-2,-1.3515573E-4,1.0891199E-2,-1.46278385E-2,2.1375418E-3,3.7428378E-3,-5.5351257E-3,1.5985727E-2,3.479004E-4,1.3421907E-4,-4.53082E-3,3.3330918E-5,4.3342593E-3,-5.178452E-5,-5.459547E-3,4.580641E-3,-2.1987439E-3,6.3353777E-4,3.2360079E-3,5.488491E-3,1.3586999E-3,-1.2994935E-4,4.20462E-3,7.018566E-3,-9.739161E-3,1.3192722E-3,-6.249905E-4,5.9923015E-5,-4.1586403E-3,-3.9896966E-4,1.6746839E-3,3.3478262E-3,5.7554245E-4,-1.0741949E-3,-5.642939E-3,-2.3689271E-4,5.4070953E-4],"categories":[],"categories_nodes":[],"categories_segments":[],"categories_sizes":[],"default_left":[0,0,0,0,0,0,0,0,0,0,0,0,0,0,0,0,0,0,0,0,0,0,0,0,0,0,0,0,0,0,0,0,0,0,0,0,0,0,0,0,0,0,0],"id":29,"left_children":[1,3,5,7,9,11,13,15,17,19,21,23,-1,25,-1,27,29,-1,-1,-1,-1,-1,-1,31,-1,-1,-1,33,35,37,39,41,-1,-1,-1,-1,-1,-1,-1,-1,-1,-1,-1],"loss_changes":[1.569372E-4,5.122189E-4,7.588628E-4,4.7628622E-4,5.6667684E-4,1.1345731E-3,1.467265E-4,2.2558354E-4,1.5174516E-4,2.549315E-4,6.091455E-4,2.121808E-4,0E0,2.2967579E-5,0E0,1.9409522E-4,7.3003944E-4,0E0,0E0,0E0,0E0,0E0,0E0,1.7652685E-5,0E0,0E0,0E0,7.7242707E-4,9.1295384E-5,6.3065876E-5,3.7954154E-4,8.554834E-6,0E0,0E0,0E0,0E0,0E0,0E0,0E0,0E0,0E0,0E0,0E0],"parents":[2147483647,0,0,1,1,2,2,3,3,4,4,5,5,6,6,7,7,8,8,9,9,10,10,11,11,13,13,15,15,16,16,23,23,27,27,28,28,29,29,30,30,31,31],"right_children":[2,4,6,8,10,12,14,16,18,20,22,24,-1,26,-1,28,30,-1,-1,-1,-1,-1,-1,32,-1,-1,-1,34,36,38,40,42,-1,-1,-1,-1,-1,-1,-1,-1,-1,-1,-1],"split_conditions":[4.0226893E0,3.9732523E0,7.94268E0,3.9478962E0,7.966781E0,7.9383755E0,7.9467487E0,3.462017E0,7.8216987E0,7.9474444E0,7.973566E0,7.8417377E0,-5.5351257E-3,4.1388354E0,3.479004E-4,3.3013346E0,7.686419E0,3.3330918E-5,4.3342593E-3,-5.178452E-5,-5.459547E-3,4.580641E-3,-2.1987439E-3,7.8338113E0,3.2360079E-3,5.488491E-3,1.3586999E-3,3.2953851E0,7.9802594E0,7.623663E0,3.571662E0,7.67532E0,-6.249905E-4,5.9923015E-5,-4.1586403E-3,-3.9896966E-4,1.6746839E-3,3.3478262E-3,5.7554245E-4,-1.0741949E-3,-5.642939E-3,-2.3689271E-4,5.4070953E-4],"split_indices":[1,1,0,1,0,0,0,1,0,0,0,0,0,1,0,1,0,0,0,0,0,0,0,0,0,0,0,1,0,0,1,0,0,0,0,0,0,0,0,0,0,0,0],"split_type":[0,0,0,0,0,0,0,0,0,0,0,0,0,0,0,0,0,0,0,0,0,0,0,0,0,0,0,0,0,0,0,0,0,0,0,0,0,0,0,0,0,0,0],"sum_hessian":[2.14E2,1.99E2,1.5E1,1.92E2,7E0,1.1E1,4E0,1.89E2,3E0,4E0,3E0,9E0,2E0,3E0,1E0,1.79E2,1E1,1E0,2E0,1E0,3E0,1E0,2E0,7E0,2E0,2E0,1E0,1.69E2,1E1,3E0,7E0,6E0,1E0,1.66E2,3E0,2E0,8E0,1E0,2E0,5E0,2E0,1E0,5E0],"tree_param":{"num_deleted":"0","num_feature":"3","num_nodes":"43","size_leaf_vector":"1"}},{"base_weights":[6.1168225E-6,1.5687259E-4,-4.495893E-3,-1.0995521E-4,3.382355E-3,-7.132721E-3,4.1923526E-4,3.0852418E-4,-5.512442E-3,1.7151197E-2,1.9029209E-4,-5.546808E-4,-2.3974301E-3,4.1380357E-5,1.2119293E-2,-1.007292E-3,-1.1351426E-2,6.197262E-3,1.5207768E-3,-6.4873695E-3,3.5100938E-3,-1.3173171E-3,9.1355876E-4,4.824639E-3,3.461838E-5,-3.4407207E-3,1.5019417E-3,-1.1222363E-4,-4.0416243E-3,-1.0319591E-2,1.3262272E-3,-2.0773888E-3,6.984353E-3,-1.507795E-3,-6.434441E-5,1.9044876E-3,1.3747968E-5,1.2644292E-3,-1.6257287E-3,2.8181076E-4,-4.31571E-3,-4.8701765E-4,3.7421037E-3],"categories":[],"categories_nodes":[],"categories_segments":[],"categories_sizes":[],"default_left":[0,0,0,0,0,0,0,0,0,0,0,0,0,0,0,0,0,0,0,0,0,0,0,0,0,0,0,0,0,0,0,0,0,0,0,0,0,0,0,0,0,0,0],"id":30,"left_children":[1,3,5,7,9,11,-1,13,15,17,19,-1,-1,21,23,25,27,-1,-1,29,31,33,35,-1,-1,37,-1,-1,-1,39,-1,-1,41,-1,-1,-1,-1,-1,-1,-1,-1,-1,-1],"loss_changes":[1.4662663E-4,1.8024741E-4,1.1874575E-4,4.403016E-4,6.999524E-4,7.910596E-6,0E0,5.7058496E-4,3.5684282E-4,2.2371823E-5,3.3313045E-4,0E0,0E0,2.1213818E-4,1.8842216E-4,1.4893248E-4,1.3463531E-4,0E0,0E0,2.5463215E-4,4.108934E-4,2.8522545E-4,5.1374146E-4,0E0,0E0,1.2885813E-4,0E0,0E0,0E0,1.9663418E-4,0E0,0E0,3.9825533E-4,0E0,0E0,0E0,0E0,0E0,0E0,0E0,0E0,0E0,0E0],"parents":[2147483647,0,0,1,1,2,2,3,3,4,4,5,5,7,7,8,8,9,9,10,10,13,13,14,14,15,15,16,16,19,19,20,20,21,21,22,22,25,25,29,29,32,32],"right_children":[2,4,6,8,10,12,-1,14,16,18,20,-1,-1,22,24,26,28,-1,-1,30,32,34,36,-1,-1,38,-1,-1,-1,40,-1,-1,42,-1,-1,-1,-1,-1,-1,-1,-1,-1,-1],"split_conditions":[7.1224295E-2,6.403134E-2,2.0918171E0,5.703685E-2,6.4668424E-2,7.7321815E0,4.1923526E-4,5.4056954E-2,7.748582E0,7.7422247E0,6.782718E-2,-5.546808E-4,-2.3974301E-3,1.5102967E0,2.0982985E0,7.744508E0,8.015253E-1,6.197262E-3,1.5207768E-3,8.505531E0,8.0414194E-1,3.3080157E-2,1.5395964E0,4.824639E-3,3.461838E-5,8.150037E-1,1.5019417E-3,-1.1222363E-4,-4.0416243E-3,6.624177E-2,1.3262272E-3,-2.0773888E-3,7.7494326E0,-1.507795E-3,-6.434441E-5,1.9044876E-3,1.3747968E-5,1.2644292E-3,-1.6257287E-3,2.8181076E-4,-4.31571E-3,-4.8701765E-4,3.7421037E-3],"split_indices":[2,2,1,2,2,0,0,2,0,0,2,0,0,1,1,0,1,0,0,0,1,2,1,0,0,1,0,0,0,2,0,0,0,0,0,0,0,0,0,0,0,0,0],"split_type":[0,0,0,0,0,0,0,0,0,0,0,0,0,0,0,0,0,0,0,0,0,0,0,0,0,0,0,0,0,0,0,0,0,0,0,0,0,0,0,0,0,0,0],"sum_hessian":[2.14E2,2.08E2,6E0,1.93E2,1.5E1,4E0,2E0,1.8E2,1.3E1,2E0,1.3E1,1E0,3E0,1.77E2,3E0,8E0,5E0,1E0,1E0,4E0,9E0,6.9E1,1.08E2,2E0,1E0,6E0,2E0,1E0,4E0,3E0,1E0,2E0,7E0,1.5E1,5.4E1,1.4E1,9.4E1,1E0,5E0,1E0,2E0,3E0,4E0],"tree_param":{"num_deleted":"0","num_feature":"3","num_nodes":"43","size_leaf_vector":"1"}},{"base_weights":[3.1444637E-5,1.9365839E-4,-3.313303E-3,5.2026422E-5,4.3842318E-3,-4.6735406E-3,4.2552952E-4,1.3816082E-3,-3.972611E-4,-5.452633E-3,1.1701584E-4,4.3612337E-4,8.557637E-3,-3.4144828E-3,3.003317E-4,-1.145204E-3,-6.9465637E-3,1.1871294E-3,-7.933974E-3,2.9590416E-3,3.042698E-4,1.2444697E-3,-1.1151358E-2,1.2891769E-2,-1.1158765E-4,-4.714966E-4,-4.384518E-5,-2.69084E-3,-7.824421E-4,1.024979E-4,2.8669238E-3,-3.5346032E-3,5.4152013E-4,-4.6127263E-4,4.978371E-3,-5.8744242E-3,-1.0610513E-3,4.388142E-3,1.1528493E-3,-3.4057903E-3,1.0849888E-4],"categories":[],"categories_nodes":[],"categories_segments":[],"categories_sizes":[],"default_left":[0,0,0,0,0,0,0,0,0,0,0,0,0,0,0,0,0,0,0,0,0,0,0,0,0,0,0,0,0,0,0,0,0,0,0,0,0,0,0,0,0],"id":31,"left_children":[1,3,5,7,-1,9,-1,11,13,15,-1,17,19,21,23,25,27,29,31,-1,-1,33,35,37,39,-1,-1,-1,-1,-1,-1,-1,-1,-1,-1,-1,-1,-1,-1,-1,-1],"loss_changes":[1.1729292E-4,4.199733E-4,7.0991926E-5,1.2300858E-4,0E0,3.368687E-5,0E0,3.490788E-4,3.2516348E-4,3.7089776E-5,0E0,3.0486038E-4,4.9098773E-5,1.0592038E-3,6.549573E-4,1.0484446E-6,2.0487394E-5,3.0807793E-4,1.7117203E-4,0E0,0E0,8.3690416E-4,6.368428E-4,6.603368E-6,6.584452E-4,0E0,0E0,0E0,0E0,0E0,0E0,0E0,0E0,0E0,0E0,0E0,0E0,0E0,0E0,0E0,0E0],"parents":[2147483647,0,0,1,1,2,2,3,3,5,5,7,7,8,8,9,9,11,11,12,12,13,13,14,14,15,15,16,16,17,17,18,18,21,21,22,22,23,23,24,24],"right_children":[2,4,6,8,-1,10,-1,12,14,16,-1,18,20,22,24,26,28,30,32,-1,-1,34,36,38,40,-1,-1,-1,-1,-1,-1,-1,-1,-1,-1,-1,-1,-1,-1,-1,-1],"split_conditions":[6.977237E-2,6.921727E-2,8.522819E0,7.839355E0,4.3842318E-3,2.0918171E0,4.2552952E-4,7.828454E0,7.94268E0,7.7323456E0,1.1701584E-4,7.8268695E0,2.0299408E0,1.5396309E0,7.9467487E0,7.7321815E0,7.133123E-2,7.8228974E0,1.9702961E0,2.9590416E-3,3.042698E-4,1.450133E0,2.1799908E0,4.1388354E0,7.966781E0,-4.714966E-4,-4.384518E-5,-2.69084E-3,-7.824421E-4,1.024979E-4,2.8669238E-3,-3.5346032E-3,5.4152013E-4,-4.6127263E-4,4.978371E-3,-5.8744242E-3,-1.0610513E-3,4.388142E-3,1.1528493E-3,-3.4057903E-3,1.0849888E-4],"split_indices":[2,2,0,0,0,1,0,0,0,0,0,0,1,1,0,0,2,0,1,0,0,1,1,1,0,0,0,0,0,0,0,0,0,0,0,0,0,0,0,0,0],"split_type":[0,0,0,0,0,0,0,0,0,0,0,0,0,0,0,0,0,0,