{"learner":{"attributes":{"scikit_learn":"{\"_estimator_type\": \"regressor\"}"},"feature_names":["pH","Tur","Cond"],"feature_types":["float","float","float"],"gradient_booster":{"model":{"gbtree_model_param":{"num_parallel_tree":"1","num_trees":"100"},"iteration_indptr":[0,1,2,3,4,5,6,7,8,9,10,11,12,13,14,15,16,17,18,19,20,21,22,23,24,25,26,27,28,29,30,31,32,33,34,35,36,37,38,39,40,41,42,43,44,45,46,47,48,49,50,51,52,53,54,55,56,57,58,59,60,61,62,63,64,65,66,67,68,69,70,71,72,73,74,75,76,77,78,79,80,81,82,83,84,85,86,87,88,89,90,91,92,93,94,95,96,97,98,99,100],"tree_info":[0,0,0,0,0,0,0,0,0,0,0,0,0,0,0,0,0,0,0,0,0,0,0,0,0,0,0,0,0,0,0,0,0,0,0,0,0,0,0,0,0,0,0,0,0,0,0,0,0,0,0,0,0,0,0,0,0,0,0,0,0,0,0,0,0,0,0,0,0,0,0,0,0,0,0,0,0,0,0,0,0,0,0,0,0,0,0,0,0,0,0,0,0,0,0,0,0,0,0,0],"trees":[{"base_weights":[-1.6633855E-8,1.532579E0,-5.625923E-1,-2.8102455E-1,1.7328393E0,-2.647852E-1,-1.1312433E0,6.5763974E-1,1.3741336E0,-1.008141E0,-5.5604815E-2,1.4261746E-1,-1.1705269E0,4.2737117E-1,-3.5977542E-2,-3.3822617E-1,2.4240126E-1,9.185152E-2,-4.4426706E-1,-3.8655308E-1,-8.915823E-1,2.1342176E-1,-9.945647E-2,6.544237E-1,-5.8006734E-1,-6.744145E-2,-2.7484092E-1,-7.7484427E-3,1.8408196E-1,2.7815184E-1,1.6338838E-2,-1.3693652E-1,-2.9739174E-1],"categories":[],"categories_nodes":[],"categories_segments":[],"categories_sizes":[],"default_left":[0,0,0,0,0,0,0,0,0,0,0,0,0,0,0,0,0,0,0,0,0,0,0,0,0,0,0,0,0,0,0,0,0],"id":0,"left_children":[1,3,5,-1,7,9,11,-1,13,15,17,-1,19,-1,-1,-1,-1,21,23,-1,25,27,-1,29,31,-1,-1,-1,-1,-1,-1,-1,-1],"loss_changes":[1.8623889E2,3.0304718E1,2.6457508E1,0E0,5.8842773E0,1.6270966E1,3.9646225E0,0E0,2.6575851E0,5.893427E0,4.797596E0,0E0,5.95459E-1,0E0,0E0,0E0,0E0,3.2103972E0,3.811267E0,0E0,1.051178E-1,4.611568E0,0E0,4.4042003E-1,6.150298E-1,0E0,0E0,0E0,0E0,0E0,0E0,0E0,0E0],"parents":[2147483647,0,0,1,1,2,2,4,4,5,5,6,6,8,8,9,9,10,10,12,12,17,17,18,18,20,20,21,21,23,23,24,24],"right_children":[2,4,6,-1,8,10,12,-1,14,16,18,-1,20,-1,-1,-1,-1,22,24,-1,26,28,-1,30,32,-1,-1,-1,-1,-1,-1,-1,-1],"split_conditions":[7.8437376E0,7.488205E-1,2.0299408E0,-2.8102455E-1,9.568027E-1,7.9244246E0,7.9207296E0,6.5763974E-1,6.878371E-2,1.6195711E0,1.5169697E0,1.4261746E-1,3.5715513E0,4.2737117E-1,-3.5977542E-2,-3.3822617E-1,2.4240126E-1,3.5674755E-2,7.9911227E0,-3.8655308E-1,4.3875232E-2,3.48713E-2,-9.945647E-2,7.927101E0,8.434294E0,-6.744145E-2,-2.7484092E-1,-7.7484427E-3,1.8408196E-1,2.7815184E-1,1.6338838E-2,-1.3693652E-1,-2.9739174E-1],"split_indices":[0,1,1,0,1,0,0,0,2,1,1,0,1,0,0,0,0,2,0,0,2,2,0,0,0,0,0,0,0,0,0,0,0],"split_type":[0,0,0,0,0,0,0,0,0,0,0,0,0,0,0,0,0,0,0,0,0,0,0,0,0,0,0,0,0,0,0,0,0],"sum_hessian":[2.14E2,5.7E1,1.57E2,4E0,5.3E1,1.04E2,5.3E1,2.1E1,3.2E1,2.2E1,8.2E1,1E0,5.2E1,3.1E1,1E0,2.1E1,1E0,6E1,2.2E1,3.4E1,1.8E1,4.7E1,1.3E1,2E0,2E1,1E0,1.7E1,3E1,1.7E1,1E0,1E0,1.7E1,3E0],"tree_param":{"num_deleted":"0","num_feature":"3","num_nodes":"33","size_leaf_vector":"1"}},{"base_weights":[1.0697675E-4,1.0860468E0,-3.9852983E-1,-2.1357863E-1,1.232414E0,-1.8686187E-1,-8.027262E-1,4.6931568E-1,9.737538E-1,-7.0986503E-1,-3.9681934E-2,1.21224836E-1,-8.331204E-1,3.0316642E-1,-3.0580902E-2,-2.413705E-1,2.0604105E-1,6.555633E-2,-3.1706682E-1,-2.7390048E-1,-6.4212245E-1,1.5306884E-1,-7.1750745E-2,2.3642908E-1,-4.0312412E-1,-6.6130835E-1,-4.451632E-2,-5.498883E-3,1.3192537E-1,-9.151078E-2,-2.3047861E-1,-4.5210585E-2,-2.0474377E-1],"categories":[],"categories_nodes":[],"categories_segments":[],"categories_sizes":[],"default_left":[0,0,0,0,0,0,0,0,0,0,0,0,0,0,0,0,0,0,0,0,0,0,0,0,0,0,0,0,0,0,0,0,0],"id":1,"left_children":[1,3,5,-1,7,9,11,-1,13,15,17,-1,19,-1,-1,-1,-1,21,23,-1,25,27,-1,-1,29,31,-1,-1,-1,-1,-1,-1,-1],"loss_changes":[9.350537E1,1.6140938E1,1.3367758E1,0E0,3.1135406E0,8.054266E0,2.3173714E0,0E0,1.4093609E0,3.5947695E0,2.4436805E0,0E0,2.2237015E-1,0E0,0E0,0E0,0E0,1.6633143E0,2.5051708E0,0E0,8.1852436E-2,2.3666325E0,0E0,0E0,5.535984E-1,9.172869E-2,0E0,0E0,0E0,0E0,0E0,0E0,0E0],"parents":[2147483647,0,0,1,1,2,2,4,4,5,5,6,6,8,8,9,9,10,10,12,12,17,17,18,18,20,20,21,21,24,24,25,25],"right_children":[2,4,6,-1,8,10,12,-1,14,16,18,-1,20,-1,-1,-1,-1,22,24,-1,26,28,-1,-1,30,32,-1,-1,-1,-1,-1,-1,-1],"split_conditions":[7.8437376E0,7.488205E-1,2.0299408E0,-2.1357863E-1,9.568027E-1,7.9244246E0,7.9207296E0,4.6931568E-1,6.878371E-2,1.6195711E0,1.5169697E0,1.21224836E-1,3.5715513E0,3.0316642E-1,-3.0580902E-2,-2.413705E-1,2.0604105E-1,3.5674755E-2,7.927101E0,-2.7390048E-1,4.875241E-2,3.48713E-2,-7.1750745E-2,2.3642908E-1,8.434294E0,3.9478962E0,-4.451632E-2,-5.498883E-3,1.3192537E-1,-9.151078E-2,-2.3047861E-1,-4.5210585E-2,-2.0474377E-1],"split_indices":[0,1,1,0,1,0,0,0,2,1,1,0,1,0,0,0,0,2,0,0,2,2,0,0,0,1,0,0,0,0,0,0,0],"split_type":[0,0,0,0,0,0,0,0,0,0,0,0,0,0,0,0,0,0,0,0,0,0,0,0,0,0,0,0,0,0,0,0,0],"sum_hessian":[2.14E2,5.7E1,1.57E2,4E0,5.3E1,1.04E2,5.3E1,2.1E1,3.2E1,2.2E1,8.2E1,1E0,5.2E1,3.1E1,1E0,2.1E1,1E0,6E1,2.2E1,3.4E1,1.8E1,4.7E1,1.3E1,1E0,2.1E1,1.7E1,1E0,3E1,1.7E1,1.8E1,3E0,1E0,1.6E1],"tree_param":{"num_deleted":"0","num_feature":"3","num_nodes":"33","size_leaf_vector":"1"}},{"base_weights":[1.4447777E-4,7.693417E-1,-2.8221998E-1,-1.6231976E-1,8.7642866E-1,-1.314339E-1,-5.701888E-1,3.349207E-1,6.898878E-1,-4.9844155E-1,-2.8149445E-2,1.03041105E-1,-5.9390825E-1,7.168622E-1,-2.5993772E-2,-1.7225075E-1,1.7513488E-1,4.6785768E-2,-2.2566678E-1,-1.9272836E-1,-4.4155502E-1,6.0086095E-1,9.465474E-1,-2.056946E-1,1.0644534E-1,5.079541E-1,-3.1972373E-1,-5.133088E-1,-9.79664E-2,2.0176359E-1,9.920783E-2,1.4430362E-1,3.2974392E-1,-7.802124E-2,-3.891045E-2,1.3727613E-1,1.1592355E-2,2.0096473E-1,2.761463E-2,-7.2209775E-2,-1.786209E-1,-2.6613666E-2,-1.6238977E-1,-8.022881E-3,-3.3837974E-2],"categories":[],"categories_nodes":[],"categories_segments":[],"categories_sizes":[],"default_left":[0,0,0,0,0,0,0,0,0,0,0,0,0,0,0,0,0,0,0,0,0,0,0,0,0,0,0,0,0,0,0,0,0,0,0,0,0,0,0,0,0,0,0,0,0],"id":2,"left_children":[1,3,5,-1,7,9,11,-1,13,15,17,-1,19,21,-1,-1,-1,23,25,-1,27,29,31,33,35,37,39,41,43,-1,-1,-1,-1,-1,-1,-1,-1,-1,-1,-1,-1,-1,-1,-1,-1],"loss_changes":[4.6913822E1,8.613201E0,6.7856874E0,0E0,1.6471138E0,3.9661183E0,1.3742485E0,0E0,7.533474E-1,2.220138E0,1.2390412E0,0E0,1.0811424E-1,2.8385735E-1,0E0,0E0,0E0,9.407304E-1,1.7494543E0,0E0,3.4417367E-1,2.4239731E-1,1.10658646E-1,1.5855014E-2,1.1727617E0,1.4037871E-1,3.141806E-1,1.0648012E-1,1.2076572E-3,0E0,0E0,0E0,0E0,0E0,0E0,0E0,0E0,0E0,0E0,0E0,0E0,0E0,0E0,0E0,0E0],"parents":[2147483647,0,0,1,1,2,2,4,4,5,5,6,6,8,8,9,9,10,10,12,12,13,13,17,17,18,18,20,20,21,21,22,22,23,23,24,24,25,25,26,26,27,27,28,28],"right_children":[2,4,6,-1,8,10,12,-1,14,16,18,-1,20,22,-1,-1,-1,24,26,-1,28,30,32,34,36,38,40,42,44,-1,-1,-1,-1,-1,-1,-1,-1,-1,-1,-1,-1,-1,-1,-1,-1],"split_conditions":[7.8437376E0,7.488205E-1,2.0299408E0,-1.6231976E-1,9.568027E-1,7.9244246E0,7.9207296E0,3.349207E-1,6.878371E-2,1.6195711E0,1.5169697E0,1.03041105E-1,3.9595015E0,3.9411478E0,-2.5993772E-2,-1.7225075E-1,1.7513488E-1,6.586274E-1,7.9911227E0,-1.9272836E-1,7.973566E0,7.8268695E0,7.721789E0,8.448414E0,6.5899414E-1,7.927101E0,8.434294E0,4.005898E0,4.0058374E0,2.0176359E-1,9.920783E-2,1.4430362E-1,3.2974392E-1,-7.802124E-2,-3.891045E-2,1.3727613E-1,1.1592355E-2,2.0096473E-1,2.761463E-2,-7.2209775E-2,-1.786209E-1,-2.6613666E-2,-1.6238977E-1,-8.022881E-3,-3.3837974E-2],"split_indices":[0,1,1,0,1,0,0,0,2,1,1,0,1,1,0,0,0,1,0,0,0,0,0,0,1,0,0,1,1,0,0,0,0,0,0,0,0,0,0,0,0,0,0,0,0],"split_type":[0,0,0,0,0,0,0,0,0,0,0,0,0,0,0,0,0,0,0,0,0,0,0,0,0,0,0,0,0,0,0,0,0,0,0,0,0,0,0,0,0,0,0,0,0],"sum_hessian":[2.14E2,5.7E1,1.57E2,4E0,5.3E1,1.04E2,5.3E1,2.1E1,3.2E1,2.2E1,8.2E1,1E0,5.2E1,3.1E1,1E0,2.1E1,1E0,6E1,2.2E1,3.7E1,1.5E1,2.3E1,8E0,1.1E1,4.9E1,2E0,2E1,1.2E1,3E0,1.7E1,6E0,3E0,5E0,5E0,6E0,7E0,4.2E1,1E0,1E0,1.7E1,3E0,1E0,1.1E1,1E0,2E0],"tree_param":{"num_deleted":"0","num_feature":"3","num_nodes":"45","size_leaf_vector":"1"}},{"base_weights":[2.9552914E-3,5.544293E-1,-1.9950323E-1,-1.23363025E-1,6.335731E-1,-9.188404E-2,-4.0506828E-1,7.1804094E-1,3.6608735E-1,-3.4878367E-1,-1.9587949E-2,8.758493E-2,-4.2372805E-1,6.3973767E-1,4.4116074E-1,-2.2094697E-2,4.0275773E-1,-1.229244E-1,1.4886464E-1,1.7082003E-1,-3.3714633E-2,-1.8622121E-1,-1.3179478E-1,5.299232E-1,1.1370945E0,-3.305769E-3,4.3543437E-1,3.3273563E-2,-2.1792214E-1,-1.4175321E-1,4.86426E-2,1.6964677E-1,-9.1228545E-2,9.849079E-2,3.6995772E-1,7.590955E-2,1.818196E-1,2.7978633E-2,-4.707264E-2,-4.655586E-2,-1.3843119E-1],"categories":[],"categories_nodes":[],"categories_segments":[],"categories_sizes":[],"default_left":[0,0,0,0,0,0,0,0,0,0,0,0,0,0,0,0,0,0,0,0,0,0,0,0,0,0,0,0,0,0,0,0,0,0,0,0,0,0,0,0,0],"id":3,"left_children":[1,3,5,-1,7,9,11,13,15,17,19,-1,21,23,-1,-1,25,-1,-1,-1,27,29,-1,31,33,-1,35,37,39,-1,-1,-1,-1,-1,-1,-1,-1,-1,-1,-1,-1],"loss_changes":[2.4115494E1,4.6931458E0,3.4581752E0,0E0,9.5720863E-1,1.943316E0,8.260412E-1,1.4161568E0,2.7154207E-1,1.3881633E0,7.097943E-1,0E0,1.1440754E-1,1.4728737E0,0E0,0E0,1.9408989E-1,0E0,0E0,0E0,1.0191088E0,5.7527745E-1,0E0,1.1508322E0,6.1478615E-2,0E0,2.5125217E-1,7.105682E-1,2.6448858E-1,0E0,0E0,0E0,0E0,0E0,0E0,0E0,0E0,0E0,0E0,0E0,0E0],"parents":[2147483647,0,0,1,1,2,2,4,4,5,5,6,6,7,7,8,8,9,9,10,10,12,12,13,13,16,16,20,20,21,21,23,23,24,24,26,26,27,27,28,28],"right_children":[2,4,6,-1,8,10,12,14,16,18,20,-1,22,24,-1,-1,26,-1,-1,-1,28,30,-1,32,34,-1,36,38,40,-1,-1,-1,-1,-1,-1,-1,-1,-1,-1,-1,-1],"split_conditions":[7.8437376E0,7.488205E-1,2.0299408E0,-1.23363025E-1,7.8216987E0,7.9244246E0,7.9207296E0,7.814498E0,1.7965412E0,1.6195711E0,7.927101E0,8.758493E-2,7.94268E0,6.808466E-2,4.4116074E-1,-2.2094697E-2,7.8228974E0,-1.229244E-1,1.4886464E-1,1.7082003E-1,1.5169697E0,7.9383755E0,-1.3179478E-1,7.801614E0,8.0181414E-1,-3.305769E-3,2.738536E0,3.547722E-2,8.434294E0,-1.4175321E-1,4.86426E-2,1.6964677E-1,-9.1228545E-2,9.849079E-2,3.6995772E-1,7.590955E-2,1.818196E-1,2.7978633E-2,-4.707264E-2,-4.655586E-2,-1.3843119E-1],"split_indices":[0,1,1,0,0,0,0,0,1,1,0,0,0,2,0,0,0,0,0,0,1,0,0,0,1,0,1,2,0,0,0,0,0,0,0,0,0,0,0,0,0],"split_type":[0,0,0,0,0,0,0,0,0,0,0,0,0,0,0,0,0,0,0,0,0,0,0,0,0,0,0,0,0,0,0,0,0,0,0,0,0,0,0,0,0],"sum_hessian":[2.14E2,5.7E1,1.57E2,4E0,5.3E1,1.04E2,5.3E1,3.9E1,1.4E1,2.2E1,8.2E1,1E0,5.2E1,3.7E1,2E0,1E0,1.3E1,2.1E1,1E0,1E0,8.1E1,4E0,4.8E1,3.2E1,5E0,1E0,1.2E1,6E1,2.1E1,2E0,2E0,3.1E1,1E0,1E0,4E0,7E0,5E0,4.6E1,1.4E1,1.8E1,3E0],"tree_param":{"num_deleted":"0","num_feature":"3","num_nodes":"41","size_leaf_vector":"1"}},{"base_weights":[6.4982707E-3,4.070142E-1,-1.4056769E-1,-9.375589E-2,4.661004E-1,-6.438852E-2,-2.8609073E-1,6.0158396E-1,3.6165375E-1,-2.430207E-1,-1.411227E-2,7.4447185E-2,-3.008531E-1,1.4101061E-1,2.6221228E-1,2.869863E-1,5.2887964E-1,-8.77233E-2,1.2653494E-1,1.4519703E-1,-2.6089007E-2,-1.0472125E-1,-2.3735507E-1,3.4120142E-1,1.2912889E-1,6.5380234E-1,6.278272E-2,2.2978513E-2,-1.60954E-1,1.538153E-1,-2.950649E-1,6.73629E-2,2.5489384E-1,4.484445E-3,9.433422E-2,2.1296774E-1,5.6002773E-2,1.9724516E-2,-4.199958E-2,-1.4374556E-1,-3.689549E-2,5.3574897E-2,1.1926836E-2,-1.15533724E-1,-6.947988E-2],"categories":[],"categories_nodes":[],"categories_segments":[],"categories_sizes":[],"default_left":[0,0,0,0,0,0,0,0,0,0,0,0,0,0,0,0,0,0,0,0,0,0,0,0,0,0,0,0,0,0,0,0,0,0,0,0,0,0,0,0,0,0,0,0,0],"id":4,"left_children":[1,3,5,-1,7,9,11,13,15,17,19,-1,21,-1,-1,23,25,-1,-1,-1,27,-1,29,31,33,35,-1,37,39,41,43,-1,-1,-1,-1,-1,-1,-1,-1,-1,-1,-1,-1,-1,-1],"loss_changes":[1.2721197E1,2.6115084E0,1.7331393E0,0E0,5.465784E-1,9.3957067E-1,5.0054455E-1,3.7767887E-1,2.6026773E-1,8.7853587E-1,5.0777495E-1,0E0,7.9417706E-2,0E0,0E0,1.698978E-1,2.22507E-1,0E0,0E0,0E0,5.463327E-1,0E0,6.3231945E-1,8.768766E-1,1.6457805E-1,2.4687052E-2,0E0,4.3440574E-1,2.0686805E-1,4.2001605E-3,4.2250633E-2,0E0,0E0,0E0,0E0,0E0,0E0,0E0,0E0,0E0,0E0,0E0,0E0,0E0,0E0],"parents":[2147483647,0,0,1,1,2,2,4,4,5,5,6,6,7,7,8,8,9,9,10,10,12,12,15,15,16,16,20,20,22,22,23,23,24,24,25,25,27,27,28,28,29,29,30,30],"right_children":[2,4,6,-1,8,10,12,14,16,18,20,-1,22,-1,-1,24,26,-1,-1,-1,28,-1,30,32,34,36,-1,38,40,42,44,-1,-1,-1,-1,-1,-1,-1,-1,-1,-1,-1,-1,-1,-1],"split_conditions":[7.8437376E0,7.488205E-1,2.0299408E0,-9.375589E-2,9.568027E-1,7.9244246E0,7.9207296E0,6.808466E-2,3.9411478E0,1.6195711E0,7.927101E0,7.4447185E-2,4.394828E-2,1.4101061E-1,2.6221228E-1,7.8268695E0,4.1749396E0,-8.77233E-2,1.2653494E-1,1.4519703E-1,1.5169697E0,-1.0472125E-1,4.4018265E-2,4.2309504E-2,2.023712E0,4.0336706E-2,6.278272E-2,8.5241785E0,1.5362461E0,7.963776E0,4.414566E-2,6.73629E-2,2.5489384E-1,4.484445E-3,9.433422E-2,2.1296774E-1,5.6002773E-2,1.9724516E-2,-4.199958E-2,-1.4374556E-1,-3.689549E-2,5.3574897E-2,1.1926836E-2,-1.15533724E-1,-6.947988E-2],"split_indices":[0,1,1,0,1,0,0,2,1,1,0,0,2,0,0,0,1,0,0,0,1,0,2,2,1,2,0,0,1,0,2,0,0,0,0,0,0,0,0,0,0,0,0,0,0],"split_type":[0,0,0,0,0,0,0,0,0,0,0,0,0,0,0,0,0,0,0,0,0,0,0,0,0,0,0,0,0,0,0,0,0,0,0,0,0,0,0,0,0,0,0,0,0],"sum_hessian":[2.14E2,5.7E1,1.57E2,4E0,5.3E1,1.04E2,5.3E1,2.1E1,3.2E1,2.2E1,8.2E1,1E0,5.2E1,1.6E1,5E0,2.4E1,8E0,2.1E1,1E0,1E0,8.1E1,2.7E1,2.5E1,1.7E1,7E0,5E0,3E0,6E1,2.1E1,3E0,2.2E1,1.5E1,2E0,5E0,2E0,4E0,1E0,4.8E1,1.2E1,1E0,2E1,2E0,1E0,7E0,1.5E1],"tree_param":{"num_deleted":"0","num_feature":"3","num_nodes":"45","size_leaf_vector":"1"}},{"base_weights":[8.705081E-3,3.0322543E-1,-9.946508E-2,-7.125449E-2,3.4767872E-1,-4.525207E-2,-2.0303734E-1,3.960959E-1,1.9538763E-1,-9.646094E-2,5.1468577E-2,6.3280106E-2,-2.1482798E-1,3.3637926E-1,3.0614245E-1,1.1674022E-1,3.293344E-1,-1.2232267E-1,1.5398142E-1,3.3416763E-1,-7.50362E-2,-2.4001542E-1,-1.5712334E-1,3.6126313E-1,-8.764869E-2,-1.9453151E-2,1.41383E-1,1.4111031E-2,1.1644489E-1,1.32940365E-2,-1.9832487E-1,6.1188944E-2,-1.7345324E-1,-7.304416E-2,-1.8330334E-2,-2.6086754E-1,-3.7666798E-2,8.843954E-2,1.9665927E-1,-1.2914336E-2,4.9997523E-2,-8.879889E-3,2.7851487E-2,-7.286354E-2,-2.3047796E-2,1.0689298E-1,-3.660076E-2,3.5697408E-2,-7.620041E-2,-3.0523498E-2,-1.0499754E-1,3.1817555E-2,-3.4324374E-2],"categories":[],"categories_nodes":[],"categories_segments":[],"categories_sizes":[],"default_left":[0,0,0,0,0,0,0,0,0,0,0,0,0,0,0,0,0,0,0,0,0,0,0,0,0,0,0,0,0,0,0,0,0,0,0,0,0,0,0,0,0,0,0,0,0,0,0,0,0,0,0,0,0],"id":5,"left_children":[1,3,5,-1,7,9,11,13,15,17,19,-1,21,23,-1,25,27,29,-1,-1,31,33,35,37,-1,-1,39,-1,-1,41,43,45,47,-1,-1,49,51,-1,-1,-1,-1,-1,-1,-1,-1,-1,-1,-1,-1,-1,-1,-1,-1],"loss_changes":[6.8796983E0,1.4767637E0,8.779764E-1,0E0,3.2077742E-1,5.2502495E-1,3.0888772E-1,1.1481657E0,1.19571924E-1,1.1508274E0,5.056443E0,0E0,3.9319992E-2,6.998887E-1,0E0,5.8389917E-2,6.475967E-2,6.932168E-1,0E0,0E0,4.664472E-1,6.8216324E-3,2.2563949E-1,5.304117E-1,0E0,0E0,5.3789884E-2,0E0,0E0,8.804659E-2,2.1410882E-1,8.5442543E-1,5.013411E-1,0E0,0E0,1.06206834E-1,1.22440614E-1,0E0,0E0,0E0,0E0,0E0,0E0,0E0,0E0,0E0,0E0,0E0,0E0,0E0,0E0,0E0,0E0],"parents":[2147483647,0,0,1,1,2,2,4,4,5,5,6,6,7,7,8,8,9,9,10,10,12,12,13,13,15,15,16,16,17,17,20,20,21,21,22,22,23,23,26,26,29,29,30,30,31,31,32,32,35,35,36,36],"right_children":[2,4,6,-1,8,10,12,14,16,18,20,-1,22,24,-1,26,28,30,-1,-1,32,34,36,38,-1,-1,40,-1,-1,42,44,46,48,-1,-1,50,52,-1,-1,-1,-1,-1,-1,-1,-1,-1,-1,-1,-1,-1,-1,-1,-1],"split_conditions":[7.8437376E0,7.488205E-1,2.0299408E0,-7.125449E-2,7.8216987E0,8.416743E0,7.9207296E0,7.814498E0,7.8325706E0,1.9516742E0,8.42596E0,6.3280106E-2,3.5715513E0,7.801614E0,3.0614245E-1,1.7965412E0,1.8246821E0,2.955272E-2,1.5398142E-1,3.3416763E-1,6.5899414E-1,8.522819E0,7.948044E0,6.808466E-2,-8.764869E-2,-1.9453151E-2,7.8228974E0,1.4111031E-2,1.1644489E-1,2.7495444E-2,1.6195711E0,3.5099328E-2,8.462084E0,-7.304416E-2,-1.8330334E-2,7.94268E0,4.4018265E-2,8.843954E-2,1.9665927E-1,-1.2914336E-2,4.9997523E-2,-8.879889E-3,2.7851487E-2,-7.286354E-2,-2.3047796E-2,1.0689298E-1,-3.660076E-2,3.5697408E-2,-7.620041E-2,-3.0523498E-2,-1.0499754E-1,3.1817555E-2,-3.4324374E-2],"split_indices":[0,1,1,0,0,0,0,0,0,1,0,0,1,0,0,1,1,2,0,0,1,0,0,2,0,0,0,0,0,2,1,2,0,0,0,0,2,0,0,0,0,0,0,0,0,0,0,0,0,0,0,0,0],"split_type":[0,0,0,0,0,0,0,0,0,0,0,0,0,0,0,0,0,0,0,0,0,0,0,0,0,0,0,0,0,0,0,0,0,0,0,0,0,0,0,0,0,0,0,0,0,0,0,0,0,0,0,0,0],"sum_hessian":[2.14E2,5.7E1,1.57E2,4E0,5.3E1,1.04E2,5.3E1,3.9E1,1.4E1,6.8E1,3.6E1,1E0,5.2E1,3.7E1,2E0,1E1,4E0,6.6E1,2E0,3E0,3.3E1,3.4E1,1.8E1,3.6E1,1E0,1E0,9E0,1E0,3E0,2.4E1,4.2E1,1.4E1,1.9E1,3.3E1,1E0,9E0,9E0,3.1E1,5E0,1E0,8E0,1.6E1,8E0,3E1,1.2E1,5E0,9E0,4E0,1.5E1,4E0,5E0,3E0,6E0],"tree_param":{"num_deleted":"0","num_feature":"3","num_nodes":"53","size_leaf_vector":"1"}},{"base_weights":[1.0072176E-2,2.222669E-1,-6.788584E-2,-5.4153416E-2,2.5544512E-1,2.0621732E-2,-1.0669479E-1,1.4727055E-1,3.0544156E-1,-1.2871969E-1,1.2805443E-1,-7.447372E-2,-2.0298646E-1,8.000313E-2,1.7216295E-1,3.998246E-1,1.4665039E-1,-1.4208095E-1,2.0775864E-2,2.589799E-1,1.0019743E-2,-1.5086327E-2,-1.613644E-1,-2.0890294E-1,-7.373706E-3,3.529029E-2,2.2371173E-2,5.3420413E-2,1.5195287E-2,3.1735006E-1,2.4491397E-1,8.3320856E-2,2.566453E-1,-1.7610523E-1,-8.0928475E-2,1.03498094E-1,-9.142E-2,-4.8514407E-2,1.706539E-1,-1.8907331E-1,-5.43952E-4,-2.0588208E-2,-2.177331E-1,-2.3558736E-3,1.0519052E-2,1.0805806E-1,-7.4501395E-2,-1.6535176E-2,3.0802919E-2,1.1994374E-2,9.02448E-2,-3.338286E-2,-6.671648E-2,-3.2200925E-2,-6.325333E-3,-2.3613973E-3,1.1516684E-1,-1.1156766E-1,3.9108492E-2,-6.198553E-2,-3.9055662E-3,1.192829E-1,-1.35124475E-2,-6.4441696E-2,-2.3254115E-2,4.6804965E-2,-3.5348505E-2,-8.360492E-2,-4.877529E-2],"categories":[],"categories_nodes":[],"categories_segments":[],"categories_sizes":[],"default_left":[0,0,0,0,0,0,0,0,0,0,0,0,0,0,0,0,0,0,0,0,0,0,0,0,0,0,0,0,0,0,0,0,0,0,0,0,0,0,0,0,0,0,0,0,0,0,0,0,0,0,0,0,0,0,0,0,0,0,0,0,0,0,0,0,0,0,0,0,0],"id":6,"left_children":[1,3,5,-1,7,9,11,13,15,17,19,21,23,25,27,29,31,33,-1,-1,35,37,39,41,-1,-1,43,-1,-1,45,-1,47,49,51,53,55,57,59,61,63,65,-1,67,-1,-1,-1,-1,-1,-1,-1,-1,-1,-1,-1,-1,-1,-1,-1,-1,-1,-1,-1,-1,-1,-1,-1,-1,-1,-1],"loss_changes":[3.5716786E0,8.211918E-1,5.449123E-1,0E0,2.4706817E-1,8.0264646E-1,3.2617104E-1,1.8040955E-2,4.8090458E-1,6.5387964E-2,2.5079844E0,4.3102333E-1,2.336514E-2,1.2549687E-2,3.0869246E-4,4.9673605E-1,8.3105E-2,2.7361482E-2,0E0,0E0,2.5600472E-1,3.2493502E-1,1.5140659E-1,1.7262697E-2,0E0,0E0,1.8098073E-3,0E0,0E0,5.7417035E-1,0E0,3.5134226E-2,3.582403E-2,1.1259288E-2,1.1960089E-2,4.4020006E-1,8.5712695E-1,2.4423973E-1,4.0953544E-1,6.659961E-2,1.2855579E-1,0E0,3.5362005E-2,0E0,0E0,0E0,0E0,0E0,0E0,0E0,0E0,0E0,0E0,0E0,0E0,0E0,0E0,0E0,0E0,0E0,0E0,0E0,0E0,0E0,0E0,0E0,0E0,0E0,0E0],"parents":[2147483647,0,0,1,1,2,2,4,4,5,5,6,6,7,7,8,8,9,9,10,10,11,11,12,12,13,13,14,14,15,15,16,16,17,17,20,20,21,21,22,22,23,23,26,26,29,29,31,31,32,32,33,33,34,34,35,35,36,36,37,37,38,38,39,39,40,40,42,42],"right_children":[2,4,6,-1,8,10,12,14,16,18,20,22,24,26,28,30,32,34,-1,-1,36,38,40,42,-1,-1,44,-1,-1,46,-1,48,50,52,54,56,58,60,62,64,66,-1,68,-1,-1,-1,-1,-1,-1,-1,-1,-1,-1,-1,-1,-1,-1,-1,-1,-1,-1,-1,-1,-1,-1,-1,-1,-1,-1],"split_conditions":[7.8437376E0,7.488205E-1,8.12283E-1,-5.4153416E-2,7.721789E0,8.416743E0,8.37263E0,7.554536E0,7.8216987E0,7.7115345E-1,8.42596E0,3.3004751E0,2.106388E0,7.518105E0,7.716116E0,7.814498E0,7.8325706E0,3.8525533E-2,2.0775864E-2,2.589799E-1,8.5241785E0,1.9516742E0,4.414566E-2,9.5771027E-1,-7.373706E-3,3.529029E-2,7.5185575E0,5.3420413E-2,1.5195287E-2,7.801614E0,2.4491397E-1,1.7965412E0,1.8246821E0,7.858277E0,7.8747544E0,8.524164E0,8.5250025E0,7.8754573E0,7.927101E0,8.011254E0,4.494634E-2,-2.0588208E-2,2.0160828E0,-2.3558736E-3,1.0519052E-2,1.0805806E-1,-7.4501395E-2,-1.6535176E-2,3.0802919E-2,1.1994374E-2,9.02448E-2,-3.338286E-2,-6.671648E-2,-3.2200925E-2,-6.325333E-3,-2.3613973E-3,1.1516684E-1,-1.1156766E-1,3.9108492E-2,-6.198553E-2,-3.9055662E-3,1.192829E-1,-1.35124475E-2,-6.4441696E-2,-2.3254115E-2,4.6804965E-2,-3.5348505E-2,-8.360492E-2,-4.877529E-2],"split_indices":[0,1,1,0,0,0,0,0,0,1,0,1,1,0,0,0,0,2,0,0,0,1,2,1,0,0,0,0,0,0,0,1,1,0,0,0,0,0,0,0,2,0,1,0,0,0,0,0,0,0,0,0,0,0,0,0,0,0,0,0,0,0,0,0,0,0,0,0,0],"split_type":[0,0,0,0,0,0,0,0,0,0,0,0,0,0,0,0,0,0,0,0,0,0,0,0,0,0,0,0,0,0,0,0,0,0,0,0,0,0,0,0,0,0,0,0,0,0,0,0,0,0,0,0,0,0,0,0,0,0,0,0,0,0,0,0,0,0,0,0,0],"sum_hessian":[2.14E2,5.7E1,1.57E2,4E0,5.3E1,4.8E1,1.09E2,1.8E1,3.5E1,2E1,2.8E1,8.3E1,2.6E1,6E0,1.2E1,2.1E1,1.4E1,1.9E1,1E0,3E0,2.5E1,5E1,3.3E1,2.5E1,1E0,3E0,3E0,1.1E1,1E0,1.9E1,2E0,1E1,4E0,1.1E1,8E0,1.3E1,1.2E1,4.3E1,7E0,2.8E1,5E0,2E0,2.3E1,1E0,2E0,1.8E1,1E0,1E0,9E0,1E0,3E0,6E0,5E0,5E0,3E0,1E1,3E0,5E0,7E0,7E0,3.6E1,3E0,4E0,2.2E1,6E0,2E0,3E0,9E0,1.4E1],"tree_param":{"num_deleted":"0","num_feature":"3","num_nodes":"69","size_leaf_vector":"1"}},{"base_weights":[9.0861935E-3,1.6339538E-1,-4.7616456E-2,-9.037852E-2,1.9441502E-1,-1.168885E-3,-9.065117E-2,-4.115659E-2,1.7764488E-2,4.6334618E-1,1.6235104E-1,-5.334429E-2,7.001482E-2,6.656503E-2,-9.724892E-2,-1.3222218E-3,9.316242E-3,9.417844E-3,1.6904591E-1,-1.5796177E-1,1.7971164E-1,3.868549E-2,-1.1613028E-1,2.0070942E-1,-1.2187886E-2,-1.202659E-1,-8.844237E-2,-2.509582E-3,-6.8573214E-2,1.5651871E-1,3.8410774E-1,-1.05654E-2,4.4747796E-2,-7.5908564E-2,-1.7691633E-1,-1.9647503E-1,3.2528542E-2,3.239826E-2,-9.229593E-2,3.236741E-2,6.955025E-2,2.2140914E-1,6.037009E-3,1.7995007E-2,9.6394215E-3,-2.7453542E-2,-1.1494824E-2,-6.521729E-2,-3.0035735E-3,-6.856732E-2,-2.6461923E-2,1.761097E-1,-4.5106383E-3,-2.3090485E-2,-4.198908E-2],"categories":[],"categories_nodes":[],"categories_segments":[],"categories_sizes":[],"default_left":[0,0,0,0,0,0,0,0,0,0,0,0,0,0,0,0,0,0,0,0,0,0,0,0,0,0,0,0,0,0,0,0,0,0,0,0,0,0,0,0,0,0,0,0,0,0,0,0,0,0,0,0,0,0,0],"id":7,"left_children":[1,3,5,7,9,11,13,-1,15,17,19,21,23,-1,25,-1,-1,-1,-1,27,29,31,33,-1,35,-1,37,-1,-1,39,41,-1,43,45,47,49,51,-1,53,-1,-1,-1,-1,-1,-1,-1,-1,-1,-1,-1,-1,-1,-1,-1,-1],"loss_changes":[1.8889743E0,4.7414553E-1,3.1571355E-1,3.7872378E-2,3.7317157E-1,2.897159E-1,1.9066405E-1,0E0,1.0208383E-3,1.9859004E-1,2.9530692E-1,2.645107E-1,1.6330998E0,0E0,1.811384E-1,0E0,0E0,0E0,0E0,2.9779434E-2,1.5794504E-1,1.0088412E-2,5.2583337E-2,0E0,2.5361094E-1,0E0,7.0525765E-2,0E0,0E0,1.3247001E-1,5.0043774E-1,0E0,1.5325695E-3,7.0517883E-3,6.5377414E-2,6.8102777E-4,6.681868E-1,0E0,4.69473E-2,0E0,0E0,0E0,0E0,0E0,0E0,0E0,0E0,0E0,0E0,0E0,0E0,0E0,0E0,0E0,0E0],"parents":[2147483647,0,0,1,1,2,2,3,3,4,4,5,5,6,6,8,8,9,9,10,10,11,11,12,12,14,14,19,19,20,20,21,21,22,22,24,24,26,26,29,29,30,30,32,32,33,33,34,34,35,35,36,36,38,38],"right_children":[2,4,6,8,10,12,14,-1,16,18,20,22,24,-1,26,-1,-1,-1,-1,28,30,32,34,-1,36,-1,38,-1,-1,40,42,-1,44,46,48,50,52,-1,54,-1,-1,-1,-1,-1,-1,-1,-1,-1,-1,-1,-1,-1,-1,-1,-1],"split_conditions":[7.8437376E0,8.0181414E-1,1.5169697E0,7.488205E-1,8.13744E-1,8.416743E0,7.874197E0,-4.115659E-2,7.7485723E0,7.4421554E0,8.156641E-1,2.8664002E-2,8.42596E0,6.656503E-2,1.5362461E0,-1.3222218E-3,9.316242E-3,9.417844E-3,1.6904591E-1,7.741579E0,6.878371E-2,7.985508E0,7.986733E0,2.0070942E-1,8.450264E0,-1.202659E-1,1.5392379E0,-2.509582E-3,-6.8573214E-2,7.814498E0,8.993507E-1,-1.05654E-2,7.9892707E0,7.084724E-1,3.8525533E-2,3.5674755E-2,8.462084E0,3.239826E-2,8.434294E0,3.236741E-2,6.955025E-2,2.2140914E-1,6.037009E-3,1.7995007E-2,9.6394215E-3,-2.7453542E-2,-1.1494824E-2,-6.521729E-2,-3.0035735E-3,-6.856732E-2,-2.6461923E-2,1.761097E-1,-4.5106383E-3,-2.3090485E-2,-4.198908E-2],"split_indices":[0,1,1,1,1,0,0,0,0,0,1,2,0,0,1,0,0,0,0,0,2,0,0,0,0,0,1,0,0,0,1,0,0,1,2,2,0,0,0,0,0,0,0,0,0,0,0,0,0,0,0,0,0,0,0],"split_type":[0,0,0,0,0,0,0,0,0,0,0,0,0,0,0,0,0,0,0,0,0,0,0,0,0,0,0,0,0,0,0,0,0,0,0,0,0,0,0,0,0,0,0,0,0,0,0,0,0,0,0,0,0,0,0],"sum_hessian":[2.14E2,5.7E1,1.57E2,6E0,5.1E1,7.6E1,8.1E1,4E0,2E0,4E0,4.7E1,4.4E1,3.2E1,1E0,8E1,1E0,1E0,1E0,3E0,2E0,4.5E1,1.8E1,2.6E1,3E0,2.9E1,1E0,7.9E1,1E0,1E0,4.2E1,3E0,1E0,1.7E1,1.7E1,9E0,5E0,2.4E1,1E0,7.8E1,2.7E1,1.5E1,1E0,2E0,6E0,1.1E1,1.1E1,6E0,7E0,2E0,3E0,2E0,1E0,2.3E1,6.1E1,1.7E1],"tree_param":{"num_deleted":"0","num_feature":"3","num_nodes":"55","size_leaf_vector":"1"}},{"base_weights":[8.706272E-3,1.4244792E-1,-2.8539667E-2,-6.0573965E-2,1.6805942E-1,1.826765E-2,-4.7804885E-2,-3.0655751E-2,1.5099843E-2,1.6145897E-1,1.4590494E-1,-7.400669E-2,9.341201E-2,5.9428457E-2,-6.0269967E-2,-1.1238814E-3,7.918811E-3,1.10591434E-1,3.0162898E-1,-9.1406E-2,-2.1178842E-2,1.5957241E-1,-9.1935515E-2,-7.272508E-2,1.8309222E-1,-4.3048065E-2,-1.1034129E-1,1.27213E-1,-6.818133E-2,1.8202114E-1,5.8238268E-2,-7.526185E-2,-5.245686E-2,-1.0452411E-2,2.5954964E-3,-4.6069615E-2,2.656841E-1,-2.751602E-1,3.05159E-1,-2.153219E-2,-4.0141463E-2,2.1134646E-1,2.03501E-3,-7.657454E-3,-9.2786066E-2,-1.4646511E-1,-7.167789E-2,4.9193997E-2,1.38425715E-2,-2.603016E-2,3.485443E-2,-2.4019789E-2,-8.326626E-3,-2.13335E-2,1.9383708E-2,-2.657944E-3,1.2575787E-1,-2.09777E-2,-9.066659E-2,2.0848508E-1,-7.116351E-2,-1.5932197E-2,5.1661017E-3,7.016871E-2,1.4790059E-2,-4.375804E-2,4.505621E-3,-3.614119E-2,-7.4965955E-4,-1.5568448E-2,-4.7682602E-2,-2.304371E-2,3.0711293E-5],"categories":[],"categories_nodes":[],"categories_segments":[],"categories_sizes":[],"default_left":[0,0,0,0,0,0,0,0,0,0,0,0,0,0,0,0,0,0,0,0,0,0,0,0,0,0,0,0,0,0,0,0,0,0,0,0,0,0,0,0,0,0,0,0,0,0,0,0,0,0,0,0,0,0,0,0,0,0,0,0,0,0,0,0,0,0,0,0,0,0,0,0,0],"id":8,"left_children":[1,3,5,7,9,11,13,-1,15,-1,17,19,21,23,25,-1,-1,27,29,31,33,35,37,39,41,43,45,47,-1,-1,49,51,-1,-1,-1,53,55,57,59,61,-1,63,-1,65,67,69,71,-1,-1,-1,-1,-1,-1,-1,-1,-1,-1,-1,-1,-1,-1,-1,-1,-1,-1,-1,-1,-1,-1,-1,-1,-1,-1],"loss_changes":[1.075052E0,2.5456572E-1,1.5326959E-1,2.043656E-2,2.658826E-1,3.5360795E-1,1.6398239E-1,0E0,7.375547E-4,0E0,1.9210815E-1,1.9205004E-2,3.58025E-1,2.2576927E-1,8.838096E-2,0E0,0E0,2.2546509E-1,4.84488E-1,9.742945E-3,3.1543556E-3,4.704814E-1,6.660277E-1,1.9006848E-2,3.343667E-2,1.4363065E-1,2.7211756E-2,9.377873E-2,0E0,0E0,5.2091118E-2,1.4293417E-3,0E0,0E0,0E0,2.6768314E-2,5.937427E-1,1.2190998E-2,7.9908437E-1,7.0326063E-3,0E0,1.0392994E-2,0E0,1.5575221E-1,8.4684104E-2,7.0910156E-3,5.5361763E-3,0E0,0E0,0E0,0E0,0E0,0E0,0E0,0E0,0E0,0E0,0E0,0E0,0E0,0E0,0E0,0E0,0E0,0E0,0E0,0E0,0E0,0E0,0E0,0E0,0E0,0E0],"parents":[2147483647,0,0,1,1,2,2,3,3,4,4,5,5,6,6,8,8,10,10,11,11,12,12,13,13,14,14,17,17,18,18,19,19,20,20,21,21,22,22,23,23,24,24,25,25,26,26,27,27,30,30,31,31,35,35,36,36,37,37,38,38,39,39,41,41,43,43,44,44,45,45,46,46],"right_children":[2,4,6,8,10,12,14,-1,16,-1,18,20,22,24,26,-1,-1,28,30,32,34,36,38,40,42,44,46,48,-1,-1,50,52,-1,-1,-1,54,56,58,60,62,-1,64,-1,66,68,70,72,-1,-1,-1,-1,-1,-1,-1,-1,-1,-1,-1,-1,-1,-1,-1,-1,-1,-1,-1,-1,-1,-1,-1,-1,-1,-1],"split_conditions":[7.8268695E0,8.0181414E-1,8.12283E-1,7.488205E-1,8.0414194E-1,6.586274E-1,7.874197E0,-3.0655751E-2,7.7485723E0,1.6145897E-1,7.814498E0,8.448414E0,8.5241785E0,2.023712E0,8.37263E0,-1.1238814E-3,7.918811E-3,7.801614E0,7.8216987E0,8.438484E0,8.593412E0,8.416743E0,8.5250025E0,1.8724492E0,4.1688707E-2,3.3004751E0,2.0397854E0,7.735665E0,-6.818133E-2,1.8202114E-1,7.8228974E0,6.359079E-1,-5.245686E-2,-1.0452411E-2,2.5954964E-3,7.7115345E-1,3.48713E-2,8.52419E0,8.527411E0,1.7965412E0,-4.0141463E-2,4.1261535E0,2.03501E-3,7.8754573E0,8.011254E0,9.5771027E-1,2.106388E0,4.9193997E-2,1.38425715E-2,-2.603016E-2,3.485443E-2,-2.4019789E-2,-8.326626E-3,-2.13335E-2,1.9383708E-2,-2.657944E-3,1.2575787E-1,-2.09777E-2,-9.066659E-2,2.0848508E-1,-7.116351E-2,-1.5932197E-2,5.1661017E-3,7.016871E-2,1.4790059E-2,-4.375804E-2,4.505621E-3,-3.614119E-2,-7.4965955E-4,-1.5568448E-2,-4.7682602E-2,-2.304371E-2,3.0711293E-5],"split_indices":[0,1,1,1,1,1,0,0,0,0,0,0,0,1,0,0,0,0,0,0,0,0,0,1,2,1,1,0,0,0,0,1,0,0,0,1,2,0,0,1,0,1,0,0,0,1,1,0,0,0,0,0,0,0,0,0,0,0,0,0,0,0,0,0,0,0,0,0,0,0,0,0,0],"split_type":[0,0,0,0,0,0,0,0,0,0,0,0,0,0,0,0,0,0,0,0,0,0,0,0,0,0,0,0,0,0,0,0,0,0,0,0,0,0,0,0,0,0,0,0,0,0,0,0,0,0,0,0,0,0,0,0,0,0,0,0,0,0,0,0,0,0,0,0,0,0,0,0,0],"sum_hessian":[2.14E2,4.6E1,1.68E2,5E0,4.1E1,4.9E1,1.19E2,3E0,2E0,1E0,4E1,2.2E1,2.7E1,1.2E1,1.07E2,1E0,1E0,3.4E1,6E0,1.6E1,6E0,2E1,7E0,6E0,6E0,8.1E1,2.6E1,3.3E1,1E0,2E0,4E0,1.5E1,1E0,4E0,2E0,7E0,1.3E1,5E0,2E0,4E0,2E0,5E0,1E0,4.8E1,3.3E1,1.2E1,1.4E1,2.2E1,1.1E1,1E0,3E0,1.3E1,2E0,6E0,1E0,5E0,8E0,1E0,4E0,1E0,1E0,2E0,2E0,4E0,1E0,6E0,4.2E1,2.5E1,8E0,2E0,1E1,1.3E1,1E0],"tree_param":{"num_deleted":"0","num_feature":"3","num_nodes":"73","size_leaf_vector":"1"}},{"base_weights":[7.2624935E-3,1.0659221E-1,-2.0404719E-2,2.4042713E-2,1.7234208E-1,-4.6027534E-2,5.286691E-4,-8.9967616E-2,8.3245374E-2,9.962829E-2,3.9811668E-1,-3.0571051E-2,-1.02078654E-1,2.0271097E-1,-2.8708875E-2,-4.762572E-2,-5.7954136E-2,4.4914246E-2,1.7742741E-1,2.4308426E-2,2.4679539E-1,4.711228E-1,4.9629095E-3,-8.554461E-2,-1.6682264E-3,-3.4819346E-2,-2.7852256E-3,1.13737844E-1,1.772123E-1,-2.2710794E-1,-1.8430062E-2,-5.7564426E-2,1.8009782E-3,5.859399E-2,2.9062629E-3,-3.4038227E-3,1.0798817E-1,1.398737E-1,-4.746158E-2,1.3543892E-1,1.3724013E-1,1.482575E-2,5.641939E-1,-2.9216254E-2,-1.2535618E-1,2.2448827E-2,-2.8113574E-2,9.876859E-3,-1.1130211E-2,3.3085304E-1,-2.1297102E-1,-1.8290557E-2,-7.8649476E-2,2.3002547E-1,-3.109749E-2,7.1668625E-4,-2.100987E-2,4.5516016E-3,2.0649852E-2,-1.5330792E-3,2.184558E-3,2.059393E-2,-2.212565E-2,5.9908573E-3,7.5936414E-2,-2.4063827E-3,-6.0363654E-2,1.1412106E-1,3.1095888E-3,1.9417058E-1,4.726049E-2,-1.3400118E-2,1.6476149E-2,-4.643281E-2,-8.346749E-3,-8.096525E-3,9.502545E-3,-1.0290185E-1,1.953803E-3,-2.5990607E-2,1.2446211E-1,-1.783104E-2,-7.0948616E-2,4.790497E-3,1.3082954E-1,1.0923753E-3,-2.2541663E-2],"categories":[],"categories_nodes":[],"categories_segments":[],"categories_sizes":[],"default_left":[0,0,0,0,0,0,0,0,0,0,0,0,0,0,0,0,0,0,0,0,0,0,0,0,0,0,0,0,0,0,0,0,0,0,0,0,0,0,0,0,0,0,0,0,0,0,0,0,0,0,0,0,0,0,0,0,0,0,0,0,0,0,0,0,0,0,0,0,0,0,0,0,0,0,0,0,0,0,0,0,0,0,0,0,0,0,0],"id":9,"left_children":[1,3,5,7,9,11,13,15,17,19,21,23,25,27,29,31,-1,33,35,37,39,41,-1,43,45,-1,47,49,-1,51,53,55,-1,57,59,61,-1,63,65,67,-1,-1,69,71,73,75,77,-1,-1,79,81,-1,-1,83,85,-1,-1,-1,-1,-1,-1,-1,-1,-1,-1,-1,-1,-1,-1,-1,-1,-1,-1,-1,-1,-1,-1,-1,-1,-1,-1,-1,-1,-1,-1,-1,-1],"loss_changes":[5.930329E-1,2.509545E-1,9.067125E-2,1.5598312E-1,3.871764E-1,6.272219E-2,5.6148314E-1,2.5761455E-2,4.6182536E-2,2.2677755E-1,1.5934938E-1,9.6779644E-2,2.189596E-2,3.4706953E-1,1.6507688E-1,4.0765945E-3,0E0,6.725611E-3,1.33256E-1,1.3105044E-1,1.0225871E-1,1.6836011E-1,0E0,4.3430492E-2,2.6780255E-2,0E0,4.897482E-3,8.507302E-1,0E0,7.3135644E-3,2.5893667E-1,4.6524648E-3,0E0,2.9569883E-3,1.7752057E-4,2.026867E-2,0E0,7.641849E-2,5.902572E-2,1.7988864E-1,0E0,0E0,3.3115864E-2,1.5452941E-2,3.0126855E-2,1.0889592E-2,2.2030488E-1,0E0,0E0,2.8148615E-1,4.002437E-3,0E0,0E0,1.6948183E-1,1.18079156E-1,0E0,0E0,0E0,0E0,0E0,0E0,0E0,0E0,0E0,0E0,0E0,0E0,0E0,0E0,0E0,0E0,0E0,0E0,0E0,0E0,0E0,0E0,0E0,0E0,0E0,0E0,0E0,0E0,0E0,0E0,0E0,0E0],"parents":[2147483647,0,0,1,1,2,2,3,3,4,4,5,5,6,6,7,7,8,8,9,9,10,10,11,11,12,12,13,13,14,14,15,15,17,17,18,18,19,19,20,20,21,21,23,23,24,24,26,26,27,27,29,29,30,30,31,31,33,33,34,34,35,35,37,37,38,38,39,39,42,42,43,43,44,44,45,45,46,46,49,49,50,50,53,53,54,54],"right_children":[2,4,6,8,10,12,14,16,18,20,22,24,26,28,30,32,-1,34,36,38,40,42,-1,44,46,-1,48,50,-1,52,54,56,-1,58,60,62,-1,64,66,68,-1,-1,70,72,74,76,78,-1,-1,80,82,-1,-1,84,86,-1,-1,-1,-1,-1,-1,-1,-1,-1,-1,-1,-1,-1,-1,-1,-1,-1,-1,-1,-1,-1,-1,-1,-1,-1,-1,-1,-1,-1,-1,-1,-1],"split_conditions":[7.8268695E0,4.2309504E-2,3.4869473E-2,2.8991103E0,8.6093706E-1,3.3004751E0,3.521181E-2,4.1431088E-2,3.6823038E-2,7.7494326E0,2.0236013E0,1.5015044E0,8.018169E0,8.524926E0,3.535742E-2,7.814073E0,-5.7954136E-2,3.9411478E0,3.6043005E0,7.735665E0,6.808466E-2,7.7321815E0,4.9629095E-3,7.8747926E0,7.995463E0,-3.4819346E-2,8.018966E0,8.5241785E0,1.772123E-1,8.416162E0,3.547722E-2,2.6312305E-2,1.8009782E-3,7.5409656E0,4.0902457E0,7.716116E0,1.0798817E-1,7.696039E0,7.748582E0,7.749693E0,1.3724013E-1,1.482575E-2,7.8175774E0,7.858277E0,8.523168E0,7.985508E0,7.9960113E0,9.876859E-3,-1.1130211E-2,8.4125395E0,8.52419E0,-1.8290557E-2,-7.8649476E-2,8.42596E0,8.155445E0,7.1668625E-4,-2.100987E-2,4.5516016E-3,2.0649852E-2,-1.5330792E-3,2.184558E-3,2.059393E-2,-2.212565E-2,5.9908573E-3,7.5936414E-2,-2.4063827E-3,-6.0363654E-2,1.1412106E-1,3.1095888E-3,1.9417058E-1,4.726049E-2,-1.3400118E-2,1.6476149E-2,-4.643281E-2,-8.346749E-3,-8.096525E-3,9.502545E-3,-1.0290185E-1,1.953803E-3,-2.5990607E-2,1.2446211E-1,-1.783104E-2,-7.0948616E-2,4.790497E-3,1.3082954E-1,1.0923753E-3,-2.2541663E-2],"split_indices":[0,2,2,1,1,1,2,2,2,0,1,1,0,0,2,0,0,1,1,0,2,0,0,0,0,0,0,0,0,0,2,2,0,0,1,0,0,0,0,0,0,0,0,0,0,0,0,0,0,0,0,0,0,0,0,0,0,0,0,0,0,0,0,0,0,0,0,0,0,0,0,0,0,0,0,0,0,0,0,0,0,0,0,0,0,0,0],"split_type":[0,0,0,0,0,0,0,0,0,0,0,0,0,0,0,0,0,0,0,0,0,0,0,0,0,0,0,0,0,0,0,0,0,0,0,0,0,0,0,0,0,0,0,0,0,0,0,0,0,0,0,0,0,0,0,0,0,0,0,0,0,0,0,0,0,0,0,0,0,0,0,0,0,0,0,0,0,0,0,0,0,0,0,0,0,0,0],"sum_hessian":[2.14E2,4.6E1,1.68E2,2.1E1,2.5E1,7.5E1,9.3E1,7E0,1.4E1,2E1,5E0,6E1,1.5E1,1.1E1,8.2E1,6E0,1E0,1.1E1,3E0,1.4E1,6E0,4E0,1E0,2E1,4E1,1.3E1,2E0,1E1,1E0,3E0,7.9E1,5E0,1E0,8E0,3E0,2E0,1E0,5E0,9E0,5E0,1E0,1E0,3E0,9E0,1.1E1,2.1E1,1.9E1,1E0,1E0,6E0,4E0,1E0,2E0,3E0,7.6E1,1E0,4E0,2E0,6E0,1E0,2E0,1E0,1E0,3E0,2E0,8E0,1E0,1E0,4E0,2E0,1E0,8E0,1E0,8E0,3E0,3E0,1.8E1,1E0,1.8E1,1E0,5E0,1E0,3E0,2E0,1E0,4.3E1,3.3E1],"tree_param":{"num_deleted":"0","num_feature":"3","num_nodes":"87","size_leaf_vector":"1"}},{"base_weights":[7.909447E-3,8.71829E-2,-1.4183817E-2,1.9369096E-2,1.4121062E-1,-1.0712401E-2,-1.259038E-1,-7.253312E-2,6.709234E-2,8.2769826E-2,3.222183E-1,-3.468401E-2,9.649317E-3,-6.075616E-2,-7.3191323E-3,-3.597974E-2,-4.9261022E-2,3.359433E-2,1.5081328E-1,1.8293174E-2,2.0910981E-1,3.8103732E-1,4.2184712E-3,-2.3879202E-2,-7.3709585E-2,1.5747303E-1,-1.2927061E-2,4.3387163E-2,-4.6680775E-2,-4.367728E-2,1.5308262E-3,4.3815903E-2,2.197206E-3,-2.8932095E-3,9.1789916E-2,-7.8835286E-2,7.474093E-2,1.1434575E-1,1.16654135E-1,1.2601877E-2,4.5529354E-1,1.3329921E-2,-5.0089147E-2,-2.5119666E-2,-2.367437E-3,8.049757E-2,1.5063047E-1,-1.7038813E-1,-2.2572963E-3,-1.5326977E-3,-1.8505253E-2,1.6933763E-2,4.175091E-3,-1.3031245E-3,1.747632E-3,1.7504849E-2,-1.8806793E-2,-7.85707E-3,-5.1309086E-2,4.027286E-2,3.8097503E-3,9.7002916E-2,2.363305E-3,1.5533647E-1,4.017141E-2,-4.6149367E-3,4.1100398E-2,-1.052572E-2,-2.2180423E-2,8.395333E-3,-9.460679E-3,7.369935E-2,-5.0050694E-2,-2.2274494E-2,-6.291957E-2,8.987897E-2,-4.3893983E-3],"categories":[],"categories_nodes":[],"categories_segments":[],"categories_sizes":[],"default_left":[0,0,0,0,0,0,0,0,0,0,0,0,0,0,0,0,0,0,0,0,0,0,0,0,0,0,0,0,0,0,0,0,0,0,0,0,0,0,0,0,0,0,0,0,0,0,0,0,0,0,0,0,0,0,0,0,0,0,0,0,0,0,0,0,0,0,0,0,0,0,0,0,0,0,0,0,0],"id":10,"left_children":[1,3,5,7,9,11,13,15,17,19,21,23,25,-1,27,29,-1,31,33,35,37,39,-1,41,43,45,47,-1,-1,49,-1,51,53,55,-1,57,59,61,-1,-1,63,65,67,-1,69,71,-1,73,75,-1,-1,-1,-1,-1,-1,-1,-1,-1,-1,-1,-1,-1,-1,-1,-1,-1,-1,-1,-1,-1,-1,-1,-1,-1,-1,-1,-1],"loss_changes":[3.777896E-1,1.694647E-1,6.4193964E-2,1.013556E-1,2.4836409E-1,8.087169E-2,4.3945573E-2,2.0898882E-2,3.7000805E-2,1.672403E-1,1.03394926E-1,3.0286327E-2,3.023948E-1,0E0,9.009574E-2,2.436514E-3,0E0,3.7548626E-3,9.627738E-2,8.8132486E-2,7.4765444E-2,1.0675061E-1,0E0,6.015788E-2,1.1242352E-2,2.779173E-1,1.3234112E-1,0E0,0E0,3.8518272E-3,0E0,2.6130509E-3,1.202327E-4,1.46441115E-2,0E0,2.4642337E-2,3.5211273E-2,1.3096201E-1,0E0,0E0,1.1006236E-2,9.443305E-2,1.0285489E-2,0E0,3.5384311E-3,4.9034953E-1,0E0,3.340274E-3,2.8451964E-1,0E0,0E0,0E0,0E0,0E0,0E0,0E0,0E0,0E0,0E0,0E0,0E0,0E0,0E0,0E0,0E0,0E0,0E0,0E0,0E0,0E0,0E0,0E0,0E0,0E0,0E0,0E0,0E0],"parents":[2147483647,0,0,1,1,2,2,3,3,4,4,5,5,6,6,7,7,8,8,9,9,10,10,11,11,12,12,14,14,15,15,17,17,18,18,19,19,20,20,21,21,23,23,24,24,25,25,26,26,29,29,31,31,32,32,33,33,35,35,36,36,37,37,40,40,41,41,42,42,44,44,45,45,47,47,48,48],"right_children":[2,4,6,8,10,12,14,16,18,20,22,24,26,-1,28,30,-1,32,34,36,38,40,-1,42,44,46,48,-1,-1,50,-1,52,54,56,-1,58,60,62,-1,-1,64,66,68,-1,70,72,-1,74,76,-1,-1,-1,-1,-1,-1,-1,-1,-1,-1,-1,-1,-1,-1,-1,-1,-1,-1,-1,-1,-1,-1,-1,-1,-1,-1,-1,-1],"split_conditions":[7.8268695E0,4.2309504E-2,4.1749396E0,2.8991103E0,8.6093706E-1,3.4869473E-2,7.9383755E0,4.1431088E-2,3.6823038E-2,7.7494326E0,2.0236013E0,3.3004751E0,3.521181E-2,-6.075616E-2,7.939652E0,7.814073E0,-4.9261022E-2,3.9411478E0,3.6043005E0,8.156641E-1,6.808466E-2,7.7321815E0,4.2184712E-3,2.8664002E-2,8.018169E0,8.524926E0,3.5381105E-2,4.3387163E-2,-4.6680775E-2,2.7385535E-2,1.5308262E-3,3.5242323E-2,4.0902457E0,7.716116E0,9.1789916E-2,7.7485723E0,7.735665E0,7.749693E0,1.16654135E-1,1.2601877E-2,7.8175774E0,2.7982224E-2,8.37263E0,-2.5119666E-2,8.018966E0,8.5241785E0,1.5063047E-1,8.416743E0,3.547722E-2,-1.5326977E-3,-1.8505253E-2,1.6933763E-2,4.175091E-3,-1.3031245E-3,1.747632E-3,1.7504849E-2,-1.8806793E-2,-7.85707E-3,-5.1309086E-2,4.027286E-2,3.8097503E-3,9.7002916E-2,2.363305E-3,1.5533647E-1,4.017141E-2,-4.6149367E-3,4.1100398E-2,-1.052572E-2,-2.2180423E-2,8.395333E-3,-9.460679E-3,7.369935E-2,-5.0050694E-2,-2.2274494E-2,-6.291957E-2,8.987897E-2,-4.3893983E-3],"split_indices":[0,2,1,1,1,2,0,2,2,0,1,1,2,0,0,0,0,1,1,1,2,0,0,2,0,0,2,0,0,2,0,2,1,0,0,0,0,0,0,0,0,2,0,0,0,0,0,0,2,0,0,0,0,0,0,0,0,0,0,0,0,0,0,0,0,0,0,0,0,0,0,0,0,0,0,0,0],"split_type":[0,0,0,0,0,0,0,0,0,0,0,0,0,0,0,0,0,0,0,0,0,0,0,0,0,0,0,0,0,0,0,0,0,0,0,0,0,0,0,0,0,0,0,0,0,0,0,0,0,0,0,0,0,0,0,0,0,0,0,0,0,0,0,0,0,0,0,0,0,0,0,0,0,0,0,0,0],"sum_hessian":[2.14E2,4.6E1,1.68E2,2.1E1,2.5E1,1.64E2,4E0,7E0,1.4E1,2E1,5E0,7.5E1,8.9E1,2E0,2E0,6E0,1E0,1.1E1,3E0,1.4E1,6E0,4E0,1E0,6E1,1.5E1,1.1E1,7.8E1,1E0,1E0,5E0,1E0,8E0,3E0,2E0,1E0,5E0,9E0,5E0,1E0,1E0,3E0,2.5E1,3.5E1,1.3E1,2E0,1E1,1E0,4E0,7.4E1,2E0,3E0,5E0,3E0,1E0,2E0,1E0,1E0,4E0,1E0,4E0,5E0,1E0,4E0,2E0,1E0,2.1E1,4E0,2.3E1,1.2E1,1E0,1E0,6E0,4E0,2E0,2E0,2E0,7.2E1],"tree_param":{"num_deleted":"0","num_feature":"3","num_nodes":"77","size_leaf_vector":"1"}},{"base_weights":[8.074546E-3,7.0762895E-2,-9.407271E-3,4.8790403E-2,1.8934996E-1,-6.5764585E-3,-1.0094263E-1,2.677171E-2,1.7277081E-1,3.091205E-1,7.961764E-2,-9.124985E-3,4.0225685E-2,-4.860493E-2,-6.2212744E-3,3.9013743E-2,-3.626858E-2,9.068842E-2,3.243518E-2,1.0711599E-2,1.2839264E-1,9.915605E-2,-6.573802E-2,-5.397193E-3,-8.0676295E-2,3.687909E-2,-3.9678663E-2,-4.5618378E-2,5.1818643E-2,-3.263243E-2,3.41457E-2,9.266456E-3,-4.361272E-2,-9.932188E-3,7.9741746E-2,-9.7468235E-2,5.530089E-3,-2.0061918E-2,5.910051E-3,9.897678E-3,4.9782623E-2,-1.5985787E-2,1.3011933E-3,5.842209E-4,3.5856843E-3,-1.4999539E-3,-4.5295108E-2,1.280359E-1,-9.241656E-3,-3.352105E-2,-1.2359352E-2],"categories":[],"categories_nodes":[],"categories_segments":[],"categories_sizes":[],"default_left":[0,0,0,0,0,0,0,0,0,0,0,0,0,0,0,0,0,0,0,0,0,0,0,0,0,0,0,0,0,0,0,0,0,0,0,0,0,0,0,0,0,0,0,0,0,0,0,0,0,0,0],"id":11,"left_children":[1,3,5,7,9,11,13,15,17,19,21,23,-1,-1,25,27,-1,-1,29,-1,-1,-1,31,33,35,-1,-1,37,39,41,-1,43,-1,45,47,49,-1,-1,-1,-1,-1,-1,-1,-1,-1,-1,-1,-1,-1,-1,-1],"loss_changes":[2.3628555E-1,1.1322726E-1,4.3127332E-2,1.07299976E-1,6.738743E-2,6.037289E-2,2.791702E-2,6.979537E-2,9.9255964E-2,8.22092E-2,2.0407824E-1,4.3041296E-2,0E0,0E0,6.509418E-2,3.9209872E-2,0E0,0E0,2.4895996E-2,0E0,0E0,0E0,2.5239855E-2,6.102434E-2,1.5110668E-2,0E0,0E0,8.259036E-3,5.8981143E-2,2.5217845E-3,0E0,3.5697187E-5,0E0,1.0290654E-1,3.2006598E-1,1.0169894E-3,0E0,0E0,0E0,0E0,0E0,0E0,0E0,0E0,0E0,0E0,0E0,0E0,0E0,0E0,0E0],"parents":[2147483647,0,0,1,1,2,2,3,3,4,4,5,5,6,6,7,7,8,8,9,9,10,10,11,11,14,14,15,15,18,18,22,22,23,23,24,24,27,27,28,28,29,29,31,31,33,33,34,34,35,35],"right_children":[2,4,6,8,10,12,14,16,18,20,22,24,-1,-1,26,28,-1,-1,30,-1,-1,-1,32,34,36,-1,-1,38,40,42,-1,44,-1,46,48,50,-1,-1,-1,-1,-1,-1,-1,-1,-1,-1,-1,-1,-1,-1,-1],"split_conditions":[7.8268695E0,6.808466E-2,4.1749396E0,7.814498E0,7.7323456E0,4.1388354E0,7.9383755E0,7.801614E0,7.8216987E0,7.7321815E0,6.860834E-2,6.721231E-2,4.0225685E-2,-4.860493E-2,7.939652E0,8.121886E-1,-3.626858E-2,9.068842E-2,7.8238387E0,1.0711599E-2,1.2839264E-1,9.915605E-2,6.921727E-2,8.5250025E0,8.529231E0,3.687909E-2,-3.9678663E-2,7.7497478E0,7.748582E0,7.8228974E0,3.41457E-2,7.7485723E0,-4.361272E-2,8.52419E0,8.527411E0,1.9655348E0,5.530089E-3,-2.0061918E-2,5.910051E-3,9.897678E-3,4.9782623E-2,-1.5985787E-2,1.3011933E-3,5.842209E-4,3.5856843E-3,-1.4999539E-3,-4.5295108E-2,1.280359E-1,-9.241656E-3,-3.352105E-2,-1.2359352E-2],"split_indices":[0,2,1,0,0,1,0,0,0,0,2,2,0,0,0,1,0,0,0,0,0,0,2,0,0,0,0,0,0,0,0,0,0,0,0,1,0,0,0,0,0,0,0,0,0,0,0,0,0,0,0],"split_type":[0,0,0,0,0,0,0,0,0,0,0,0,0,0,0,0,0,0,0,0,0,0,0,0,0,0,0,0,0,0,0,0,0,0,0,0,0,0,0,0,0,0,0,0,0,0,0,0,0,0,0],"sum_hessian":[2.14E2,4.6E1,1.68E2,4E1,6E0,1.64E2,4E0,3.5E1,5E0,2E0,4E0,1.62E2,2E0,2E0,2E0,3.3E1,2E0,2E0,3E0,1E0,1E0,1E0,3E0,1.55E2,7E0,1E0,1E0,4E0,2.9E1,2E0,1E0,2E0,1E0,1.48E2,7E0,6E0,1E0,3E0,1E0,2.6E1,3E0,1E0,1E0,1E0,1E0,1.44E2,4E0,1E0,6E0,4E0,2E0],"tree_param":{"num_deleted":"0","num_feature":"3","num_nodes":"51","size_leaf_vector":"1"}},{"base_weights":[7.22751E-3,5.0602872E-2,-8.740835E-3,-5.342126E-3,7.204245E-2,1.7472928E-2,-2.0338412E-2,-3.4281816E-2,1.3559688E-2,1.3899429E-1,4.9570907E-2,-1.9176621E-2,9.426117E-2,-2.7464973E-3,-5.1055603E-2,-6.455541E-4,-1.1783451E-2,2.3838371E-2,-1.03875995E-2,2.21763E-2,9.260316E-2,-3.3546478E-2,8.21377E-2,1.8177463E-2,-1.9652526E-1,2.0360965E-1,-4.053852E-2,-1.8784704E-2,7.025355E-2,-5.858442E-2,-4.2350292E-2,3.4086388E-2,-4.603783E-3,-2.2160688E-2,3.7397505E-3,-1.0118961E-2,1.4678246E-2,-9.8140305E-3,-3.7070777E-2,1.9835739E-1,4.8975885E-2,-4.836477E-2,1.3146155E-1,-1.7225755E-2,-9.494749E-2,6.385118E-3,1.3456321E-1,2.6398748E-2,-8.598063E-2,-9.160378E-3,-8.6549334E-2,6.664462E-2,3.9083228E-2,-8.210523E-2,-3.2634083E-2,1.2444342E-2,3.859377E-3,5.205989E-4,-2.5923015E-3,-8.579564E-3,-1.392746E-3,-5.349636E-4,-5.2689314E-3,-7.94146E-3,1.8516898E-2,5.0235274E-3,7.1872264E-2,4.208189E-2,-5.127873E-5,-8.721993E-3,-3.4031823E-2,1.717705E-1,9.028212E-3,-4.0247873E-3,1.5808575E-2,-7.4447575E-3,1.5522672E-2,-3.2352995E-2,-1.063732E-2,7.845132E-3,-1.4378202E-2,-5.320191E-3,3.665223E-2,-3.5901412E-2,-7.2038327E-3,9.582147E-3,-1.2046867E-2],"categories":[],"categories_nodes":[],"categories_segments":[],"categories_sizes":[],"default_left":[0,0,0,0,0,0,0,0,0,0,0,0,0,0,0,0,0,0,0,0,0,0,0,0,0,0,0,0,0,0,0,0,0,0,0,0,0,0,0,0,0,0,0,0,0,0,0,0,0,0,0,0,0,0,0,0,0,0,0,0,0,0,0,0,0,0,0,0,0,0,0,0,0,0,0,0,0,0,0,0,0,0,0,0,0,0,0],"id":12,"left_children":[1,3,5,7,9,11,13,15,17,19,21,23,25,27,29,-1,-1,31,33,35,-1,37,39,41,43,45,47,49,51,-1,53,55,57,59,-1,61,-1,63,-1,65,67,69,71,-1,-1,73,-1,75,77,79,-1,-1,81,83,85,-1,-1,-1,-1,-1,-1,-1,-1,-1,-1,-1,-1,-1,-1,-1,-1,-1,-1,-1,-1,-1,-1,-1,-1,-1,-1,-1,-1,-1,-1,-1,-1],"loss_changes":[1.4935836E-1,6.9952205E-2,4.8389923E-2,9.764066E-3,5.629939E-2,1.3970608E-1,5.9300937E-2,1.0392079E-3,2.9552358E-3,1.9137484E-1,9.2082E-2,2.28812E-1,2.4409628E-1,8.444577E-2,4.1950993E-2,0E0,0E0,2.4887314E-3,1.3524736E-3,6.5426505E-3,0E0,2.0151895E-2,8.278261E-2,2.249652E-1,8.19556E-2,4.3189958E-1,2.6603946E-2,1.5050982E-1,5.2867793E-2,0E0,1.2384988E-2,4.0794164E-4,9.177219E-5,2.0557072E-4,0E0,2.1689132E-4,0E0,1.2358556E-2,0E0,3.341569E-2,8.976317E-2,2.0554256E-2,4.746219E-1,0E0,0E0,6.2088985E-3,0E0,6.475855E-3,1.6989522E-3,8.064911E-2,0E0,0E0,5.881851E-2,1.2402527E-2,1.7311998E-2,0E0,0E0,0E0,0E0,0E0,0E0,0E0,0E0,0E0,0E0,0E0,0E0,0E0,0E0,0E0,0E0,0E0,0E0,0E0,0E0,0E0,0E0,0E0,0E0,0E0,0E0,0E0,0E0,0E0,0E0,0E0,0E0],"parents":[2147483647,0,0,1,1,2,2,3,3,4,4,5,5,6,6,7,7,8,8,9,9,10,10,11,11,12,12,13,13,14,14,17,17,18,18,19,19,21,21,22,22,23,23,24,24,25,25,26,26,27,27,28,28,30,30,31,31,32,32,33,33,35,35,37,37,39,39,40,40,41,41,42,42,45,45,47,47,48,48,49,49,52,52,53,53,54,54],"right_children":[2,4,6,8,10,12,14,16,18,20,22,24,26,28,30,-1,-1,32,34,36,-1,38,40,42,44,46,48,50,52,-1,54,56,58,60,-1,62,-1,64,-1,66,68,70,72,-1,-1,74,-1,76,78,80,-1,-1,82,84,86,-1,-1,-1,-1,-1,-1,-1,-1,-1,-1,-1,-1,-1,-1,-1,-1,-1,-1,-1,-1,-1,-1,-1,-1,-1,-1,-1,-1,-1,-1,-1,-1],"split_conditions":[7.8437376E0,3.639703E-2,8.12283E-1,2.8991103E0,7.735665E0,6.8333095E-1,8.160435E0,2.6312305E-2,3.5242323E-2,7.7321815E0,7.7494326E0,6.5899414E-1,8.462084E0,7.9960113E0,8.240211E0,-6.455541E-4,-1.1783451E-2,3.9411478E0,3.622092E-2,8.448568E-1,9.260316E-2,7.748582E0,8.13744E-1,8.496973E0,8.523168E0,8.415855E0,3.484247E-2,7.995463E0,8.00352E0,-5.858442E-2,1.5015044E0,7.623663E0,7.67532E0,7.5409656E0,3.7397505E-3,7.5092287E0,1.4678246E-2,8.356677E-1,-3.7070777E-2,8.015253E-1,4.0997136E-2,8.438484E0,8.5241785E0,-1.7225755E-2,-9.494749E-2,7.7115345E-1,1.3456321E-1,8.5180235E0,8.5241785E0,2.1799908E0,-8.6549334E-2,6.664462E-2,3.5188725E0,8.431578E0,1.6246104E0,1.2444342E-2,3.859377E-3,5.205989E-4,-2.5923015E-3,-8.579564E-3,-1.392746E-3,-5.349636E-4,-5.2689314E-3,-7.94146E-3,1.8516898E-2,5.0235274E-3,7.1872264E-2,4.208189E-2,-5.127873E-5,-8.721993E-3,-3.4031823E-2,1.717705E-1,9.028212E-3,-4.0247873E-3,1.5808575E-2,-7.4447575E-3,1.5522672E-2,-3.2352995E-2,-1.063732E-2,7.845132E-3,-1.4378202E-2,-5.320191E-3,3.665223E-2,-3.5901412E-2,-7.2038327E-3,9.582147E-3,-1.2046867E-2],"split_indices":[0,2,1,1,0,1,0,2,2,0,0,1,0,0,0,0,0,1,2,1,0,0,1,0,0,0,2,0,0,0,1,0,0,0,0,0,0,1,0,1,2,0,0,0,0,1,0,0,0,1,0,0,1,0,1,0,0,0,0,0,0,0,0,0,0,0,0,0,0,0,0,0,0,0,0,0,0,0,0,0,0,0,0,0,0,0,0],"split_type":[0,0,0,0,0,0,0,0,0,0,0,0,0,0,0,0,0,0,0,0,0,0,0,0,0,0,0,0,0,0,0,0,0,0,0,0,0,0,0,0,0,0,0,0,0,0,0,0,0,0,0,0,0,0,0,0,0,0,0,0,0,0,0,0,0,0,0,0,0,0,0,0,0,0,0,0,0,0,0,0,0,0,0,0,0,0,0],"sum_hessian":[2.14E2,5.7E1,1.57E2,1.6E1,4.1E1,4.8E1,1.09E2,6E0,1E1,9E0,3.2E1,3.3E1,1.5E1,7E1,3.9E1,1E0,5E0,7E0,3E0,6E0,3E0,9E0,2.3E1,2.8E1,5E0,8E0,7E0,5.8E1,1.2E1,1E0,3.8E1,5E0,2E0,2E0,1E0,3E0,3E0,8E0,1E0,4E0,1.9E1,1.8E1,1E1,3E0,2E0,5E0,3E0,3E0,4E0,5.7E1,1E0,1E0,1.1E1,6E0,3.2E1,3E0,2E0,1E0,1E0,1E0,1E0,2E0,1E0,7E0,1E0,1E0,3E0,6E0,1.3E1,1.5E1,3E0,1E0,9E0,4E0,1E0,1E0,2E0,2E0,2E0,3E1,2.7E1,7E0,4E0,3E0,3E0,3E0,2.9E1],"tree_param":{"num_deleted":"0","num_feature":"3","num_nodes":"87","size_leaf_vector":"1"}},{"base_weights":[6.1175064E-3,4.492661E-2,-4.7117565E-3,2.7292894E-2,1.4179172E-1,-8.400466E-3,5.4778777E-2,1.0200862E-2,1.2529628E-1,2.2699182E-1,6.231332E-2,-5.0963894E-3,-4.0795613E-2,1.07476264E-1,-1.8746734E-2,2.5927195E-2,-5.8654983E-2,6.8347745E-2,1.7075062E-2,6.9030765E-3,9.5243245E-2,7.3501825E-2,-4.4611394E-2,-3.987186E-2,-3.4251327E-3,-2.3625273E-2,-1.4023483E-3,1.2061647E-2,6.4204216E-2,-2.7959814E-2,-3.64239E-2,-4.174781E-2,2.9031552E-2,3.1622173E-3,-3.1510163E-2,-1.9827541E-2,8.823606E-3,-1.5258381E-2,1.2929107E-2,-5.4361317E-3,5.73138E-3,4.560793E-4,-2.630403E-2,-1.9900203E-2,1.113689E-3,-1.8106638E-2,-3.2366777E-3,8.858948E-3,-8.350959E-3,-2.107358E-3,6.6946405E-3],"categories":[],"categories_nodes":[],"categories_segments":[],"categories_sizes":[],"default_left":[0,0,0,0,0,0,0,0,0,0,0,0,0,0,0,0,0,0,0,0,0,0,0,0,0,0,0,0,0,0,0,0,0,0,0,0,0,0,0,0,0,0,0,0,0,0,0,0,0,0,0],"id":13,"left_children":[1,3,5,7,9,11,13,15,17,19,21,23,-1,-1,25,27,29,-1,31,-1,-1,-1,33,-1,35,-1,37,39,-1,41,-1,43,-1,-1,-1,45,47,-1,49,-1,-1,-1,-1,-1,-1,-1,-1,-1,-1,-1,-1],"loss_changes":[9.057059E-2,7.641041E-2,3.7546087E-2,6.740002E-2,3.3256352E-2,6.675503E-2,2.2984795E-1,4.0503357E-2,6.2685065E-2,4.806699E-2,1.0860191E-1,3.3080447E-2,0E0,0E0,9.256183E-3,7.5656466E-2,1.0089887E-2,0E0,2.2791985E-2,0E0,0E0,0E0,1.4436844E-2,0E0,3.1516727E-2,0E0,6.3281376E-3,6.5107434E-3,0E0,1.069665E-2,0E0,3.5993252E-3,0E0,0E0,0E0,2.3892019E-2,6.914036E-2,0E0,1.4677994E-3,0E0,0E0,0E0,0E0,0E0,0E0,0E0,0E0,0E0,0E0,0E0,0E0],"parents":[2147483647,0,0,1,1,2,2,3,3,4,4,5,5,6,6,7,7,8,8,9,9,10,10,11,11,14,14,15,15,16,16,18,18,22,22,24,24,26,26,27,27,29,29,31,31,35,35,36,36,38,38],"right_children":[2,4,6,8,10,12,14,16,18,20,22,24,-1,-1,26,28,30,-1,32,-1,-1,-1,34,-1,36,-1,38,40,-1,42,-1,44,-1,-1,-1,46,48,-1,50,-1,-1,-1,-1,-1,-1,-1,-1,-1,-1,-1,-1],"split_conditions":[7.8268695E0,6.808466E-2,8.5250025E0,7.814498E0,7.7323456E0,8.524393E0,8.527411E0,7.749693E0,7.8216987E0,7.7321815E0,6.860834E-2,7.8274326E0,-4.0795613E-2,1.07476264E-1,3.5345443E-2,7.748582E0,7.814073E0,6.8347745E-2,7.8238387E0,6.9030765E-3,9.5243245E-2,7.3501825E-2,6.921727E-2,-3.987186E-2,3.3203267E-2,-2.3625273E-2,8.529231E0,8.1821847E-1,6.4204216E-2,6.396303E-2,-3.64239E-2,7.8228974E0,2.9031552E-2,3.1622173E-3,-3.1510163E-2,1.5015044E0,4.4018265E-2,-1.5258381E-2,5.6930596E-1,-5.4361317E-3,5.73138E-3,4.560793E-4,-2.630403E-2,-1.9900203E-2,1.113689E-3,-1.8106638E-2,-3.2366777E-3,8.858948E-3,-8.350959E-3,-2.107358E-3,6.6946405E-3],"split_indices":[0,2,0,0,0,0,0,0,0,0,2,0,0,0,2,0,0,0,0,0,0,0,2,0,2,0,0,1,0,2,0,0,0,0,0,1,2,0,1,0,0,0,0,0,0,0,0,0,0,0,0],"split_type":[0,0,0,0,0,0,0,0,0,0,0,0,0,0,0,0,0,0,0,0,0,0,0,0,0,0,0,0,0,0,0,0,0,0,0,0,0,0,0,0,0,0,0,0,0,0,0,0,0,0,0],"sum_hessian":[2.14E2,4.6E1,1.68E2,4E1,6E0,1.59E2,9E0,3.5E1,5E0,2E0,4E0,1.56E2,3E0,1E0,8E0,2.9E1,6E0,2E0,3E0,1E0,1E0,1E0,3E0,1E0,1.55E2,1E0,7E0,2.8E1,1E0,5E0,1E0,2E0,1E0,2E0,1E0,6.6E1,8.9E1,1E0,6E0,5E0,2.3E1,4E0,1E0,1E0,1E0,1.1E1,5.5E1,5.7E1,3.2E1,2E0,4E0],"tree_param":{"num_deleted":"0","num_feature":"3","num_nodes":"51","size_leaf_vector":"1"}},{"base_weights":[5.2115517E-3,-2.9363094E-3,4.719873E-2,3.302981E-3,-4.388929E-2,1.05823025E-1,7.7469647E-3,-2.1970635E-3,1.7204376E-1,-1.08603396E-1,-1.0853873E-2,3.4613132E-2,1.950007E-1,1.1485076E-1,-2.2434477E-2,9.034147E-4,-4.7566686E-2,6.135531E-2,6.3221995E-3,3.626672E-2,-1.586579E-1,3.753779E-2,-3.732625E-2,5.2595515E-2,-1.8883467E-2,4.201591E-3,2.2839871E-1,8.635581E-3,8.095673E-2,1.4153321E-1,-5.1776264E-2,-3.98495E-3,7.901687E-2,-5.5732954E-2,-6.0574252E-2,-2.5555508E-2,-3.0317493E-2,-5.338311E-3,6.729289E-2,-9.080422E-3,5.8286195E-4,2.0476371E-2,9.372299E-2,-1.5250047E-3,5.867601E-3,1.2134314E-3,6.247652E-2,-9.5378205E-2,-7.2660646E-3,-2.3654867E-3,1.8990228E-2,-2.4531127E-3,4.512222E-2,-3.5122108E-2,7.863692E-3,-1.35804685E-2,1.0513004E-2,-2.1480203E-3,2.508465E-2,3.170371E-4,-1.0032892E-3,-3.3115562E-2,-1.0071445E-2,-3.8281495E-3,5.5034105E-3],"categories":[],"categories_nodes":[],"categories_segments":[],"categories_sizes":[],"default_left":[0,0,0,0,0,0,0,0,0,0,0,0,0,0,0,0,0,0,0,0,0,0,0,0,0,0,0,0,0,0,0,0,0,0,0,0,0,0,0,0,0,0,0,0,0,0,0,0,0,0,0,0,0,0,0,0,0,0,0,0,0,0,0,0,0],"id":14,"left_children":[1,3,5,7,9,11,13,15,17,19,21,23,25,27,29,31,-1,-1,-1,-1,33,-1,35,37,39,-1,41,43,-1,45,47,49,51,-1,53,55,-1,-1,57,-1,-1,-1,-1,59,-1,-1,-1,61,63,-1,-1,-1,-1,-1,-1,-1,-1,-1,-1,-1,-1,-1,-1,-1,-1],"loss_changes":[7.369132E-2,4.6393644E-2,8.012932E-2,1.470149E-1,5.012981E-2,8.2155064E-2,7.369265E-2,7.480033E-2,2.0202905E-2,1.11077055E-1,6.586555E-2,9.651152E-3,3.307052E-2,7.998904E-2,9.392795E-2,5.8355633E-2,0E0,0E0,0E0,0E0,7.365972E-3,0E0,8.670006E-3,8.43926E-3,7.701061E-4,0E0,4.594615E-2,4.7376694E-4,0E0,2.6678108E-2,3.0358676E-2,3.8286828E-2,5.725328E-2,0E0,1.7778944E-2,1.8310305E-2,0E0,0E0,7.890293E-3,0E0,0E0,0E0,0E0,1.7625345E-5,0E0,0E0,0E0,3.7144646E-3,1.5005372E-3,0E0,0E0,0E0,0E0,0E0,0E0,0E0,0E0,0E0,0E0,0E0,0E0,0E0,0E0,0E0,0E0],"parents":[2147483647,0,0,1,1,2,2,3,3,4,4,5,5,6,6,7,7,8,8,9,9,10,10,11,11,12,12,13,13,14,14,15,15,20,20,22,22,23,23,24,24,26,26,27,27,29,29,30,30,31,31,32,32,34,34,35,35,38,38,43,43,47,47,48,48],"right_children":[2,4,6,8,10,12,14,16,18,20,22,24,26,28,30,32,-1,-1,-1,-1,34,-1,36,38,40,-1,42,44,-1,46,48,50,52,-1,54,56,-1,-1,58,-1,-1,-1,-1,60,-1,-1,-1,62,64,-1,-1,-1,-1,-1,-1,-1,-1,-1,-1,-1,-1,-1,-1,-1,-1],"split_conditions":[5.703685E-2,4.4018265E-2,6.403134E-2,4.394828E-2,4.414566E-2,7.748582E0,7.7323456E0,4.3875232E-2,7.963776E0,3.9478962E0,4.494634E-2,7.744508E0,8.015253E-1,7.7321815E0,8.0414194E-1,3.9411478E0,-4.7566686E-2,6.135531E-2,6.3221995E-3,3.626672E-2,4.4130262E-2,3.753779E-2,4.117323E0,7.696039E0,7.7484255E0,4.201591E-3,6.0970187E-2,7.5092287E0,8.095673E-2,7.7485723E0,1.9655348E0,8.5250025E0,3.9547294E-2,-5.5732954E-2,7.948044E0,2.0982985E0,-3.0317493E-2,-5.338311E-3,8.150037E-1,-9.080422E-3,5.8286195E-4,2.0476371E-2,9.372299E-2,7.4421554E0,5.867601E-3,1.2134314E-3,6.247652E-2,7.1224295E-2,8.522819E0,-2.3654867E-3,1.8990228E-2,-2.4531127E-3,4.512222E-2,-3.5122108E-2,7.863692E-3,-1.35804685E-2,1.0513004E-2,-2.1480203E-3,2.508465E-2,3.170371E-4,-1.0032892E-3,-3.3115562E-2,-1.0071445E-2,-3.8281495E-3,5.5034105E-3],"split_indices":[2,2,2,2,2,0,0,2,0,1,2,0,1,0,1,1,0,0,0,0,2,0,1,0,0,0,2,0,0,0,1,0,2,0,0,1,0,0,1,0,0,0,0,0,0,0,0,2,0,0,0,0,0,0,0,0,0,0,0,0,0,0,0,0,0],"split_type":[0,0,0,0,0,0,0,0,0,0,0,0,0,0,0,0,0,0,0,0,0,0,0,0,0,0,0,0,0,0,0,0,0,0,0,0,0,0,0,0,0,0,0,0,0,0,0,0,0,0,0,0,0,0,0,0,0,0,0,0,0,0,0,0,0],"sum_hessian":[2.14E2,1.8E2,3.4E1,1.57E2,2.3E1,1.3E1,2.1E1,1.53E2,4E0,7E0,1.6E1,8E0,5E0,4E0,1.7E1,1.51E2,2E0,3E0,1E0,1E0,6E0,2E0,1.4E1,6E0,2E0,1E0,4E0,3E0,1E0,2E0,1.5E1,1.43E2,8E0,4E0,2E0,1.3E1,1E0,1E0,5E0,1E0,1E0,2E0,2E0,2E0,1E0,1E0,1E0,7E0,8E0,1.36E2,7E0,4E0,4E0,1E0,1E0,1E1,3E0,1E0,4E0,1E0,1E0,5E0,2E0,7E0,1E0],"tree_param":{"num_deleted":"0","num_feature":"3","num_nodes":"65","size_leaf_vector":"1"}},{"base_weights":[4.916247E-3,-1.8518985E-3,3.9776765E-2,2.8146747E-3,-3.2496344E-2,8.318342E-2,1.0346309E-2,-1.461766E-3,1.3396612E-1,-8.186295E-2,-7.3534497E-3,2.5240447E-2,1.5623398E-1,9.762311E-2,-1.4472041E-2,1.0225094E-3,-3.805334E-2,4.7550354E-2,5.3738775E-3,3.082672E-2,-1.2291644E-1,3.0030228E-2,-2.835406E-2,5.7515383E-2,-4.8291683E-4,3.5713436E-3,1.8271899E-1,7.3402524E-3,6.881318E-2,1.20303154E-1,-3.8837887E-2,-3.9135204E-3,4.9957197E-2,-1.4119014E-1,-5.148812E-2,-1.8107984E-2,-2.5769869E-2,-4.5375824E-3,2.603121E-2,-1.5402079E-2,1.1116934E-2,1.6381098E-2,7.4978404E-2,-1.2962818E-3,4.9874783E-3,1.0313988E-3,5.3105023E-2,-8.257403E-2,-1.1451093E-2,-3.5942749E-3,4.9058413E-3,1.4131934E-3,2.8359244E-2,-1.8939408E-2,-5.1655665E-2,-2.9853793E-2,6.6841366E-3,9.130669E-3,-1.0234201E-2,-6.0235085E-3,4.954577E-4,2.694726E-4,-8.5279945E-4,-2.162397E-3,-2.8861692E-2,-4.71444E-3,4.677898E-3],"categories":[],"categories_nodes":[],"categories_segments":[],"categories_sizes":[],"default_left":[0,0,0,0,0,0,0,0,0,0,0,0,0,0,0,0,0,0,0,0,0,0,0,0,0,0,0,0,0,0,0,0,0,0,0,0,0,0,0,0,0,0,0,0,0,0,0,0,0,0,0,0,0,0,0,0,0,0,0,0,0,0,0,0,0,0,0],"id":15,"left_children":[1,3,5,7,9,11,13,15,17,19,21,23,25,27,29,31,-1,-1,-1,-1,33,-1,35,37,39,-1,41,43,-1,45,47,49,51,53,55,57,-1,-1,-1,59,-1,-1,-1,61,-1,-1,-1,63,65,-1,-1,-1,-1,-1,-1,-1,-1,-1,-1,-1,-1,-1,-1,-1,-1,-1,-1],"loss_changes":[5.080099E-2,2.5975289E-2,4.3851078E-2,8.881193E-2,2.918729E-2,5.531533E-2,4.9066264E-2,4.8098415E-2,1.1397645E-2,7.3264286E-2,4.120053E-2,7.4997544E-3,2.0760238E-2,5.7792023E-2,6.378273E-2,3.6910057E-2,0E0,0E0,0E0,0E0,1.8671975E-3,0E0,7.288766E-3,9.8129315E-3,3.9310814E-3,0E0,2.9405534E-2,3.4230022E-4,0E0,1.9274946E-2,1.821912E-2,2.2921925E-2,2.7789932E-2,1.2270063E-3,1.2845286E-2,1.1916123E-2,0E0,0E0,0E0,4.3189735E-4,0E0,0E0,0E0,1.27341245E-5,0E0,0E0,0E0,5.4707117E-3,1.5134296E-3,0E0,0E0,0E0,0E0,0E0,0E0,0E0,0E0,0E0,0E0,0E0,0E0,0E0,0E0,0E0,0E0,0E0,0E0],"parents":[2147483647,0,0,1,1,2,2,3,3,4,4,5,5,6,6,7,7,8,8,9,9,10,10,11,11,12,12,13,13,14,14,15,15,20,20,22,22,23,23,24,24,26,26,27,27,29,29,30,30,31,31,32,32,33,33,34,34,35,35,39,39,43,43,47,47,48,48],"right_children":[2,4,6,8,10,12,14,16,18,20,22,24,26,28,30,32,-1,-1,-1,-1,34,-1,36,38,40,-1,42,44,-1,46,48,50,52,54,56,58,-1,-1,-1,60,-1,-1,-1,62,-1,-1,-1,64,66,-1,-1,-1,-1,-1,-1,-1,-1,-1,-1,-1,-1,-1,-1,-1,-1,-1,-1],"split_conditions":[5.703685E-2,4.4018265E-2,6.403134E-2,4.394828E-2,4.414566E-2,7.748582E0,7.7323456E0,4.3875232E-2,7.963776E0,3.9478962E0,4.494634E-2,7.735665E0,8.015253E-1,7.7321815E0,8.0414194E-1,3.5715513E0,-3.805334E-2,4.7550354E-2,5.3738775E-3,3.082672E-2,4.4130262E-2,3.0030228E-2,4.117323E0,7.696039E0,8.2910204E-1,3.5713436E-3,6.0970187E-2,7.5092287E0,6.881318E-2,7.7485723E0,1.6195711E0,8.416743E0,3.9547294E-2,7.9474444E0,7.948044E0,4.9216997E-2,-2.5769869E-2,-4.5375824E-3,2.603121E-2,7.7484255E0,1.1116934E-2,1.6381098E-2,7.4978404E-2,7.4421554E0,4.9874783E-3,1.0313988E-3,5.3105023E-2,7.7422247E0,8.529231E0,-3.5942749E-3,4.9058413E-3,1.4131934E-3,2.8359244E-2,-1.8939408E-2,-5.1655665E-2,-2.9853793E-2,6.6841366E-3,9.130669E-3,-1.0234201E-2,-6.0235085E-3,4.954577E-4,2.694726E-4,-8.5279945E-4,-2.162397E-3,-2.8861692E-2,-4.71444E-3,4.677898E-3],"split_indices":[2,2,2,2,2,0,0,2,0,1,2,0,1,0,1,1,0,0,0,0,2,0,1,0,1,0,2,0,0,0,1,0,2,0,0,2,0,0,0,0,0,0,0,0,0,0,0,0,0,0,0,0,0,0,0,0,0,0,0,0,0,0,0,0,0,0,0],"split_type":[0,0,0,0,0,0,0,0,0,0,0,0,0,0,0,0,0,0,0,0,0,0,0,0,0,0,0,0,0,0,0,0,0,0,0,0,0,0,0,0,0,0,0,0,0,0,0,0,0,0,0,0,0,0,0,0,0,0,0,0,0,0,0,0,0,0,0],"sum_hessian":[2.14E2,1.8E2,3.4E1,1.57E2,2.3E1,1.3E1,2.1E1,1.53E2,4E0,7E0,1.6E1,8E0,5E0,4E0,1.7E1,1.51E2,2E0,3E0,1E0,1E0,6E0,2E0,1.4E1,3E0,5E0,1E0,4E0,3E0,1E0,2E0,1.5E1,1.38E2,1.3E1,4E0,2E0,1.3E1,1E0,1E0,2E0,4E0,1E0,2E0,2E0,2E0,1E0,1E0,1E0,5E0,1E1,9.9E1,3.9E1,7E0,6E0,2E0,2E0,1E0,1E0,3E0,1E1,3E0,1E0,1E0,1E0,1E0,4E0,9E0,1E0],"tree_param":{"num_deleted":"0","num_feature":"3","num_nodes":"67","size_leaf_vector":"1"}},{"base_weights":[4.392424E-3,-1.5693983E-3,3.311604E-2,2.2610999E-3,-2.9008003E-2,6.0604207E-2,1.161937E-2,-1.0685185E-3,1.0436113E-1,-6.51713E-2,-7.7870446E-3,3.7664182E-2,6.0705688E-2,8.2979634E-2,-8.8484455E-3,9.202294E-4,-3.0442674E-2,4.3574728E-2,8.605839E-3,2.6202716E-2,-9.9436454E-2,2.402418E-2,-2.7465187E-2,-3.856945E-3,4.219112E-2,6.2392354E-3,5.8491185E-2,1.0225773E-1,-2.9127825E-2,-2.4117858E-3,4.384986E-2,-1.129521E-1,-4.376489E-2,-1.7584851E-2,-2.1904387E-2,4.6687957E-2,-2.4401576E-3,-1.1018912E-3,4.2393925E-3,8.76689E-4,4.513929E-2,-7.0927575E-2,-9.283945E-3,1.5740588E-3,-6.0499525E-3,1.0387353E-3,2.7486678E-2,-1.5151518E-2,-4.1324534E-2,-2.5375718E-2,5.681518E-3,7.0762667E-3,-1.0178948E-2,7.942889E-3,1.9756654E-2,2.2906066E-4,-7.249117E-4,-1.8380285E-3,-2.5678826E-2,-6.142199E-3,4.901418E-4],"categories":[],"categories_nodes":[],"categories_segments":[],"categories_sizes":[],"default_left":[0,0,0,0,0,0,0,0,0,0,0,0,0,0,0,0,0,0,0,0,0,0,0,0,0,0,0,0,0,0,0,0,0,0,0,0,0,0,0,0,0,0,0,0,0,0,0,0,0,0,0,0,0,0,0,0,0,0,0,0,0],"id":16,"left_children":[1,3,5,7,9,11,13,15,17,19,21,23,-1,25,27,29,-1,-1,-1,-1,31,-1,33,-1,35,37,-1,39,41,43,45,47,49,51,-1,53,-1,55,-1,-1,-1,57,59,-1,-1,-1,-1,-1,-1,-1,-1,-1,-1,-1,-1,-1,-1,-1,-1,-1,-1],"loss_changes":[3.686967E-2,1.8879121E-2,2.1159265E-2,5.3824265E-2,1.6375745E-2,4.4405833E-2,3.2867193E-2,3.0844769E-2,1.1304349E-2,5.049225E-2,2.8135505E-2,3.9729886E-3,0E0,4.1754685E-2,4.35355E-2,2.1848168E-2,0E0,0E0,0E0,0E0,3.2372773E-4,0E0,4.5666173E-3,0E0,3.5479981E-3,2.4731795E-4,0E0,1.392616E-2,1.2613017E-2,1.9414566E-2,2.09062E-2,7.852912E-4,9.280719E-3,8.875865E-3,0E0,3.2926947E-3,0E0,9.201191E-6,0E0,0E0,0E0,4.2282306E-3,1.4994929E-3,0E0,0E0,0E0,0E0,0E0,0E0,0E0,0E0,0E0,0E0,0E0,0E0,0E0,0E0,0E0,0E0,0E0,0E0],"parents":[2147483647,0,0,1,1,2,2,3,3,4,4,5,5,6,6,7,7,8,8,9,9,10,10,11,11,13,13,14,14,15,15,20,20,22,22,24,24,25,25,27,27,28,28,29,29,30,30,31,31,32,32,33,33,35,35,37,37,41,41,42,42],"right_children":[2,4,6,8,10,12,14,16,18,20,22,24,-1,26,28,30,-1,-1,-1,-1,32,-1,34,-1,36,38,-1,40,42,44,46,48,50,52,-1,54,-1,56,-1,-1,-1,58,60,-1,-1,-1,-1,-1,-1,-1,-1,-1,-1,-1,-1,-1,-1,-1,-1,-1,-1],"split_conditions":[5.4675832E-2,4.4018265E-2,6.403134E-2,4.394828E-2,4.414566E-2,6.396303E-2,7.7323456E0,4.3875232E-2,4.3957435E-2,3.9478962E0,4.494634E-2,7.696039E0,6.0705688E-2,7.7321815E0,8.0414194E-1,3.7522273E0,-3.0442674E-2,4.3574728E-2,8.605839E-3,2.6202716E-2,4.4130262E-2,2.402418E-2,4.117323E0,-3.856945E-3,8.5051565E0,7.5092287E0,5.8491185E-2,7.7485723E0,1.6118231E0,3.547722E-2,3.9547294E-2,7.9474444E0,7.948044E0,4.9216997E-2,-2.1904387E-2,7.748582E0,-2.4401576E-3,7.4421554E0,4.2393925E-3,8.76689E-4,4.513929E-2,7.7422247E0,2.0918171E0,1.5740588E-3,-6.0499525E-3,1.0387353E-3,2.7486678E-2,-1.5151518E-2,-4.1324534E-2,-2.5375718E-2,5.681518E-3,7.0762667E-3,-1.0178948E-2,7.942889E-3,1.9756654E-2,2.2906066E-4,-7.249117E-4,-1.8380285E-3,-2.5678826E-2,-6.142199E-3,4.901418E-4],"split_indices":[2,2,2,2,2,2,0,2,2,1,2,0,0,0,1,1,0,0,0,0,2,0,1,0,0,0,0,0,1,2,2,0,0,2,0,0,0,0,0,0,0,0,1,0,0,0,0,0,0,0,0,0,0,0,0,0,0,0,0,0,0],"split_type":[0,0,0,0,0,0,0,0,0,0,0,0,0,0,0,0,0,0,0,0,0,0,0,0,0,0,0,0,0,0,0,0,0,0,0,0,0,0,0,0,0,0,0,0,0,0,0,0,0,0,0,0,0,0,0,0,0,0,0,0,0],"sum_hessian":[2.14E2,1.78E2,3.6E1,1.57E2,2.1E1,1.5E1,2.1E1,1.53E2,4E0,7E0,1.4E1,1.4E1,1E0,4E0,1.7E1,1.51E2,2E0,2E0,2E0,1E0,6E0,2E0,1.2E1,1E0,1.3E1,3E0,1E0,2E0,1.5E1,1.41E2,1E1,4E0,2E0,1.1E1,1E0,1.2E1,1E0,2E0,1E0,1E0,1E0,4E0,1.1E1,9.9E1,4.2E1,6E0,4E0,2E0,2E0,1E0,1E0,3E0,8E0,7E0,5E0,1E0,1E0,1E0,3E0,5E0,6E0],"tree_param":{"num_deleted":"0","num_feature":"3","num_nodes":"61","size_leaf_vector":"1"}},{"base_weights":[3.7818027E-3,1.8296655E-2,-5.8494215E-3,-1.3767707E-2,3.4013376E-2,-7.773024E-2,-2.352347E-3,2.4869994E-3,-4.6641253E-2,1.317414E-2,7.010279E-2,-2.8678184E-2,1.7382414E-3,3.0754413E-2,-4.890955E-3,-3.3714075E-3,1.2783432E-2,1.9312114E-2,-3.208963E-2,2.087659E-2,1.334181E-1,7.780374E-3,-2.2341816E-2,-1.6000317E-2,8.331751E-3,7.0567136E-3,-9.20558E-3,6.539649E-2,6.379209E-3,7.7675246E-2,-1.299784E-2,6.0767446E-2,-3.646493E-3,-1.4537083E-3,5.9119713E-2,-3.1680547E-2,-2.941956E-3,5.8373455E-3,-6.8594436E-3,4.171251E-3,-2.7915838E-3,-4.1702986E-4,-3.404212E-3,-3.856659E-5,3.9286103E-2,4.961944E-3,-1.4319534E-2,2.9432578E-2,-6.0871843E-4,3.5964992E-2,-1.33780185E-2,-1.5470446E-2,2.1017773E-2,1.9312821E-3,-7.242359E-2,4.639823E-2,1.1877671E-3,2.8268052E-3,-1.1186445E-2,2.2272313E-2,-3.5547758E-3],"categories":[],"categories_nodes":[],"categories_segments":[],"categories_sizes":[],"default_left":[0,0,0,0,0,0,0,0,0,0,0,0,0,0,0,0,0,0,0,0,0,0,0,0,0,0,0,0,0,0,0,0,0,0,0,0,0,0,0,0,0,0,0,0,0,0,0,0,0,0,0,0,0,0,0,0,0,0,0,0,0],"id":17,"left_children":[1,3,5,7,9,11,13,15,-1,17,19,-1,-1,-1,21,23,25,27,-1,29,31,33,35,37,39,-1,41,43,45,47,49,-1,51,53,55,57,59,-1,-1,-1,-1,-1,-1,-1,-1,-1,-1,-1,-1,-1,-1,-1,-1,-1,-1,-1,-1,-1,-1,-1,-1],"loss_changes":[3.0163124E-2,4.38077E-2,3.2495588E-2,6.718359E-2,4.2696856E-2,9.506211E-3,3.3778436E-2,1.6717569E-3,0E0,3.0087436E-2,6.26669E-2,0E0,0E0,0E0,2.7372276E-2,2.7936772E-3,2.577925E-3,2.1635E-2,0E0,2.6021898E-2,8.602849E-2,3.42191E-2,9.327643E-3,2.6355188E-3,1.112191E-3,0E0,5.1182607E-5,3.438193E-2,1.7283486E-2,8.342195E-3,4.3132078E-2,0E0,1.7741228E-2,1.1895645E-1,5.7358664E-2,8.418523E-3,1.3254554E-2,0E0,0E0,0E0,0E0,0E0,0E0,0E0,0E0,0E0,0E0,0E0,0E0,0E0,0E0,0E0,0E0,0E0,0E0,0E0,0E0,0E0,0E0,0E0,0E0],"parents":[2147483647,0,0,1,1,2,2,3,3,4,4,5,5,6,6,7,7,9,9,10,10,14,14,15,15,16,16,17,17,19,19,20,20,21,21,22,22,23,23,24,24,26,26,27,27,28,28,29,29,30,30,32,32,33,33,34,34,35,35,36,36],"right_children":[2,4,6,8,10,12,14,16,-1,18,20,-1,-1,-1,22,24,26,28,-1,30,32,34,36,38,40,-1,42,44,46,48,50,-1,52,54,56,58,60,-1,-1,-1,-1,-1,-1,-1,-1,-1,-1,-1,-1,-1,-1,-1,-1,-1,-1,-1,-1,-1,-1,-1,-1],"split_conditions":[7.94268E0,3.743958E-2,7.948044E0,3.6823038E-2,1.9702961E0,4.8460737E-2,7.966781E0,2.9582222E0,-4.6641253E-2,1.8724492E0,7.8417377E0,-2.8678184E-2,1.7382414E-3,3.0754413E-2,1.6747109E0,7.831252E0,3.9411478E0,7.735665E0,-3.208963E-2,4.0336706E-2,4.1396646E0,1.5362461E0,4.4035412E-2,7.518105E0,3.3212367E-2,7.0567136E-3,7.67532E0,7.7321815E0,6.921727E-2,7.8338113E0,2.0236013E0,6.0767446E-2,7.9383755E0,1.5169697E0,3.005182E-2,2.587587E-2,4.4117205E-2,5.8373455E-3,-6.8594436E-3,4.171251E-3,-2.7915838E-3,-4.1702986E-4,-3.404212E-3,-3.856659E-5,3.9286103E-2,4.961944E-3,-1.4319534E-2,2.9432578E-2,-6.0871843E-4,3.5964992E-2,-1.33780185E-2,-1.5470446E-2,2.1017773E-2,1.9312821E-3,-7.242359E-2,4.639823E-2,1.1877671E-3,2.8268052E-3,-1.1186445E-2,2.2272313E-2,-3.5547758E-3],"split_indices":[0,2,0,2,1,2,0,1,0,1,0,0,0,0,1,0,1,0,0,2,1,1,2,0,2,0,0,0,2,0,1,0,0,1,2,2,2,0,0,0,0,0,0,0,0,0,0,0,0,0,0,0,0,0,0,0,0,0,0,0,0],"split_type":[0,0,0,0,0,0,0,0,0,0,0,0,0,0,0,0,0,0,0,0,0,0,0,0,0,0,0,0,0,0,0,0,0,0,0,0,0,0,0,0,0,0,0,0,0,0,0,0,0,0,0,0,0,0,0,0,0,0,0,0,0],"sum_hessian":[2.14E2,8.5E1,1.29E2,2.8E1,5.7E1,5E0,1.24E2,2.6E1,2E0,3.7E1,2E1,4E0,1E0,2E0,1.22E2,1.7E1,9E0,3.6E1,1E0,1.2E1,8E0,7.1E1,5.1E1,8E0,9E0,6E0,3E0,7E0,2.9E1,4E0,8E0,5E0,3E0,6.1E1,1E1,3.4E1,1.7E1,1E0,7E0,7E0,2E0,1E0,2E0,4E0,3E0,2.5E1,4E0,3E0,1E0,1E0,7E0,2E0,1E0,6E1,1E0,3E0,7E0,4E0,3E1,1E0,1.6E1],"tree_param":{"num_deleted":"0","num_feature":"3","num_nodes":"61","size_leaf_vector":"1"}},{"base_weights":[2.943746E-3,-2.5690122E-2,6.1757118E-3,-5.458313E-3,-7.8731894E-2,8.807772E-2,1.2458327E-3,-1.3652375E-2,1.6937912E-2,-3.9821114E-2,-1.8545061E-2,2.1099381E-1,-4.951799E-2,-1.6399556E-1,6.7776903E-3,-2.1226406E-3,-2.674996E-2,6.2580765E-3,2.2108795E-3,-5.636662E-4,-7.0422473E-3,-3.4474015E-2,3.4234622E-1,1.0955488E-2,-1.01665705E-1,-1.54284695E-2,-2.5942016E-1,5.956623E-2,-9.988326E-4,4.3623745E-3,-4.3155374E-3,-8.71403E-3,-2.2898912E-3,-3.755808E-4,-1.5137726E-2,1.4376923E-1,1.3697445E-1,-3.733311E-2,-4.999763E-3,-9.254737E-2,-2.4191702E-2,1.08517736E-1,-4.578255E-2,6.1681764E-3,-2.2116538E-2,4.106203E-3,-7.2026254E-5,-2.5606103E-2,8.724461E-2,9.011786E-3,1.0093298E-1,2.7960332E-3,-2.4212452E-2,-2.1475998E-3,5.884906E-3,-1.7746277E-2,-4.1521923E-3],"categories":[],"categories_nodes":[],"categories_segments":[],"categories_sizes":[],"default_left":[0,0,0,0,0,0,0,0,0,0,0,0,0,0,0,0,0,0,0,0,0,0,0,0,0,0,0,0,0,0,0,0,0,0,0,0,0,0,0,0,0,0,0,0,0,0,0,0,0,0,0,0,0,0,0,0,0],"id":18,"left_children":[1,3,5,7,9,11,13,15,17,-1,19,21,23,25,27,29,31,-1,-1,-1,-1,33,35,-1,37,-1,39,41,43,45,-1,-1,-1,-1,-1,-1,47,-1,-1,-1,-1,49,51,53,55,-1,-1,-1,-1,-1,-1,-1,-1,-1,-1,-1,-1],"loss_changes":[2.0055545E-2,2.3179138E-2,7.8221075E-2,3.3510155E-3,1.7040778E-2,1.9648796E-1,1.6930443E-1,1.9063712E-3,3.391935E-5,0E0,2.8449146E-4,2.0525879E-1,3.0632231E-2,5.110863E-2,7.354102E-2,6.9893245E-4,4.1734427E-5,0E0,0E0,0E0,0E0,1.5300007E-3,4.6806484E-2,0E0,5.6705363E-3,0E0,1.4425367E-3,1.2357878E-1,2.3898495E-2,2.6079302E-4,0E0,0E0,0E0,0E0,0E0,0E0,1.2743163E-1,0E0,0E0,0E0,0E0,2.760893E-1,1.6148165E-2,2.1288589E-2,1.1442082E-2,0E0,0E0,0E0,0E0,0E0,0E0,0E0,0E0,0E0,0E0,0E0,0E0],"parents":[2147483647,0,0,1,1,2,2,3,3,4,4,5,5,6,6,7,7,8,8,10,10,11,11,12,12,13,13,14,14,15,15,16,16,21,21,22,22,24,24,26,26,27,27,28,28,29,29,36,36,41,41,42,42,43,43,44,44],"right_children":[2,4,6,8,10,12,14,16,18,-1,20,22,24,26,28,30,32,-1,-1,-1,-1,34,36,-1,38,-1,40,42,44,46,-1,-1,-1,-1,-1,-1,48,-1,-1,-1,-1,50,52,54,56,-1,-1,-1,-1,-1,-1,-1,-1,-1,-1,-1,-1],"split_conditions":[6.359079E-1,6.092001E-1,6.5899414E-1,5.8581835E-1,6.2128556E-1,3.5099328E-2,6.8333095E-1,3.4805495E-2,8.496973E0,-3.9821114E-2,7.732106E0,3.4869473E-2,8.42596E0,8.523168E0,8.13744E-1,5.8233887E-1,8.592097E0,6.2580765E-3,2.2108795E-3,-5.636662E-4,-7.0422473E-3,8.414971E0,8.5241785E0,1.0955488E-2,8.524926E0,-1.54284695E-2,8.5241785E0,8.462084E0,8.160435E0,7.8484254E0,-4.3155374E-3,-8.71403E-3,-2.2898912E-3,-3.755808E-4,-1.5137726E-2,1.4376923E-1,8.524691E0,-3.733311E-2,-4.999763E-3,-9.254737E-2,-2.4191702E-2,8.415855E0,3.484247E-2,3.743958E-2,1.5015044E0,4.106203E-3,-7.2026254E-5,-2.5606103E-2,8.724461E-2,9.011786E-3,1.0093298E-1,2.7960332E-3,-2.4212452E-2,-2.1475998E-3,5.884906E-3,-1.7746277E-2,-4.1521923E-3],"split_indices":[1,1,1,1,1,2,1,2,0,0,0,2,0,0,1,1,0,0,0,0,0,0,0,0,0,0,0,0,0,0,0,0,0,0,0,0,0,0,0,0,0,0,2,2,1,0,0,0,0,0,0,0,0,0,0,0,0],"split_type":[0,0,0,0,0,0,0,0,0,0,0,0,0,0,0,0,0,0,0,0,0,0,0,0,0,0,0,0,0,0,0,0,0,0,0,0,0,0,0,0,0,0,0,0,0,0,0,0,0,0,0,0,0,0,0,0,0],"sum_hessian":[2.14E2,2.1E1,1.93E2,1.6E1,5E0,1E1,1.83E2,1.2E1,4E0,2E0,3E0,5E0,5E0,5E0,1.78E2,7E0,5E0,2E0,2E0,1E0,2E0,2E0,3E0,2E0,3E0,3E0,2E0,2.2E1,1.56E2,5E0,2E0,4E0,1E0,1E0,1E0,1E0,2E0,2E0,1E0,1E0,1E0,1.5E1,7E0,1.17E2,3.9E1,1E0,4E0,1E0,1E0,1.2E1,3E0,3E0,4E0,5.9E1,5.8E1,6E0,3.3E1],"tree_param":{"num_deleted":"0","num_feature":"3","num_nodes":"57","size_leaf_vector":"1"}},{"base_weights":[2.2767785E-3,-1.4433825E-3,2.0212779E-2,-3.253551E-3,3.7655666E-2,4.5143187E-2,1.2890911E-2,-1.1715738E-3,-2.7121114E-2,7.415793E-2,-2.7591553E-2,-5.43108E-3,9.7075224E-2,2.9602002E-2,-2.3491472E-2,2.1485968E-3,-2.3454012E-2,-2.0562941E-2,-9.342432E-3,-3.3998967E-3,2.7264834E-3,1.0202217E-2,4.294181E-2,-1.5950134E-2,4.88862E-2,-4.617399E-2,-6.7412853E-4,6.517189E-5,6.1721515E-2,-4.715419E-2,-9.250319E-3,-5.5306256E-3,1.7687083E-3,-7.7928547E-3,6.6309217E-3,8.269111E-2,8.970514E-3,-1.3509035E-3,-1.6639795E-2,-2.2661807E-3,5.0587356E-3,8.5492287E-4,-1.260601E-2,2.4530627E-2,6.3301325E-3,1.8048728E-2,-2.132393E-2,1.6296078E-2,-6.9626668E-3,6.372142E-3,3.459402E-2,1.1681617E-4,6.9427793E-3],"categories":[],"categories_nodes":[],"categories_segments":[],"categories_sizes":[],"default_left":[0,0,0,0,0,0,0,0,0,0,0,0,0,0,0,0,0,0,0,0,0,0,0,0,0,0,0,0,0,0,0,0,0,0,0,0,0,0,0,0,0,0,0,0,0,0,0,0,0,0,0,0,0],"id":19,"left_children":[1,3,5,7,9,11,13,15,-1,-1,17,19,21,23,25,27,29,-1,31,-1,-1,-1,-1,33,35,37,39,41,43,45,47,-1,-1,-1,-1,49,51,-1,-1,-1,-1,-1,-1,-1,-1,-1,-1,-1,-1,-1,-1,-1,-1],"loss_changes":[1.4375009E-2,1.2791396E-2,6.171937E-3,3.1102562E-2,1.16194315E-1,2.153862E-2,1.8935075E-2,1.2553266E-2,0E0,0E0,4.5909532E-3,5.3145696E-4,6.7528673E-3,1.9226905E-2,5.1444205E-3,1.8365102E-2,6.9696708E-3,0E0,9.4005006E-4,0E0,0E0,0E0,0E0,3.2448159E-3,1.9498412E-2,1.6862685E-3,8.512676E-4,1.6994996E-2,2.3463443E-3,2.4817226E-2,1.4571028E-2,0E0,0E0,0E0,0E0,1.3587967E-2,9.638881E-4,0E0,0E0,0E0,0E0,0E0,0E0,0E0,0E0,0E0,0E0,0E0,0E0,0E0,0E0,0E0,0E0],"parents":[2147483647,0,0,1,1,2,2,3,3,4,4,5,5,6,6,7,7,10,10,11,11,12,12,13,13,14,14,15,15,16,16,18,18,23,23,24,24,25,25,26,26,27,27,28,28,29,29,30,30,35,35,36,36],"right_children":[2,4,6,8,10,12,14,16,-1,-1,18,20,22,24,26,28,30,-1,32,-1,-1,-1,-1,34,36,38,40,42,44,46,48,-1,-1,-1,-1,50,52,-1,-1,-1,-1,-1,-1,-1,-1,-1,-1,-1,-1,-1,-1,-1,-1],"split_conditions":[5.4675832E-2,8.5250025E0,7.735665E0,8.524393E0,8.527411E0,7.7321815E0,6.878371E-2,4.4018265E-2,-2.7121114E-2,7.415793E-2,8.5421715E0,7.696039E0,8.257859E-1,7.748582E0,7.1224295E-2,4.394828E-2,4.414566E-2,-2.0562941E-2,8.593412E0,-3.3998967E-3,2.7264834E-3,1.0202217E-2,4.294181E-2,8.356677E-1,1.9837815E0,7.7485723E0,8.522819E0,4.3074757E-2,4.3957435E-2,3.9478962E0,4.494634E-2,-5.5306256E-3,1.7687083E-3,-7.7928547E-3,6.6309217E-3,7.7497478E0,2.1013982E0,-1.3509035E-3,-1.6639795E-2,-2.2661807E-3,5.0587356E-3,8.5492287E-4,-1.260601E-2,2.4530627E-2,6.3301325E-3,1.8048728E-2,-2.132393E-2,1.6296078E-2,-6.9626668E-3,6.372142E-3,3.459402E-2,1.1681617E-4,6.9427793E-3],"split_indices":[2,0,0,0,0,0,2,2,0,0,0,0,1,0,2,2,2,0,0,0,0,0,0,1,1,0,0,2,2,1,2,0,0,0,0,0,1,0,0,0,0,0,0,0,0,0,0,0,0,0,0,0,0],"split_type":[0,0,0,0,0,0,0,0,0,0,0,0,0,0,0,0,0,0,0,0,0,0,0,0,0,0,0,0,0,0,0,0,0,0,0,0,0,0,0,0,0,0,0,0,0,0,0,0,0,0,0,0,0],"sum_hessian":[2.14E2,1.78E2,3.6E1,1.71E2,7E0,7E0,2.9E1,1.68E2,3E0,1E0,6E0,4E0,3E0,2E1,9E0,1.47E2,2.1E1,1E0,5E0,3E0,1E0,2E0,1E0,6E0,1.4E1,4E0,5E0,1.43E2,4E0,7E0,1.4E1,3E0,2E0,5E0,1E0,7E0,7E0,1E0,3E0,4E0,1E0,1.35E2,8E0,2E0,2E0,1E0,6E0,2E0,1.2E1,3E0,4E0,5E0,2E0],"tree_param":{"num_deleted":"0","num_feature":"3","num_nodes":"53","size_leaf_vector":"1"}},{"base_weights":[2.2077516E-3,-1.9519472E-2,4.6602837E-3,-3.2276686E-3,-6.242634E-2,7.6834224E-2,3.2020942E-4,-9.630175E-3,1.4064384E-2,-3.2027878E-2,-1.3569817E-2,1.7574047E-1,-3.4877717E-2,-1.3396762E-1,4.8196884E-3,-3.0040012E-3,-1.9631255E-2,5.6172255E-3,1.4149665E-3,-7.142961E-4,-7.0704464E-3,-2.0547548E-2,2.7902135E-1,8.593393E-3,-7.380006E-2,-1.2149424E-2,-2.139378E-1,4.2274743E-2,-6.980562E-4,-3.5371901E-3,1.1908412E-3,-6.803312E-3,-1.1168183E-3,-4.474819E-4,-8.798916E-3,1.22075595E-1,1.0074937E-1,-2.7239883E-2,-3.42021E-3,-7.87935E-2,-1.7478509E-2,7.850641E-2,-3.5472944E-2,-1.4550286E-2,5.352899E-3,3.3620328E-3,-7.038832E-4,-1.769702E-2,6.303424E-2,4.9775485E-3,7.803067E-2,-2.601025E-2,-1.1840523E-3,-2.3282388E-5,-4.169994E-2,1.9653913E-2,7.393973E-4],"categories":[],"categories_nodes":[],"categories_segments":[],"categories_sizes":[],"default_left":[0,0,0,0,0,0,0,0,0,0,0,0,0,0,0,0,0,0,0,0,0,0,0,0,0,0,0,0,0,0,0,0,0,0,0,0,0,0,0,0,0,0,0,0,0,0,0,0,0,0,0,0,0,0,0,0,0],"id":20,"left_children":[1,3,5,7,9,11,13,15,17,-1,19,21,23,25,27,29,31,-1,-1,-1,-1,33,35,-1,37,-1,39,41,43,-1,45,-1,-1,-1,-1,-1,47,-1,-1,-1,-1,49,51,53,55,-1,-1,-1,-1,-1,-1,-1,-1,-1,-1,-1,-1],"loss_changes":[1.1547609E-2,1.5177174E-2,6.0744002E-2,2.0175548E-3,1.1547102E-2,1.2766853E-1,1.11823134E-1,8.0252334E-4,1.2947712E-4,0E0,3.9136328E-4,1.2736998E-1,1.694861E-2,3.6184587E-2,3.7022978E-2,3.4576756E-4,1.5789969E-4,0E0,0E0,0E0,0E0,4.5830908E-4,5.020523E-2,0E0,3.207866E-3,0E0,7.4454993E-3,6.757422E-2,1.3237504E-2,0E0,2.7428707E-4,0E0,0E0,0E0,0E0,0E0,6.480423E-2,0E0,0E0,0E0,0E0,1.755793E-1,1.2577931E-2,8.6442865E-2,1.8951805E-2,0E0,0E0,0E0,0E0,0E0,0E0,0E0,0E0,0E0,0E0,0E0,0E0],"parents":[2147483647,0,0,1,1,2,2,3,3,4,4,5,5,6,6,7,7,8,8,10,10,11,11,12,12,13,13,14,14,15,15,16,16,21,21,22,22,24,24,26,26,27,27,28,28,30,30,36,36,41,41,42,42,43,43,44,44],"right_children":[2,4,6,8,10,12,14,16,18,-1,20,22,24,26,28,30,32,-1,-1,-1,-1,34,36,-1,38,-1,40,42,44,-1,46,-1,-1,-1,-1,-1,48,-1,-1,-1,-1,50,52,54,56,-1,-1,-1,-1,-1,-1,-1,-1,-1,-1,-1,-1],"split_conditions":[6.359079E-1,6.092001E-1,6.5899414E-1,5.8581835E-1,6.2128556E-1,3.5099328E-2,6.8333095E-1,7.8575883E0,8.496973E0,-3.2027878E-2,7.852473E0,3.4869473E-2,8.42596E0,8.523168E0,8.13744E-1,7.831252E0,8.592097E0,5.6172255E-3,1.4149665E-3,-7.142961E-4,-7.0704464E-3,8.414971E0,8.5241785E0,8.593393E-3,8.524926E0,-1.2149424E-2,8.5241785E0,8.462084E0,1.5396309E0,-3.5371901E-3,7.8484254E0,-6.803312E-3,-1.1168183E-3,-4.474819E-4,-8.798916E-3,1.22075595E-1,8.524691E0,-2.7239883E-2,-3.42021E-3,-7.87935E-2,-1.7478509E-2,8.415855E0,8.5180235E0,1.5169697E0,1.6177429E0,3.3620328E-3,-7.038832E-4,-1.769702E-2,6.303424E-2,4.9775485E-3,7.803067E-2,-2.601025E-2,-1.1840523E-3,-2.3282388E-5,-4.169994E-2,1.9653913E-2,7.393973E-4],"split_indices":[1,1,1,1,1,2,1,0,0,0,0,2,0,0,1,0,0,0,0,0,0,0,0,0,0,0,0,0,1,0,0,0,0,0,0,0,0,0,0,0,0,0,0,1,1,0,0,0,0,0,0,0,0,0,0,0,0],"split_type":[0,0,0,0,0,0,0,0,0,0,0,0,0,0,0,0,0,0,0,0,0,0,0,0,0,0,0,0,0,0,0,0,0,0,0,0,0,0,0,0,0,0,0,0,0,0,0,0,0,0,0,0,0,0,0,0,0],"sum_hessian":[2.14E2,2.1E1,1.93E2,1.6E1,5E0,1E1,1.83E2,1.2E1,4E0,2E0,3E0,5E0,5E0,5E0,1.78E2,8E0,4E0,2E0,2E0,2E0,1E0,2E0,3E0,2E0,3E0,3E0,2E0,2.2E1,1.56E2,2E0,6E0,3E0,1E0,1E0,1E0,1E0,2E0,2E0,1E0,1E0,1E0,1.5E1,7E0,4.7E1,1.09E2,1E0,5E0,1E0,1E0,1.2E1,3E0,2E0,5E0,4.3E1,4E0,4E0,1.05E2],"tree_param":{"num_deleted":"0","num_feature":"3","num_nodes":"57","size_leaf_vector":"1"}},{"base_weights":[1.6411709E-3,-1.4930683E-2,3.9998954E-3,9.8863505E-3,-4.6775836E-2,4.092169E-2,5.8179954E-4,2.7562305E-2,-1.0353964E-2,-1.6647393E-2,-1.3161205E-1,2.2282103E-2,4.807733E-2,-4.949395E-2,2.664826E-3,-2.0561814E-3,4.262857E-2,-7.264974E-3,7.7212933E-3,-5.511118E-2,-4.1142404E-3,-5.8256485E-3,3.6918543E-2,-6.781698E-4,-5.698942E-2,-2.7525553E-3,1.1971197E-2,1.9356012E-2,-6.834895E-3,1.3757582E-2,3.002751E-3,9.157971E-3,-7.1585774E-3,4.401877E-2,-4.047525E-3,-3.7343146E-3,-1.9022467E-2,4.7986725E-4,-8.61074E-2,3.5363454E-2,-5.905529E-3,3.6138296E-4,8.348823E-3,-1.4853716E-3,4.653436E-3,8.402566E-3,2.0010907E-2,2.0403008E-3,-5.076118E-3,-3.2554496E-2,-2.8326989E-3,2.271559E-3,4.6839625E-2,-8.646316E-3,8.4012747E-4],"categories":[],"categories_nodes":[],"categories_segments":[],"categories_sizes":[],"default_left":[0,0,0,0,0,0,0,0,0,0,0,0,0,0,0,0,0,0,0,0,0,0,0,0,0,0,0,0,0,0,0,0,0,0,0,0,0,0,0,0,0,0,0,0,0,0,0,0,0,0,0,0,0,0,0],"id":21,"left_children":[1,3,5,7,9,11,13,15,-1,17,19,21,-1,23,25,27,29,-1,-1,-1,-1,31,33,-1,35,37,39,41,-1,-1,-1,43,-1,45,-1,-1,-1,47,49,51,53,-1,-1,-1,-1,-1,-1,-1,-1,-1,-1,-1,-1,-1,-1],"loss_changes":[8.463735E-3,2.1800606E-2,2.3828413E-2,1.3508138E-2,2.8480794E-2,3.201912E-2,1.8281681E-2,5.442532E-3,0E0,3.8314802E-3,1.5905235E-2,6.386036E-3,0E0,2.349425E-3,8.502867E-3,2.660019E-3,3.8388744E-4,0E0,0E0,0E0,0E0,1.840019E-3,4.1731345E-3,0E0,9.2613883E-4,2.8871195E-2,2.6135806E-2,4.2788847E-4,0E0,0E0,0E0,4.3537136E-4,0E0,1.4003627E-3,0E0,0E0,0E0,1.1553972E-2,5.8468822E-3,8.94393E-2,7.262765E-3,0E0,0E0,0E0,0E0,0E0,0E0,0E0,0E0,0E0,0E0,0E0,0E0,0E0,0E0],"parents":[2147483647,0,0,1,1,2,2,3,3,4,4,5,5,6,6,7,7,9,9,10,10,11,11,13,13,14,14,15,15,16,16,21,21,22,22,24,24,25,25,26,26,27,27,31,31,33,33,37,37,38,38,39,39,40,40],"right_children":[2,4,6,8,10,12,14,16,-1,18,20,22,-1,24,26,28,30,-1,-1,-1,-1,32,34,-1,36,38,40,42,-1,-1,-1,44,-1,46,-1,-1,-1,48,50,52,54,-1,-1,-1,-1,-1,-1,-1,-1,-1,-1,-1,-1,-1,-1],"split_conditions":[2.7279753E-2,2.7019532E-2,2.8648699E-2,3.3004751E0,7.995463E0,2.8640475E-2,2.9574057E-2,7.985508E0,-1.0353964E-2,7.9937687E0,7.9960113E0,7.9908776E0,4.807733E-2,7.6400805E0,1.9702961E0,2.6312305E-2,8.016763E0,-7.264974E-3,7.7212933E-3,-5.511118E-2,-4.1142404E-3,2.801647E-2,8.018966E0,-6.781698E-4,2.8664002E-2,1.9516742E0,7.927101E0,7.561086E0,-6.834895E-3,1.3757582E-2,3.002751E-3,7.554536E0,-7.1585774E-3,2.8044347E-2,-4.047525E-3,-3.7343146E-3,-1.9022467E-2,9.568027E-1,8.487554E0,7.8417377E0,7.948044E0,3.6138296E-4,8.348823E-3,-1.4853716E-3,4.653436E-3,8.402566E-3,2.0010907E-2,2.0403008E-3,-5.076118E-3,-3.2554496E-2,-2.8326989E-3,2.271559E-3,4.6839625E-2,-8.646316E-3,8.4012747E-4],"split_indices":[2,2,2,1,0,2,2,0,0,0,0,0,0,0,1,2,0,0,0,0,0,2,0,0,2,1,0,0,0,0,0,0,0,2,0,0,0,1,0,0,0,0,0,0,0,0,0,0,0,0,0,0,0,0,0],"split_type":[0,0,0,0,0,0,0,0,0,0,0,0,0,0,0,0,0,0,0,0,0,0,0,0,0,0,0,0,0,0,0,0,0,0,0,0,0,0,0,0,0,0,0,0,0,0,0,0,0,0,0,0,0,0,0],"sum_hessian":[2.14E2,2.6E1,1.88E2,1.5E1,1.1E1,1.5E1,1.73E2,1.1E1,4E0,9E0,2E0,1.4E1,1E0,6E0,1.67E2,4E0,7E0,8E0,1E0,1E0,1E0,5E0,9E0,1E0,5E0,1.06E2,6.1E1,2E0,2E0,6E0,1E0,3E0,2E0,8E0,1E0,1E0,4E0,1.03E2,3E0,2.6E1,3.5E1,1E0,1E0,1E0,2E0,6E0,2E0,7.6E1,2.7E1,2E0,1E0,2.2E1,4E0,9E0,2.6E1],"tree_param":{"num_deleted":"0","num_feature":"3","num_nodes":"55","size_leaf_vector":"1"}},{"base_weights":[1.1367695E-3,-1.7501187E-2,3.2444925E-3,-4.283607E-3,-5.203413E-2,6.4301826E-2,-4.2330733E-4,-9.301355E-3,9.61926E-3,-2.6030364E-2,-1.297529E-2,1.4767914E-1,-2.9792449E-2,-1.13547884E-1,3.3709428E-3,-2.830118E-3,-1.6379446E-2,4.0857196E-3,7.2391034E-4,-9.79501E-4,-6.315923E-3,-1.882557E-2,2.3563787E-1,6.4666513E-3,-6.08553E-2,-9.874892E-3,-1.8320735E-1,3.0067373E-2,-5.6147046E-4,1.2222131E-3,-2.9974224E-3,-5.3944695E-3,-1.2553275E-3,-6.863952E-4,-7.785112E-3,1.034582E-1,8.427671E-2,-2.2199977E-2,-3.213215E-3,-6.728053E-2,-1.5162778E-2,5.8229644E-2,-3.0015588E-2,-1.17058335E-2,4.755576E-3,2.5516748E-3,-5.806732E-4,-1.5348513E-2,5.3273037E-2,3.0341165E-3,6.00147E-2,3.6438794E-3,-1.7322587E-2,-3.9349796E-4,-2.0223169E-2,4.0865727E-2,6.6908065E-4],"categories":[],"categories_nodes":[],"categories_segments":[],"categories_sizes":[],"default_left":[0,0,0,0,0,0,0,0,0,0,0,0,0,0,0,0,0,0,0,0,0,0,0,0,0,0,0,0,0,0,0,0,0,0,0,0,0,0,0,0,0,0,0,0,0,0,0,0,0,0,0,0,0,0,0,0,0],"id":22,"left_children":[1,3,5,7,9,11,13,15,17,-1,19,21,23,25,27,29,31,-1,-1,-1,-1,33,35,-1,37,-1,39,41,43,45,-1,-1,-1,-1,-1,-1,47,-1,-1,-1,-1,49,51,53,55,-1,-1,-1,-1,-1,-1,-1,-1,-1,-1,-1,-1],"loss_changes":[8.5027665E-3,9.818828E-3,4.3472763E-2,1.2754106E-3,7.014118E-3,9.069832E-2,7.9359785E-2,5.4909626E-4,1.1125422E-4,0E0,2.450121E-4,9.230928E-2,1.08818505E-2,2.767001E-2,1.8808551E-2,2.4437095E-4,4.198472E-5,0E0,0E0,0E0,0E0,2.94107E-4,3.706464E-2,0E0,1.8439349E-3,0E0,5.006969E-3,4.0665466E-2,9.358718E-3,1.5445935E-4,0E0,0E0,0E0,0E0,0E0,0E0,4.6994373E-2,0E0,0E0,0E0,0E0,1.0715705E-1,1.0053308E-2,2.9440816E-2,3.5218675E-2,0E0,0E0,0E0,0E0,0E0,0E0,0E0,0E0,0E0,0E0,0E0,0E0],"parents":[2147483647,0,0,1,1,2,2,3,3,4,4,5,5,6,6,7,7,8,8,10,10,11,11,12,12,13,13,14,14,15,15,16,16,21,21,22,22,24,24,26,26,27,27,28,28,29,29,36,36,41,41,42,42,43,43,44,44],"right_children":[2,4,6,8,10,12,14,16,18,-1,20,22,24,26,28,30,32,-1,-1,-1,-1,34,36,-1,38,-1,40,42,44,46,-1,-1,-1,-1,-1,-1,48,-1,-1,-1,-1,50,52,54,56,-1,-1,-1,-1,-1,-1,-1,-1,-1,-1,-1,-1],"split_conditions":[6.359079E-1,6.092001E-1,6.5899414E-1,5.8581835E-1,6.2128556E-1,3.5099328E-2,6.8333095E-1,3.4805495E-2,8.496973E0,-2.6030364E-2,7.852473E0,3.4869473E-2,8.42596E0,8.523168E0,8.13744E-1,5.8233887E-1,8.592097E0,4.0857196E-3,7.2391034E-4,-9.79501E-4,-6.315923E-3,8.414971E0,8.5241785E0,6.4666513E-3,8.524926E0,-9.874892E-3,8.5241785E0,8.462084E0,1.6118231E0,7.8484254E0,-2.9974224E-3,-5.3944695E-3,-1.2553275E-3,-6.863952E-4,-7.785112E-3,1.034582E-1,8.524691E0,-2.2199977E-2,-3.213215E-3,-6.728053E-2,-1.5162778E-2,8.415855E0,3.484247E-2,1.5169697E0,1.6177429E0,2.5516748E-3,-5.806732E-4,-1.5348513E-2,5.3273037E-2,3.0341165E-3,6.00147E-2,3.6438794E-3,-1.7322587E-2,-3.9349796E-4,-2.0223169E-2,4.0865727E-2,6.6908065E-4],"split_indices":[1,1,1,1,1,2,1,2,0,0,0,2,0,0,1,1,0,0,0,0,0,0,0,0,0,0,0,0,1,0,0,0,0,0,0,0,0,0,0,0,0,0,2,1,1,0,0,0,0,0,0,0,0,0,0,0,0],"split_type":[0,0,0,0,0,0,0,0,0,0,0,0,0,0,0,0,0,0,0,0,0,0,0,0,0,0,0,0,0,0,0,0,0,0,0,0,0,0,0,0,0,0,0,0,0,0,0,0,0,0,0,0,0,0,0,0,0],"sum_hessian":[2.14E2,2.1E1,1.93E2,1.6E1,5E0,1E1,1.83E2,1.2E1,4E0,2E0,3E0,5E0,5E0,5E0,1.78E2,7E0,5E0,2E0,2E0,2E0,1E0,2E0,3E0,2E0,3E0,3E0,2E0,2.2E1,1.56E2,5E0,2E0,4E0,1E0,1E0,1E0,1E0,2E0,2E0,1E0,1E0,1E0,1.5E1,7E0,5E1,1.06E2,1E0,4E0,1E0,1E0,1.2E1,3E0,3E0,4E0,4.3E1,7E0,1E0,1.05E2],"tree_param":{"num_deleted":"0","num_feature":"3","num_nodes":"57","size_leaf_vector":"1"}},{"base_weights":[1.0549978E-3,-1.3724222E-3,1.2769949E-2,-2.2777455E-4,-4.1160606E-2,3.5684735E-2,6.2336745E-3,-1.38959475E-2,1.7263007E-3,-1.3619588E-2,-3.631282E-3,-6.921053E-3,8.0020785E-2,1.7650746E-2,-1.8365543E-2,-3.1671664E-3,-4.197817E-2,5.5371698E-2,-2.3835998E-3,-3.6323727E-3,2.0739557E-3,7.83701E-3,3.6256958E-2,7.9666125E-3,7.310001E-2,-4.1871265E-2,-2.3100546E-3,-7.1014394E-3,7.695377E-3,-2.0824278E-2,-1.0906562E-2,1.2552726E-1,-2.4012486E-2,-9.486989E-2,1.6257626E-3,-1.4993715E-2,1.7723694E-2,2.9575396E-2,3.3196092E-3,-2.6561022E-3,-1.4977772E-2,-7.0979893E-3,3.962633E-3,-7.5232197E-4,-4.1849436E-3,3.26857E-3,5.791187E-4,-7.836044E-4,-5.3685308E-3,-4.8005222E-3,6.0087662E-2,5.173326E-3,-1.4685613E-2,-7.6530487E-3,-4.6717875E-2,7.773318E-3,-4.5628054E-4,-3.816809E-3,1.0646228E-2,-5.9741735E-4,-2.7460323E-3],"categories":[],"categories_nodes":[],"categories_segments":[],"categories_sizes":[],"default_left":[0,0,0,0,0,0,0,0,0,0,0,0,0,0,0,0,0,0,0,0,0,0,0,0,0,0,0,0,0,0,0,0,0,0,0,0,0,0,0,0,0,0,0,0,0,0,0,0,0,0,0,0,0,0,0,0,0,0,0,0,0],"id":23,"left_children":[1,3,5,7,9,11,13,15,17,-1,-1,19,21,23,25,27,29,31,33,-1,-1,-1,-1,35,37,39,41,43,45,-1,47,49,51,53,55,-1,57,-1,-1,-1,-1,59,-1,-1,-1,-1,-1,-1,-1,-1,-1,-1,-1,-1,-1,-1,-1,-1,-1,-1,-1],"loss_changes":[6.1315037E-3,8.1429025E-3,5.319314E-3,4.6980004E-3,6.6189095E-5,1.5665606E-2,8.749697E-3,6.495385E-3,3.408548E-2,0E0,0E0,4.4248518E-4,5.6465827E-3,1.069418E-2,3.6772331E-3,7.8116386E-4,4.3578297E-3,6.427589E-2,5.3551026E-2,0E0,0E0,0E0,0E0,1.1628043E-2,3.6519151E-3,6.217519E-4,6.1387784E-4,3.7398923E-4,7.120342E-5,0E0,1.8512484E-4,6.669347E-2,7.0177233E-3,2.1353275E-2,1.0661578E-2,0E0,9.645801E-3,0E0,0E0,0E0,0E0,4.4750108E-5,0E0,0E0,0E0,0E0,0E0,0E0,0E0,0E0,0E0,0E0,0E0,0E0,0E0,0E0,0E0,0E0,0E0,0E0,0E0],"parents":[2147483647,0,0,1,1,2,2,3,3,4,4,5,5,6,6,7,7,8,8,11,11,12,12,13,13,14,14,15,15,16,16,17,17,18,18,23,23,24,24,25,25,26,26,27,27,28,28,30,30,31,31,32,32,33,33,34,34,36,36,41,41],"right_children":[2,4,6,8,10,12,14,16,18,-1,-1,20,22,24,26,28,30,32,34,-1,-1,-1,-1,36,38,40,42,44,46,-1,48,50,52,54,56,-1,58,-1,-1,-1,-1,60,-1,-1,-1,-1,-1,-1,-1,-1,-1,-1,-1,-1,-1,-1,-1,-1,-1,-1,-1],"split_conditions":[5.4675832E-2,5.0340336E-2,7.735665E0,6.359079E-1,5.4056954E-2,7.7321815E0,6.878371E-2,6.092001E-1,6.5899414E-1,-1.3619588E-2,-3.631282E-3,7.696039E0,8.257859E-1,6.808466E-2,1.6118231E0,5.8581835E-1,6.2128556E-1,3.5099328E-2,6.8333095E-1,-3.6323727E-3,2.0739557E-3,7.83701E-3,3.6256958E-2,8.121886E-1,7.750675E0,7.7485723E0,8.529231E0,7.8575883E0,8.496973E0,-2.0824278E-2,7.852473E0,3.4869473E-2,8.42596E0,8.523168E0,8.12283E-1,-1.4993715E-2,7.748582E0,2.9575396E-2,3.3196092E-3,-2.6561022E-3,-1.4977772E-2,7.8750157E0,3.962633E-3,-7.5232197E-4,-4.1849436E-3,3.26857E-3,5.791187E-4,-7.836044E-4,-5.3685308E-3,-4.8005222E-3,6.0087662E-2,5.173326E-3,-1.4685613E-2,-7.6530487E-3,-4.6717875E-2,7.773318E-3,-4.5628054E-4,-3.816809E-3,1.0646228E-2,-5.9741735E-4,-2.7460323E-3],"split_indices":[2,2,0,1,2,0,2,1,1,0,0,0,1,2,1,1,1,2,1,0,0,0,0,1,0,0,0,0,0,0,0,2,0,0,1,0,0,0,0,0,0,0,0,0,0,0,0,0,0,0,0,0,0,0,0,0,0,0,0,0,0],"split_type":[0,0,0,0,0,0,0,0,0,0,0,0,0,0,0,0,0,0,0,0,0,0,0,0,0,0,0,0,0,0,0,0,0,0,0,0,0,0,0,0,0,0,0,0,0,0,0,0,0,0,0,0,0,0,0,0,0,0,0,0,0],"sum_hessian":[2.14E2,1.78E2,3.6E1,1.74E2,4E0,7E0,2.9E1,2.1E1,1.53E2,3E0,1E0,4E0,3E0,2E1,9E0,1.6E1,5E0,1E1,1.43E2,3E0,1E0,2E0,1E0,1.8E1,2E0,3E0,6E0,1.2E1,4E0,2E0,3E0,5E0,5E0,5E0,1.38E2,2E0,1.6E1,1E0,1E0,1E0,2E0,5E0,1E0,8E0,4E0,2E0,2E0,2E0,1E0,2E0,3E0,2E0,3E0,3E0,2E0,1.5E1,1.23E2,6E0,1E1,2E0,3E0],"tree_param":{"num_deleted":"0","num_feature":"3","num_nodes":"61","size_leaf_vector":"1"}},{"base_weights":[7.555177E-4,7.028859E-3,-3.4003505E-3,-3.2153006E-3,2.2790965E-2,-1.944769E-2,-1.9341302E-3,-9.234683E-3,2.7238866E-2,3.7769582E-2,1.24124065E-2,1.4436401E-2,-4.7441847E-3,-6.1827954E-3,-2.1527661E-2,6.1105013E-2,-1.2075054E-2,-7.667867E-2,2.0907767E-2,8.450608E-2,-9.882585E-3,-7.547077E-2,-6.5748295E-4,-1.2949422E-3,-3.1833597E-2,-2.2577047E-3,2.4043234E-2,-1.0102272E-2,1.7433017E-3,-2.864671E-2,-5.8586956E-3,8.936846E-2,9.9910805E-3,-2.5911272E-2,7.8926325E-2,-4.17392E-2,3.2487717E-2,-1.9770414E-2,-1.2458098E-1,5.0068963E-3,-1.7206686E-2,-1.6196654E-3,5.2952785E-3,-1.851654E-2,1.8039019E-3,1.7628908E-3,-4.7793987E-4,3.4417391E-3,3.3452895E-2,1.4480539E-3,1.4908804E-2,1.3664961E-4,-1.0455608E-2,-2.4841584E-2,-5.453013E-3,3.626894E-2,-7.189453E-4,-6.9132806E-3,-1.4923275E-3,-5.018077E-2,-5.880672E-3,2.5612207E-2,-4.731052E-4,-1.12261735E-2,4.377401E-4],"categories":[],"categories_nodes":[],"categories_segments":[],"categories_sizes":[],"default_left":[0,0,0,0,0,0,0,0,0,0,0,0,0,0,0,0,0,0,0,0,0,0,0,0,0,0,0,0,0,0,0,0,0,0,0,0,0,0,0,0,0,0,0,0,0,0,0,0,0,0,0,0,0,0,0,0,0,0,0,0,0,0,0,0,0],"id":24,"left_children":[1,3,5,7,9,-1,11,13,15,-1,17,19,21,23,-1,25,27,29,31,33,35,37,39,41,43,-1,-1,-1,45,-1,-1,47,49,51,-1,53,55,57,59,61,63,-1,-1,-1,-1,-1,-1,-1,-1,-1,-1,-1,-1,-1,-1,-1,-1,-1,-1,-1,-1,-1,-1,-1,-1],"loss_changes":[5.629204E-3,1.3959659E-2,1.15828095E-2,9.967252E-3,3.4820992E-2,0E0,5.956756E-3,8.143084E-3,1.2720547E-2,0E0,2.5822727E-2,3.321159E-2,3.1744607E-2,5.4753805E-3,0E0,7.1364697E-3,1.5510307E-3,1.3602134E-3,2.1528032E-2,1.0540952E-1,2.1602627E-2,1.3949718E-2,9.928954E-3,3.0498998E-3,8.289303E-3,0E0,0E0,0E0,6.4519685E-5,0E0,0E0,5.6195445E-3,5.296354E-3,9.5883035E-4,0E0,7.203445E-3,2.1878205E-2,7.912773E-5,1.0165226E-2,4.1935917E-2,1.02419425E-2,0E0,0E0,0E0,0E0,0E0,0E0,0E0,0E0,0E0,0E0,0E0,0E0,0E0,0E0,0E0,0E0,0E0,0E0,0E0,0E0,0E0,0E0,0E0,0E0],"parents":[2147483647,0,0,1,1,2,2,3,3,4,4,6,6,7,7,8,8,10,10,11,11,12,12,13,13,15,15,16,16,17,17,18,18,19,19,20,20,21,21,22,22,23,23,24,24,28,28,31,31,32,32,33,33,35,35,36,36,37,37,38,38,39,39,40,40],"right_children":[2,4,6,8,10,-1,12,14,16,-1,18,20,22,24,-1,26,28,30,32,34,36,38,40,42,44,-1,-1,-1,46,-1,-1,48,50,52,-1,54,56,58,60,62,64,-1,-1,-1,-1,-1,-1,-1,-1,-1,-1,-1,-1,-1,-1,-1,-1,-1,-1,-1,-1,-1,-1,-1,-1],"split_conditions":[7.94268E0,1.9702961E0,7.944318E0,6.808466E-2,2.0236013E0,-1.944769E-2,6.5899414E-1,1.8724492E0,8.993507E-1,3.7769582E-2,2.0240002E0,3.49097E-2,6.8333095E-1,7.8747926E0,-2.1527661E-2,8.0181414E-1,6.977237E-2,7.814498E0,2.1799908E0,3.4869473E-2,8.524926E0,8.523168E0,8.462084E0,8.448568E-1,3.743958E-2,-2.2577047E-3,2.4043234E-2,-1.0102272E-2,7.7321815E0,-2.864671E-2,-5.8586956E-3,7.8325706E0,7.9383755E0,8.414971E0,7.8926325E-2,3.5095163E-2,8.527411E0,8.416743E0,8.5241785E0,8.12283E-1,2.0160828E0,-1.6196654E-3,5.2952785E-3,-1.851654E-2,1.8039019E-3,1.7628908E-3,-4.7793987E-4,3.4417391E-3,3.3452895E-2,1.4480539E-3,1.4908804E-2,1.3664961E-4,-1.0455608E-2,-2.4841584E-2,-5.453013E-3,3.626894E-2,-7.189453E-4,-6.9132806E-3,-1.4923275E-3,-5.018077E-2,-5.880672E-3,2.5612207E-2,-4.731052E-4,-1.12261735E-2,4.377401E-4],"split_indices":[0,1,0,2,1,0,1,1,1,0,1,2,1,0,0,1,2,0,1,2,0,0,0,1,2,0,0,0,0,0,0,0,0,0,0,2,0,0,0,1,1,0,0,0,0,0,0,0,0,0,0,0,0,0,0,0,0,0,0,0,0,0,0,0,0],"split_type":[0,0,0,0,0,0,0,0,0,0,0,0,0,0,0,0,0,0,0,0,0,0,0,0,0,0,0,0,0,0,0,0,0,0,0,0,0,0,0,0,0,0,0,0,0,0,0,0,0,0,0,0,0,0,0,0,0,0,0,0,0,0,0,0,0],"sum_hessian":[2.14E2,8.5E1,1.29E2,5.2E1,3.3E1,2E0,1.27E2,4.4E1,8E0,2E0,3.1E1,1.8E1,1.09E2,4.3E1,1E0,4E0,4E0,2E0,2.9E1,4E0,1.4E1,5E0,1.04E2,3.7E1,6E0,1E0,3E0,1E0,3E0,1E0,1E0,3E0,2.6E1,3E0,1E0,8E0,6E0,3E0,2E0,7.8E1,2.6E1,3.1E1,6E0,3E0,3E0,1E0,2E0,1E0,2E0,2.4E1,2E0,1E0,2E0,2E0,6E0,1E0,5E0,2E0,1E0,1E0,1E0,5E0,7.3E1,1.2E1,1.4E1],"tree_param":{"num_deleted":"0","num_feature":"3","num_nodes":"65","size_leaf_vector":"1"}},{"base_weights":[7.112625E-4,-1.107768E-2,2.3916338E-3,1.8527565E-3,-4.8286464E-2,3.2119256E-2,-3.5568557E-4,1.419675E-2,-2.4863336E-2,-4.7614696E-3,-1.0473263E-1,1.8760415E-2,3.487528E-2,-3.7589584E-2,1.197844E-3,2.1224335E-2,-1.0435194E-2,-8.065508E-3,-1.9099832E-3,-5.1663145E-3,6.761527E-3,-4.367163E-2,-3.458056E-3,-4.989445E-3,3.1134289E-2,-8.25584E-4,-4.29372E-2,2.7137473E-3,-1.2426577E-2,-1.7971515E-3,3.2959722E-2,2.1236737E-3,-7.2167697E-3,6.437242E-3,-5.568564E-3,1.6230345E-2,1.8150015E-2,-2.97575E-3,-1.4267093E-2,3.4025437E-4,4.0388107E-2,-2.2935867E-4,-3.4749914E-2,-4.2417035E-3,7.1355435E-3,1.0514543E-2,2.7507665E-3,1.2485147E-3,-2.9286148E-4,-1.5116931E-3,3.5826925E-3,9.967947E-3,-1.8379213E-4,3.9559635E-4,-2.0935643E-2,2.976857E-2,-1.671064E-3,-3.6606826E-3,1.1927045E-2,-1.3679871E-2,2.9247524E-3],"categories":[],"categories_nodes":[],"categories_segments":[],"categories_sizes":[],"default_left":[0,0,0,0,0,0,0,0,0,0,0,0,0,0,0,0,0,0,0,0,0,0,0,0,0,0,0,0,0,0,0,0,0,0,0,0,0,0,0,0,0,0,0,0,0,0,0,0,0,0,0,0,0,0,0,0,0,0,0,0,0],"id":25,"left_children":[1,3,5,7,9,11,13,15,17,19,21,23,-1,25,27,29,31,-1,-1,-1,-1,-1,-1,33,35,-1,37,39,41,43,45,47,-1,49,-1,51,-1,-1,-1,53,55,57,59,-1,-1,-1,-1,-1,-1,-1,-1,-1,-1,-1,-1,-1,-1,-1,-1,-1,-1],"loss_changes":[4.285601E-3,1.3079859E-2,1.5447295E-2,7.278427E-3,1.6699053E-2,1.580151E-2,1.0109876E-2,2.8180263E-3,9.05958E-5,2.088861E-3,9.741433E-3,4.56351E-3,0E0,1.1859275E-3,3.5034774E-3,3.301227E-3,7.3532946E-4,0E0,0E0,0E0,0E0,0E0,0E0,1.0500151E-3,3.3947192E-3,0E0,4.434893E-4,1.3578072E-2,4.6208343E-3,1.9149639E-3,7.617287E-5,2.3015735E-5,0E0,3.1288635E-4,0E0,2.3104826E-3,0E0,0E0,0E0,9.972009E-3,2.4890602E-2,6.230137E-3,3.3413563E-3,0E0,0E0,0E0,0E0,0E0,0E0,0E0,0E0,0E0,0E0,0E0,0E0,0E0,0E0,0E0,0E0,0E0,0E0],"parents":[2147483647,0,0,1,1,2,2,3,3,4,4,5,5,6,6,7,7,8,8,9,9,10,10,11,11,13,13,14,14,15,15,16,16,23,23,24,24,26,26,27,27,28,28,29,29,30,30,31,31,33,33,35,35,39,39,40,40,41,41,42,42],"right_children":[2,4,6,8,10,12,14,16,18,20,22,24,-1,26,28,30,32,-1,-1,-1,-1,-1,-1,34,36,-1,38,40,42,44,46,48,-1,50,-1,52,-1,-1,-1,54,56,58,60,-1,-1,-1,-1,-1,-1,-1,-1,-1,-1,-1,-1,-1,-1,-1,-1,-1,-1],"split_conditions":[2.7279753E-2,2.7171087E-2,2.8648699E-2,3.3004751E0,7.995463E0,2.8640475E-2,2.9574057E-2,2.7019532E-2,2.7142055E-2,7.98371E0,7.9960113E0,7.9908776E0,3.487528E-2,7.6400805E0,4.021579E0,7.985508E0,7.9928665E0,-8.065508E-3,-1.9099832E-3,-5.1663145E-3,6.761527E-3,-4.367163E-2,-3.458056E-3,2.801647E-2,2.8044347E-2,-8.25584E-4,2.8664002E-2,3.9526436E0,7.94268E0,3.3001058E0,8.016763E0,7.9921722E0,-7.2167697E-3,7.554536E0,-5.568564E-3,2.7478198E-2,1.8150015E-2,-2.97575E-3,-1.4267093E-2,3.9478962E0,4.3957435E-2,7.9383755E0,7.948044E0,-4.2417035E-3,7.1355435E-3,1.0514543E-2,2.7507665E-3,1.2485147E-3,-2.9286148E-4,-1.5116931E-3,3.5826925E-3,9.967947E-3,-1.8379213E-4,3.9559635E-4,-2.0935643E-2,2.976857E-2,-1.671064E-3,-3.6606826E-3,1.1927045E-2,-1.3679871E-2,2.9247524E-3],"split_indices":[2,2,2,1,0,2,2,2,2,0,0,0,0,0,1,0,0,0,0,0,0,0,0,2,2,0,2,1,0,1,0,0,0,0,0,2,0,0,0,1,2,0,0,0,0,0,0,0,0,0,0,0,0,0,0,0,0,0,0,0,0],"split_type":[0,0,0,0,0,0,0,0,0,0,0,0,0,0,0,0,0,0,0,0,0,0,0,0,0,0,0,0,0,0,0,0,0,0,0,0,0,0,0,0,0,0,0,0,0,0,0,0,0,0,0,0,0,0,0,0,0,0,0,0,0],"sum_hessian":[2.14E2,2.6E1,1.88E2,2E1,6E0,1.5E1,1.73E2,1.4E1,6E0,4E0,2E0,1.4E1,1E0,6E0,1.67E2,1.1E1,3E0,5E0,1E0,3E0,1E0,1E0,1E0,5E0,9E0,1E0,5E0,1.51E2,1.6E1,4E0,7E0,2E0,1E0,3E0,2E0,7E0,2E0,1E0,4E0,1.43E2,8E0,1.1E1,5E0,3E0,1E0,6E0,1E0,1E0,1E0,1E0,2E0,3E0,4E0,1.42E2,1E0,3E0,5E0,9E0,2E0,4E0,1E0],"tree_param":{"num_deleted":"0","num_feature":"3","num_nodes":"61","size_leaf_vector":"1"}},{"base_weights":[5.0112285E-4,-3.3680763E-4,1.7712379E-2,5.860044E-4,-4.7085315E-2,3.0769266E-2,-3.1116274E-3,-3.83395E-4,2.426304E-2,-1.8392498E-2,-6.572461E-3,-5.0579133E-3,7.1434677E-4,1.6068353E-3,-2.015383E-2,6.7028046E-2,-3.6107045E-2,-2.2724015E-3,3.243238E-3,5.029796E-4,3.3350844E-2,-2.6152344E-2,-6.327845E-3,-4.2713E-2,5.3339996E-3,-4.2372704E-3,5.2795414E-4,4.731722E-4,-1.3664228E-2,3.4179855E-2,-1.6656376E-3,-6.5995115E-3,2.1865816E-4,8.418442E-3,-3.913531E-3,-1.8355966E-3,-6.711781E-4],"categories":[],"categories_nodes":[],"categories_segments":[],"categories_sizes":[],"default_left":[0,0,0,0,0,0,0,0,0,0,0,0,0,0,0,0,0,0,0,0,0,0,0,0,0,0,0,0,0,0,0,0,0,0,0,0,0],"id":26,"left_children":[1,3,5,7,9,-1,11,13,15,-1,-1,-1,17,19,21,-1,23,25,-1,27,29,-1,31,-1,33,35,-1,-1,-1,-1,-1,-1,-1,-1,-1,-1,-1],"loss_changes":[3.1066602E-3,8.914449E-3,1.7988693E-2,4.6686605E-3,8.9221634E-5,0E0,4.85442E-4,7.7445367E-3,1.0425556E-1,0E0,0E0,0E0,2.6581078E-4,6.2555294E-3,1.612765E-2,0E0,3.15869E-2,6.291682E-5,0E0,8.679647E-3,1.9441845E-2,0E0,1.7853504E-3,0E0,2.8723276E-3,5.1249153E-6,0E0,0E0,0E0,0E0,0E0,0E0,0E0,0E0,0E0,0E0,0E0],"parents":[2147483647,0,0,1,1,2,2,3,3,4,4,6,6,7,7,8,8,12,12,13,13,14,14,16,16,17,17,19,19,20,20,22,22,24,24,25,25],"right_children":[2,4,6,8,10,-1,12,14,16,-1,-1,-1,18,20,22,-1,24,26,-1,28,30,-1,32,-1,34,36,-1,-1,-1,-1,-1,-1,-1,-1,-1,-1,-1],"split_conditions":[8.5250025E0,8.524393E0,8.527411E0,8.523168E0,8.524691E0,3.0769266E-2,3.5345443E-2,8.4753895E0,6.5899414E-1,-1.8392498E-2,-6.572461E-3,-5.0579133E-3,1.9655348E0,8.450264E0,8.487554E0,6.7028046E-2,6.8333095E-1,8.593412E0,3.243238E-3,8.43727E0,8.462084E0,-2.6152344E-2,2.0160828E0,-4.2713E-2,8.524164E0,5.564326E-1,5.2795414E-4,4.731722E-4,-1.3664228E-2,3.4179855E-2,-1.6656376E-3,-6.5995115E-3,2.1865816E-4,8.418442E-3,-3.913531E-3,-1.8355966E-3,-6.711781E-4],"split_indices":[0,0,0,0,0,0,2,0,1,0,0,0,1,0,0,0,1,0,0,0,0,0,1,0,0,1,0,0,0,0,0,0,0,0,0,0,0],"split_type":[0,0,0,0,0,0,0,0,0,0,0,0,0,0,0,0,0,0,0,0,0,0,0,0,0,0,0,0,0,0,0,0,0,0,0,0,0],"sum_hessian":[2.14E2,2.05E2,9E0,2.02E2,3E0,1E0,8E0,1.95E2,7E0,1E0,2E0,1E0,7E0,1.78E2,1.7E1,1E0,6E0,6E0,1E0,1.73E2,5E0,2E0,1.5E1,1E0,5E0,4E0,2E0,1.7E2,3E0,1E0,4E0,4E0,1.1E1,2E0,3E0,1E0,3E0],"tree_param":{"num_deleted":"0","num_feature":"3","num_nodes":"37","size_leaf_vector":"1"}},{"base_weights":[4.3273222E-4,-9.899411E-3,1.9064631E-3,8.4254285E-4,-4.071107E-2,2.5746819E-2,-2.967102E-4,1.0155892E-2,-1.9234998E-2,-3.3925772E-3,-8.9338206E-2,1.43197095E-2,2.9573018E-2,-2.9299507E-2,9.1350573E-4,9.7782025E-3,4.196644E-3,-6.167427E-3,-1.6944677E-3,-4.1103694E-3,5.6763054E-3,-3.7191868E-2,-3.0103237E-3,-4.4699013E-3,2.4161506E-2,-7.7272655E-4,-3.332417E-2,1.2383279E-2,-6.3219207E-4,-1.1312634E-2,9.980691E-3,4.6689063E-3,-4.549504E-3,1.2170158E-2,1.442538E-2,-2.600384E-3,-1.0956549E-2,1.7192434E-4,6.1185718E-2,6.7584575E-3,-4.4331104E-3,-6.174207E-4,-5.8614495E-3,5.858854E-3,-2.7674765E-3,-1.3559103E-3,2.7715028E-3,7.618654E-3,-2.5324704E-4,-2.8179903E-3,2.9154143E-3,2.3025084E-2,2.1738054E-3,9.059733E-4,2.9052867E-2,-2.0260409E-2,-1.0745672E-4],"categories":[],"categories_nodes":[],"categories_segments":[],"categories_sizes":[],"default_left":[0,0,0,0,0,0,0,0,0,0,0,0,0,0,0,0,0,0,0,0,0,0,0,0,0,0,0,0,0,0,0,0,0,0,0,0,0,0,0,0,0,0,0,0,0,0,0,0,0,0,0,0,0,0,0,0,0],"id":27,"left_children":[1,3,5,7,9,11,13,15,17,19,21,23,-1,25,27,-1,29,-1,-1,-1,-1,-1,-1,31,33,-1,35,37,39,41,43,45,-1,47,-1,-1,-1,49,51,53,55,-1,-1,-1,-1,-1,-1,-1,-1,-1,-1,-1,-1,-1,-1,-1,-1],"loss_changes":[3.2926344E-3,8.970691E-3,9.934757E-3,4.122121E-3,1.2399754E-2,1.1904174E-2,6.134104E-3,1.8689289E-3,9.718817E-6,1.4093567E-3,6.995991E-3,2.8818527E-3,0E0,6.6704396E-4,2.9862677E-3,0E0,1.2790909E-3,0E0,0E0,0E0,0E0,0E0,0E0,6.5724726E-4,2.2835038E-3,0E0,1.5648361E-4,1.1908359E-2,4.2155585E-3,2.6428397E-4,2.014068E-3,2.0970157E-4,0E0,1.3983891E-3,0E0,0E0,0E0,1.6435685E-3,2.8020581E-3,1.6883567E-2,2.5432076E-2,0E0,0E0,0E0,0E0,0E0,0E0,0E0,0E0,0E0,0E0,0E0,0E0,0E0,0E0,0E0,0E0],"parents":[2147483647,0,0,1,1,2,2,3,3,4,4,5,5,6,6,7,7,8,8,9,9,10,10,11,11,13,13,14,14,16,16,23,23,24,24,26,26,27,27,28,28,29,29,30,30,31,31,33,33,37,37,38,38,39,39,40,40],"right_children":[2,4,6,8,10,12,14,16,18,20,22,24,-1,26,28,-1,30,-1,-1,-1,-1,-1,-1,32,34,-1,36,38,40,42,44,46,-1,48,-1,-1,-1,50,52,54,56,-1,-1,-1,-1,-1,-1,-1,-1,-1,-1,-1,-1,-1,-1,-1,-1],"split_conditions":[2.7279753E-2,2.7171087E-2,2.8648699E-2,3.3004751E0,7.995463E0,2.8640475E-2,2.9574057E-2,2.587587E-2,2.7142055E-2,7.98371E0,7.9960113E0,7.9908776E0,2.9573018E-2,7.6400805E0,7.735665E0,9.7782025E-3,7.985508E0,-6.167427E-3,-1.6944677E-3,-4.1103694E-3,5.6763054E-3,-3.7191868E-2,-3.0103237E-3,2.801647E-2,2.8044347E-2,-7.7272655E-4,2.8664002E-2,7.7321815E0,3.547722E-2,7.9808145E0,2.7019532E-2,7.554536E0,-4.549504E-3,2.7478198E-2,1.442538E-2,-2.600384E-3,-1.0956549E-2,2.9582222E0,7.7323456E0,3.5453577E-2,3.8525533E-2,-6.174207E-4,-5.8614495E-3,5.858854E-3,-2.7674765E-3,-1.3559103E-3,2.7715028E-3,7.618654E-3,-2.5324704E-4,-2.8179903E-3,2.9154143E-3,2.3025084E-2,2.1738054E-3,9.059733E-4,2.9052867E-2,-2.0260409E-2,-1.0745672E-4],"split_indices":[2,2,2,1,0,2,2,2,2,0,0,0,0,0,0,0,0,0,0,0,0,0,0,2,2,0,2,0,2,0,2,0,0,2,0,0,0,1,0,2,2,0,0,0,0,0,0,0,0,0,0,0,0,0,0,0,0],"split_type":[0,0,0,0,0,0,0,0,0,0,0,0,0,0,0,0,0,0,0,0,0,0,0,0,0,0,0,0,0,0,0,0,0,0,0,0,0,0,0,0,0,0,0,0,0,0,0,0,0,0,0,0,0,0,0,0,0],"sum_hessian":[2.14E2,2.6E1,1.88E2,2E1,6E0,1.5E1,1.73E2,1.4E1,6E0,4E0,2E0,1.4E1,1E0,6E0,1.67E2,2E0,1.2E1,5E0,1E0,3E0,1E0,1E0,1E0,5E0,9E0,1E0,5E0,1.9E1,1.48E2,3E0,9E0,3E0,2E0,7E0,2E0,1E0,4E0,1.6E1,3E0,5E1,9.8E1,2E0,1E0,6E0,3E0,1E0,2E0,3E0,4E0,8E0,8E0,2E0,1E0,4.9E1,1E0,5E0,9.3E1],"tree_param":{"num_deleted":"0","num_feature":"3","num_nodes":"57","size_leaf_vector":"1"}},{"base_weights":[4.3630018E-4,-3.7014918E-4,1.7005527E-2,4.102018E-4,-3.9880425E-2,2.6017966E-2,-3.7753582E-4,-3.63254E-4,2.2118857E-2,-1.5769511E-2,-5.4391623E-3,-4.435122E-3,3.2712072E-3,1.1877341E-3,-1.4956076E-2,5.6837942E-2,-3.734793E-2,8.463085E-3,-1.5365363E-3,-6.486014E-4,1.993594E-2,-2.1001723E-2,-4.361661E-3,-3.644196E-2,3.7717582E-3,-3.5485625E-4,3.6218048E-3,-4.0403605E-3,4.4384005E-4,5.482032E-4,-8.864468E-3,2.8818442E-2,6.597992E-4,1.7425279E-3,-4.214136E-3,9.302474E-3,-3.2368274E-3,-1.5441478E-3,-2.7401448E-4],"categories":[],"categories_nodes":[],"categories_segments":[],"categories_sizes":[],"default_left":[0,0,0,0,0,0,0,0,0,0,0,0,0,0,0,0,0,0,0,0,0,0,0,0,0,0,0,0,0,0,0,0,0,0,0,0,0,0,0],"id":28,"left_children":[1,3,5,7,9,-1,11,13,15,-1,-1,-1,17,19,21,-1,23,25,27,29,31,-1,33,-1,35,-1,-1,37,-1,-1,-1,-1,-1,-1,-1,-1,-1,-1,-1],"loss_changes":[2.8791768E-3,6.367727E-3,1.2152391E-2,3.416544E-3,1.5052268E-4,0E0,5.214415E-4,4.4765226E-3,7.6734535E-2,0E0,0E0,0E0,2.1269354E-4,6.1755413E-3,1.0775818E-2,0E0,2.1213397E-2,1.5355204E-4,4.3735286E-5,1.1788831E-2,2.1392068E-2,0E0,1.7561249E-3,0E0,2.3175383E-3,0E0,0E0,5.681486E-6,0E0,0E0,0E0,0E0,0E0,0E0,0E0,0E0,0E0,0E0,0E0],"parents":[2147483647,0,0,1,1,2,2,3,3,4,4,6,6,7,7,8,8,12,12,13,13,14,14,16,16,17,17,18,18,19,19,20,20,22,22,24,24,27,27],"right_children":[2,4,6,8,10,-1,12,14,16,-1,-1,-1,18,20,22,-1,24,26,28,30,32,-1,34,-1,36,-1,-1,38,-1,-1,-1,-1,-1,-1,-1,-1,-1,-1,-1],"split_conditions":[8.5250025E0,8.524393E0,8.527411E0,8.523999E0,8.524691E0,2.6017966E-2,3.5345443E-2,8.4753895E0,6.5899414E-1,-1.5769511E-2,-5.4391623E-3,-4.435122E-3,8.576871E0,8.416743E0,8.487554E0,5.6837942E-2,6.8333095E-1,8.529231E0,8.593412E0,8.337072E0,8.418925E0,-2.1001723E-2,5.0340336E-2,-3.644196E-2,8.524164E0,-3.5485625E-4,3.6218048E-3,8.592097E0,4.4384005E-4,5.482032E-4,-8.864468E-3,2.8818442E-2,6.597992E-4,1.7425279E-3,-4.214136E-3,9.302474E-3,-3.2368274E-3,-1.5441478E-3,-2.7401448E-4],"split_indices":[0,0,0,0,0,0,2,0,1,0,0,0,0,0,0,0,1,0,0,0,0,0,2,0,0,0,0,0,0,0,0,0,0,0,0,0,0,0,0],"split_type":[0,0,0,0,0,0,0,0,0,0,0,0,0,0,0,0,0,0,0,0,0,0,0,0,0,0,0,0,0,0,0,0,0,0,0,0,0,0,0],"sum_hessian":[2.14E2,2.05E2,9E0,2.02E2,3E0,1E0,8E0,1.96E2,6E0,1E0,2E0,1E0,7E0,1.78E2,1.8E1,1E0,5E0,3E0,4E0,1.63E2,1.5E1,2E0,1.6E1,1E0,4E0,1E0,2E0,2E0,2E0,1.51E2,1.2E1,2E0,1.3E1,8E0,8E0,1E0,3E0,1E0,1E0],"tree_param":{"num_deleted":"0","num_feature":"3","num_nodes":"39","size_leaf_vector":"1"}},{"base_weights":[4.2828737E-4,-8.942904E-3,1.7647629E-3,-2.333096E-6,-3.448706E-2,2.0523228E-2,2.9704352E-5,7.023573E-3,-4.517254E-3,-2.5001287E-3,-7.630292E-2,1.075596E-2,2.5054837E-2,-2.1681938E-2,9.3417935E-4,7.712925E-3,2.1711038E-3,-3.3088715E-3,4.7426466E-3,-3.1695317E-2,-2.6410015E-3,2.1698833E-2,-1.5314072E-3,-7.3903805E-4,-7.342333E-3,2.1776208E-3,-1.0238602E-2,-9.949684E-3,6.8023084E-3,7.986546E-3,1.2567139E-2,2.6234814E-3,-4.592344E-3,3.8727373E-4,3.0581215E-2,-1.9110005E-2,1.4874768E-2,-6.0355663E-4,-5.064476E-3,4.2162077E-3,-2.2766322E-3,-4.3296817E-4,3.918672E-3,-3.149164E-3,2.9913606E-3,3.6779715E-4,-1.7932383E-2,2.2864992E-2,-1.4817804E-3,1.3535023E-4,-9.417641E-3,9.662623E-3,-8.169169E-3],"categories":[],"categories_nodes":[],